tree
version=v4
num_class=6
num_tree_per_iteration=6
label_index=0
max_feature_idx=16
objective=multiclass num_class:6
feature_names=Column_0 Column_1 Column_2 Column_3 Column_4 Column_5 Column_6 Column_7 Column_8 Column_9 Column_10 Column_11 Column_12 Column_13 Column_14 Column_15 Column_16
feature_infos=[-0.9947260891471823:1.6203838866661429] [-0.78354485724077905:2.3106780809536138] [-0.43360609292998264:4.1444228672021479] [-0.49755314139252427:2.2491530681860454] [-2.1010607249903259:0.79546676871925215] [-1.5237176087765327:0.77939521056153749] [-1.0358908877676476:2.0675581292064797] [-0.6075206311399205:4.2097623496960264] [-0.49755314139252427:2.2491530681860454] [-1.7045265066951969:1.6818382135871184] [-1.6822118826932804:1.6745698087709517] [-0.45622528753599501:3.695775721837284] [-0.40120731333561876:3.9396344893549475] [-0.27087730925430303:26.134175756055434] [-3.7593471103748257:3.6891210324009265] [-2.3640810973809581:2.1410622861384714] [-2.0561635987460827:2.952744590310227]
tree_sizes=990 3335 457 560 3367 561 3561 3501 3555 3573 3400 3570 3575 3504 3552 3574 3416 3573 3562 3501 3541 3563 3410 3559 3561 3497 3535 3570 3415 3570 3565 3491 3550 3575 3417 3570 3569 3499 3555 3571 3410 3567 3569 3488 3556 3568 3427 3566 3563 3499 3548 3582 3421 3575 3570 3493 3555 3570 3422 3561 3574 3494 3549 3566 3421 3566 3555 3492 3548 3572 3430 3571 3577 3497 3570 3591 3450 3575 3578 3491 3576 3586 3457 3578 3579 3478 3574 3589 3459 3581 3591 3478 3584 3591 3434 3583 3587 3490 3590 3584 3449 3582 3598 3489 3596 3597 3447 3589 3596 3490 3586 3592 3445 3590 3594 3494 3592 3599 3454 3593 3587 3496 3583 3591 3437 3593 3591 3501 3588 3600 3478 3591 3591 3479 3585 3600 3472 3599 3586 3481 3591 3594 3474 3588 3614 3485 3591 3607 3487 3604 3612 3477 3593 3600 3480 3593 3608 3490 3596 3601 3471 3593 3609 3488 3603 3606 3480 3603 3625 3496 3609 3612 3483 3618 3624 3504 3617 3620 3493 3612 3624 3475 3626 3631 3494 3623 3627 3478 3615 3620 3492 3618 3632 3489 3625 3632 3512 3630 3628 3509 3625 3630 3507 3622 3631 3492 3618 3642 3522 3630 3631 3502 3624 3638 3511 3633 3640 3510 3632 3644 3525 3637 3646 3533 3628 3639 3505 3641 3654 3540 3632 3653 3524 3641 3646 3524 3631 3653 3511 3644 3652 3546 3638 3646 3532 3647 3655 3542 3644 3656 3515 3653 3664 3535 3657 3667 3528 3660 3665 3542 3657 3664 3523 3666 3676 3559 3662 3681 3538 3665 3680 3559 3668 3675 3533 3670 3665 3567 3669 3681 3555 3667 3683 3560 3662 3680 3565 3671 3677 3583 3674 3687 3548 3678 3697 3561 3684 3702 3571 3694 3699 3594 3682 3702 3544 3696 3703 3589 3690 3704 3576 3704 3700 3602 3691 3707 3589 3697 3717 3607 3692 3718 3566 3706 3709 3622 3690 3708 3609 3710 3712 3610 3695 3723 3569 3709 3717 3627 3696 3714 3598 3711 3719 3633 3700 3728 3603 3719 3709 3634 3693 3721 3603 3712 3716 3625 3705 3726 3621 3725 3728 3646 3704 3732 3612 3718 3712 3645 3714 3726 3620 3721 3725 3646 3712 3719 3627 3712 3736 3664 3719 3753 3633 3747 3748 3654 3724 3740 3623 3744 3754 3678 3718 3745 3654 3742 3762 3676 3728 3759 3634 3773 3761 3683 3743 3766 3657 3758 3278 3667 3737 3642 3643 3285 3776 3682 3737 3762 3662 3160 3752 3698 3760 3667 3664 3758 3751 3705 3743 3665 3645 3752 3638 3709 3518 3295 3662 3403 3763 3715 2834 3081 3684 2368 3188 3713 3759 2598 3681 3074 3197 3740 3294 2598 3680 2486 2488 3721 2695 2377 3684 2256 1660 3743 3321 1671 3713 2376 2257 3739 1655 2852 3717 2590 2377 3765 2373 2383 3703 2721 2267 3778 2501 2392 3720 2144 2263 3193 1665 2477 3743 2962 2257 3191 2023 2045 3739 2738 2009 3405 1550 2367 3394 2140 2128 2601 2011 1791 3525 1668 1786 2363 1306 1558 2817 1438 1199 2138 1783 1433 3070 1675 1197 2033 1320 1554 2487 1200 1086 2150 1563 1321 2372 1434 967 2022 1092 1086 2262 1313 1089 1924 1196 1088 1783 1081 739 1551 968 853 1783 966 738 1435 960 734 1543 619 852 1315 851 739 1423 735 728 1324 731 617 1317 498 616 1197 616 504 1320 613 619 1198 612 503 1185 499 495 1205 493 383 963 378 501 972 379 384 968 379 382 851 375 382 965 380

Tree=0
num_leaves=8
num_cat=0
split_feature=2 0 1 7 2 1 1
split_gain=52141.4 1289.03 6569.59 1.81899e-12 9.09495e-13 1.13687e-13 2.84217e-14
threshold=0.13091035773914114 1.0000000180025095e-35 -0.75807090941218069 -0.42325261927580154 0.076103952745647199 1.5986824195867304 2.167773719316445
decision_type=2 2 2 2 2 2 2
left_child=1 3 4 -1 -3 -4 -7
right_child=-2 2 5 -5 -6 6 -8
leaf_value=-1.891759469228055 -1.2917594960501444 -1.2917594960501444 -1.891759469228055 -1.891759469228055 -1.2917594960501444 -1.891759469228055 -1.891759469228055
leaf_weight=3086.0000919699669 1776.8333862870932 197.16667254269123 762.83335606753826 5912.8335095494986 26.000000774860382 194.00000578165054 44.333334654569626
leaf_count=18516 10661 1183 4577 35477 156 1164 266
internal_value=-1.79176 -1.87866 -1.78239 -1.89176 -1.29176 -1.89176 -1.89176
internal_weight=12000 10223.2 1224.33 8998.83 223.167 1001.17 238.333
internal_count=72000 61339 7346 53993 1339 6007 1430
is_linear=0
shrinkage=1


Tree=1
num_leaves=31
num_cat=0
split_feature=1 3 4 2 3 4 3 4 3 4 10 15 9 9 10 3 10 7 5 9 1 4 1 2 1 1 1 1 1 1
split_gain=12000 23934.2 10411.3 4454.07 943.4 7066.42 50.1626 1056.56 0.796119 2.64468 3.80952 1.04216 1.67832 0.110922 0.184615 0.0372403 0.130748 0.531969 0.0399259 0.169059 0.138909 0.15 9.09495e-13 9.09495e-13 4.54747e-13 2.27374e-13 2.27374e-13 1.13687e-13 5.68434e-14 1.42109e-14
threshold=-0.75807090941218069 -0.47346592172028235 1.0000000180025095e-35 0.13080556537777691 -0.48263657982110281 1.0000000180025095e-35 -0.4899449959249953 1.0000000180025095e-35 -0.49321493872309657 0.68309159279544429 0.1691661328352119 0.27782397320142366 -1.0000000180025095e-35 1.669782029819562 0.78006740456393231 -0.49404698734777008 -0.56795687962651864 -0.47011019757892153 0.77230296687151756 1.5101626062117821 2.1230349508871647 0.59594349718106254 2.2161718593059043 3.9887363490020191 -0.66989185923626349 2.1441412616923237 1.7398869441120748 1.5986824195867304 1.7169863607999891 1.7634013574923191
decision_type=2 2 2 2 2 2 2 2 2 2 2 2 2 2 2 2 2 2 2 2 2 2 2 2 2 2 2 2 2 2
left_child=23 3 -3 4 6 26 8 28 13 11 -11 -10 -13 15 -15 18 17 -17 25 20 -20 -22 -7 -1 -5 -2 -6 -9 -8 -18
right_child=1 2 -4 24 5 22 7 27 9 10 -12 12 -14 14 -16 16 29 -19 19 -21 21 -23 -24 -25 -26 -27 -28 -29 -30 -31
leaf_value=-1.891759469228055 -1.891759469228055 -1.891759469228055 -1.2917594960501444 -1.2917594960501444 -1.891759469228055 -1.2917594960501444 -1.891759469228055 -1.2917594960501444 -1.891759469228055 -1.891759469228055 -1.7489023327571238 -1.8190321997519445 -1.891759469228055 -1.891759469228055 -1.8617594705691594 -1.856465353158766 -1.891759469228055 -1.891759469228055 -1.891759469228055 -1.8717594701221245 -1.8617594705691594 -1.891759469228055 -1.2917594960501444 -1.891759469228055 -1.2917594960501444 -1.891759469228055 -1.891759469228055 -1.2917594960501444 -1.891759469228055 -1.891759469228055
leaf_weight=5929.3335100412369 1706.000050842762 354.16667722165585 1576.666713654995 3.5000001043081275 854.50002546608448 232.8333402723074 410.1666788905859 23.83333404362202 71.833335474133492 4.0000001192092887 3.5000001043081284 5.5000001639127731 7.5000002235174161 5.333333492279051 3.333333432674408 5.6666668355464962 57.333335041999817 17.333333849906921 83.500002488493919 5.0000001490116111 3.3333334326744071 3.333333432674408 8.5000002533197385 70.666668772697449 145.00000432133675 98.500002935528755 197.16667254269123 7.3333335518836966 93.000002771615982 12.333333700895308
leaf_count=35576 10236 2125 9460 21 5127 1397 2461 143 431 24 21 33 45 32 20 34 344 104 501 30 20 20 51 424 870 591 1183 44 558 74
internal_value=-1.79176 -1.69176 -1.40182 -1.82934 -1.8497 -1.77977 -1.88411 -1.85676 -1.89109 -1.88201 -1.82509 -1.88704 -1.86099 -1.89151 -1.88022 -1.89156 -1.8896 -1.88306 -1.89165 -1.88966 -1.89065 -1.87676 -1.29176 -1.89176 -1.29176 -1.89176 -1.89176 -1.29176 -1.89176 -1.89176
internal_weight=12000 6000 1930.83 4069.17 3920.67 1293 2627.67 534.333 2093.33 92.3333 7.5 84.8333 13 2001 8.66667 1992.33 92.6667 23 1899.67 95.1667 90.1667 6.66667 241.333 6000 148.5 1804.5 1051.67 31.1667 503.167 69.6667
internal_count=72000 36000 11585 24415 23524 7758 15766 3206 12560 554 45 509 78 12006 52 11954 556 138 11398 571 541 40 1448 36000 891 10827 6310 187 3019 418
is_linear=0
shrinkage=1


Tree=2
num_leaves=3
num_cat=0
split_feature=4 1
split_gain=60000 7.27596e-12
threshold=-1.2754471875909215 2.2161718593059043
decision_type=2 2
left_child=1 -1
right_child=-2 -3
leaf_value=-1.2917594960501444 -1.891759469228055 -1.2917594960501444
leaf_weight=1938.5000577718019 10000.000298023224 61.500001832842827
leaf_count=11631 60000 369
internal_value=-1.79176 -1.29176
internal_weight=12000 2000
internal_count=72000 12000
is_linear=0
shrinkage=1


Tree=3
num_leaves=4
num_cat=0
split_feature=3 3 7
split_gain=60000 7.27596e-12 2.27374e-13
threshold=1.0000000180025095e-35 2.1733335809580487 -0.15450288371816398
decision_type=2 2 2
left_child=-1 2 -2
right_child=1 -3 -4
leaf_value=-1.891759469228055 -1.2917594960501444 -1.2917594960501444 -1.2917594960501444
leaf_weight=10000.000298023224 66.83333532512188 1929.500057503581 3.6666667759418479
leaf_count=60000 401 11577 22
internal_value=-1.79176 -1.29176 -1.29176
internal_weight=12000 2000 70.5
internal_count=72000 12000 423
is_linear=0
shrinkage=1


Tree=4
num_leaves=31
num_cat=0
split_feature=3 4 3 13 11 16 14 9 10 3 10 7 5 16 11 1 7 11 9 3 4 1 4 1 1 1 1 4 7 14
split_gain=58283.3 1626.74 0.868233 2.67943 0.272426 0.255882 0.179971 0.111125 0.182353 0.0372288 0.213811 0.445013 0.0384568 0.244878 0.857143 0.0867521 0.207692 0.0378669 0.261538 0.0229764 0.262637 7.27596e-12 7.27596e-12 1.81899e-12 9.09495e-13 4.54747e-13 2.27374e-13 2.27374e-13 2.27374e-13 1.13687e-13
threshold=-0.49168601944735174 1.0000000180025095e-35 -0.49321493872309657 -0.21449627843575866 -0.45379223750705255 0.93696446544610246 -2.1440201802270225 1.669782029819562 0.78006740456393231 -0.49404698734777008 -0.56795687962651864 -0.47011019757892153 0.76334434326307132 -0.40688895112998064 -0.45473299638960213 2.1230349508871647 -0.25962312077094007 -0.44904820915901844 1.2757445435669041 -0.4899449959249953 -2.0425797660912011 2.2161718593059043 0.45146112813616668 -0.47894349034126538 2.0011188558112782 -0.6112710877270795 2.1230349508871647 0.57874321515190841 -0.18191575721854866 -0.181984997210799
decision_type=2 2 2 2 2 2 2 2 2 2 2 2 2 2 2 2 2 2 2 2 2 2 2 2 2 2 2 2 2 2
left_child=1 -1 6 -4 -2 -5 -3 9 -9 12 11 -11 17 14 -14 24 -17 21 29 20 -6 22 28 -21 25 -15 -12 -23 -8 -19
right_child=4 2 3 5 19 -7 7 8 -10 10 26 -13 13 15 -16 16 -18 18 -20 23 -22 27 -24 -25 -26 -27 -28 -29 -30 -31
leaf_value=-1.891759469228055 -1.8644867431745136 -1.310509495211954 -1.3806483809653907 -1.2917594960501444 -1.891759469228055 -1.3217594947090399 -1.2917594960501444 -1.2917594960501442 -1.3217594947090401 -1.3270536121194332 -1.2917594960501444 -1.2917594960501444 -1.3489023506385167 -1.2917594960501444 -1.2917594960501444 -1.2917594960501444 -1.3217594947090396 -1.2917594960501448 -1.3217594947090399 -1.891759469228055 -1.8631880419338687 -1.2917594960501444 -1.2917594960501444 -1.891759469228055 -1.2917594960501444 -1.2917594960501444 -1.2917594960501444 -1.2917594960501444 -1.2917594960501444 -1.2917594960501444
leaf_weight=46.333334714174271 3.6666667759418479 5.3333334922790518 4.5000001341104534 19.33333390951157 39.833334520459175 3.3333334326744071 51.500001534819603 5.1666668206453306 3.333333432674408 5.6666668355464926 64.166668578982353 9.6666669547557813 3.5000001043081275 10.500000312924383 10.500000312924383 7.5000002235174179 3.3333334326744062 7.6666668951511445 3.3333334326744071 6338.6668555736542 3.5000001043081275 16.66666716337204 1546.0000460743904 3566.1667729467154 8.0000002384185773 150.66667115688324 5.5000001639127722 36.333334416151047 5.3333334922790518 15.000000447034834
leaf_count=278 22 32 27 116 239 20 309 31 20 34 385 58 21 63 63 45 20 46 20 38032 21 100 9276 21397 48 904 33 218 32 90
internal_value=-1.79176 -1.30597 -1.29241 -1.31016 -1.89174 -1.29617 -1.29216 -1.29211 -1.30352 -1.29207 -1.29411 -1.3048 -1.29197 -1.29331 -1.30605 -1.29232 -1.30099 -1.29182 -1.29561 -1.89175 -1.88945 -1.29176 -1.29176 -1.89176 -1.29176 -1.29176 -1.29176 -1.29176 -1.29176 -1.29176
internal_weight=12000 2048.17 2001.83 27.1667 9951.83 22.6667 1974.67 1969.33 8.5 1960.83 85 15.3333 1875.83 194 14 180 10.8333 1681.83 26 9948.17 43.3333 1655.83 1602.83 9904.83 169.167 161.167 69.6667 53 56.8333 22.6667
internal_count=72000 12289 12011 163 59711 136 11848 11816 51 11765 510 92 11255 1164 84 1080 65 10091 156 59689 260 9935 9617 59429 1015 967 418 318 341 136
is_linear=0
shrinkage=1


Tree=5
num_leaves=4
num_cat=0
split_feature=6 3 3
split_gain=60000 7.27596e-12 2.27374e-13
threshold=1.9345531713361603 -0.47371885538059155 -0.47531978019932231
decision_type=2 2 2
left_child=-1 2 -2
right_child=1 -3 -4
leaf_value=-1.891759469228055 -1.2917594960501444 -1.2917594960501444 -1.2917594960501444
leaf_weight=10000.000298023224 42.333334594964981 1934.5000576525927 23.166667357087135
leaf_count=60000 254 11607 139
internal_value=-1.79176 -1.29176 -1.29176
internal_weight=12000 2000 65.5
internal_count=72000 12000 393
is_linear=0
shrinkage=1


Tree=6
num_leaves=31
num_cat=0
split_feature=2 0 1 14 1 2 3 3 11 7 2 3 7 7 3 4 3 9 15 4 16 16 5 11 11 9 9 10 11 1
split_gain=30928.4 1186.93 3913.34 6.32057e-07 3.88894e-06 1.82047e-06 1.95689e-06 3.39613e-07 2.20505e-05 3.45342e-05 9.63687e-06 2.16846e-06 1.18548e-05 7.31877e-07 1.14775e-05 2.36596e-05 4.47407e-06 6.65605e-06 6.80675e-06 4.16295e-06 5.92693e-07 4.82349e-07 4.12379e-06 1.22052e-05 3.72395e-07 1.46535e-06 2.79438e-07 2.82309e-07 1.78972e-07 1.46042e-07
threshold=0.13091035773914114 1.0000000180025095e-35 -0.75807090941218069 -2.1440201802270225 1.5491746637048298 0.13080556537777691 -0.49321493872309657 -0.4899449959249953 -0.44581499211439235 1.1142441583885356 -0.054676914236915723 -0.49168601944735174 0.3374355902958675 -0.16805604389432957 -0.49321493872309657 -2.0334062823423191 -0.49321493872309657 -0.012074724088176286 0.22220491908389978 0.68309159279544429 0.6926274806140873 -0.40688895112998064 0.76334434326307132 -0.45473299638960213 -0.44904820915901844 1.2757445435669041 1.669782029819562 0.38784804488962593 -0.45244841418166776 2.1230349508871647
decision_type=2 2 2 2 2 2 2 2 2 2 2 2 2 2 2 2 2 2 2 2 2 2 2 2 2 2 2 2 2 2
left_child=1 3 -3 4 5 6 -1 8 10 -10 11 13 -13 16 29 -16 21 18 -18 20 -19 22 -5 -24 26 -26 -23 -28 -14 -15
right_child=-2 2 -4 7 -6 -7 -8 -9 9 -11 -12 12 28 14 15 -17 17 19 -20 -21 -22 24 23 -25 25 -27 27 -29 -30 -31
leaf_value=-0.097726793758764821 0.31200486320090653 0.31200486320090653 -0.097646416536162461 -0.097647141875716603 -0.097763527450437884 -0.097584055486300877 -0.097646564600355423 -0.097646561354090236 -0.098077697797716801 -0.09763925318687286 -0.097511668988007033 -0.097861804142480524 -0.097616016474903797 -0.097646794162880537 -0.097646564600355423 -0.097989954436261073 -0.097639923476949983 -0.097661914420689347 -0.097464266688472689 -0.097546167601644168 -0.097713405974211132 -0.097646654150777196 -0.097876866353341849 -0.097647633650019439 -0.097648958687886492 -0.097705691588558796 -0.097646564600355423 -0.097689907627209749 -0.097645092589551424 -0.097658389058517078
leaf_weight=3.6170004755258622 2504.3055725544691 314.53570599853992 901.73345212638378 97.7275550365448 3.3200674355030051 3.7397173196077338 19.0645896345377 6235.6209547668695 3.0594638735055915 4.3517521619796753 5.2151659578084937 3.030346766114234 2.99775306880474 149.21585795283318 5.8544802814722061 3.0527050048112851 3.7514066994190234 5.858819514513014 5.3550979942083359 2.9869923889636985 3.6145218014717102 1468.4300383776426 3.1880441755056372 8.5569919645786268 33.479551091790199 5.2692626267671576 3.0022975802421561 3.008711189031601 7.2049877494573584 11.715741425752638
leaf_count=24 10661 1339 6007 651 22 25 127 41539 20 29 35 20 20 994 39 20 25 39 36 20 24 9782 21 57 223 35 20 20 48 78
internal_value=-1.33837e-06 -0.0838241 0.00829227 -0.097647 -0.0976615 -0.0976487 -0.0976594 -0.0976469 -0.0976481 -0.0978202 -0.0976474 -0.0976478 -0.0976881 -0.0976475 -0.0976538 -0.0977643 -0.0976469 -0.0976016 -0.0975366 -0.0976491 -0.0976816 -0.0976475 -0.0976539 -0.0977099 -0.097647 -0.0976567 -0.0976467 -0.0976683 -0.0976365 -0.0976476
internal_weight=11825.9 9321.56 1216.27 8105.29 29.7414 26.4213 22.6816 8075.55 1839.93 7.41122 1832.52 1827.3 13.2331 1814.07 169.839 8.90719 1644.23 21.5668 9.1065 12.4603 9.47334 1622.66 109.473 11.745 1513.19 38.7488 1474.44 6.01101 10.2027 160.932
internal_count=72000 61339 7346 53993 198 176 151 53795 12256 49 12207 12172 88 12084 1131 59 10953 144 61 83 63 10809 729 78 10080 258 9822 40 68 1072
is_linear=0
shrinkage=0.1


Tree=7
num_leaves=31
num_cat=0
split_feature=1 3 4 2 3 4 3 4 3 4 14 11 14 9 12 3 10 7 5 9 1 15 3 10 15 14 16 5 11 11
split_gain=9489.58 13615.4 6958.23 1866.31 478.588 2932.18 42.2272 591.8 0.839716 2.68251 3.16032 0.735869 0.312183 0.117488 0.202514 0.0398146 0.138624 0.54714 0.0427267 0.179256 0.147203 0.16558 0.0166573 0.000243844 0.000162918 2.72019e-06 2.29878e-06 9.92729e-07 6.9396e-07 5.63574e-07
threshold=-0.75807090941218069 -0.4756036091972729 1.0000000180025095e-35 0.13080556537777691 -0.48300036743024882 1.0000000180025095e-35 -0.4899449959249953 1.0000000180025095e-35 -0.49321493872309657 0.59135675530662146 -0.181984997210799 -0.44871023158674017 0.54074737863955258 1.669782029819562 -0.39700034336860462 -0.49404698734777008 -0.56795687962651864 -0.47011019757892153 0.77230296687151756 1.5101626062117821 2.1230349508871647 0.33344302731894743 -0.48684881717944234 0.43926758554812911 0.27782397320142366 -2.1440201802270225 -0.40688895112998064 -1.503187429673843 -0.45379223750705255 -0.44904820915901844
decision_type=2 2 2 2 2 2 2 2 2 2 2 2 2 2 2 2 2 2 2 2 2 2 2 2 2 2 2 2 2 2
left_child=-1 3 -3 4 6 -6 8 -8 13 12 -11 23 24 15 -15 18 17 -17 25 20 26 -22 -5 -12 27 -2 -20 28 -10 -27
right_child=1 2 -4 22 5 -7 7 -9 9 10 11 -13 -14 14 -16 16 -18 -19 19 -21 21 -23 -24 -25 -26 29 -28 -29 -30 -31
leaf_value=-0.097646564600355423 -0.097724708851782971 -0.097646564600355423 0.31200486320090653 0.31758733657940336 -0.097646564600355423 0.31200486320090653 -0.097646516041870371 0.31200486320090653 -0.097601515252760729 0.010765761773998267 -0.097804381982178945 -0.044576315386115117 -0.064834200933581027 -0.0978679557208193 -0.064940410826405476 -0.060386686398567146 -0.097646564600355423 -0.097646564600355423 -0.097712085950498906 -0.076094206829117231 -0.097951339331782725 -0.064955293500934527 0.31200486320090653 -0.098935496942661169 -0.098269892936392142 -0.097646797840393373 -0.097646928439557093 -0.097697770876126147 -0.097644522446654669 -0.09766194785307597
leaf_weight=5404.1356444358826 4.5207861363887778 500.48300662636757 2417.3912997990847 5.5731160640716544 802.06379856169224 223.39317132532597 416.8680144995451 38.524164140224457 4.0440610796213141 5.4820897877216366 3.175764575600625 3.717603683471677 3.0295813083648673 4.8546660393476486 3.0358780026435843 5.2719303369522121 62.748019427061081 15.611947417259215 5.8731433898210517 4.5729702562093726 3.0465615093708029 3.0368251502513885 130.60631257295609 4.7663785368204117 4.4811943620443335 1595.8893899768591 69.354312658309937 3.3106534779071799 51.934483706951141 24.937834680080414
leaf_count=36000 30 3334 10291 24 5343 951 2777 164 27 35 21 24 20 32 20 34 418 104 39 30 20 20 556 30 29 10631 462 22 346 166
internal_value=2.47131e-06 0.0821796 0.24174 -0.0507012 -0.0653778 -0.00840505 -0.0903227 -0.0629918 -0.0969195 -0.0871428 -0.0518536 -0.0812955 -0.0961985 -0.0973747 -0.0851991 -0.0974283 -0.0952978 -0.0882407 -0.0975324 -0.0953586 -0.0964421 -0.0814797 0.312233 -0.0984832 -0.0976885 -0.0976472 -0.097652 -0.0976446 -0.0976414 -0.097647
internal_weight=11825.7 6421.6 2917.87 3503.72 3367.55 1025.46 2342.09 455.392 1886.7 83.9418 17.1418 11.6597 66.8 1802.75 7.89054 1794.86 83.6319 20.8839 1711.23 85.8838 81.3108 6.08339 136.179 7.94214 63.7704 1625.35 75.2275 59.2892 55.9785 1620.83
internal_count=72000 36000 13625 22375 21795 6294 15501 2941 12560 554 110 75 444 12006 52 11954 556 138 11398 571 541 40 580 51 424 10827 501 395 373 10797
is_linear=0
shrinkage=0.1


Tree=8
num_leaves=31
num_cat=0
split_feature=4 11 3 12 3 4 14 1 7 3 3 11 12 7 3 3 4 10 1 9 14 9 10 16 5 11 3 10 7 10
split_gain=36029.1 0.000186779 0.000597172 1.30236e-05 4.4765e-06 9.60253e-05 5.98577e-07 4.69886e-06 1.17626e-06 1.50466e-06 4.00683e-07 3.24784e-05 4.81169e-06 7.49975e-07 1.52882e-05 2.25135e-06 8.13236e-06 1.01687e-05 6.29113e-06 4.15929e-06 1.18384e-06 3.67846e-07 5.20071e-07 3.12869e-07 3.17303e-06 2.76156e-06 1.77215e-07 5.63937e-07 7.52398e-07 1.79686e-07
threshold=-1.2754471875909215 -0.45379223750705255 -0.49168601944735174 -0.39718691957586677 -0.4899449959249953 -2.0425797660912011 -2.1440201802270225 1.4981087238037565 -0.18191575721854866 -0.47614818135242309 -0.4899449959249953 -0.44673335774109629 -0.38976084478565637 -0.16805604389432957 -0.49372712958185333 -0.49321493872309657 0.66589131076628993 0.1691661328352119 1.4745234838771859 0.052281649381370636 0.24821848131530869 1.669782029819562 0.73883259222225905 -0.52905744354598816 0.76334434326307132 -0.45343915464713391 -0.49427139342699894 -0.56795687962651864 -0.47011019757892153 -1.0152320522695359
decision_type=2 2 2 2 2 2 2 2 2 2 2 2 2 2 2 2 2 2 2 2 2 2 2 2 2 2 2 2 2 2
left_child=1 2 -1 -3 5 -5 7 8 9 -2 11 12 13 15 -15 21 18 -18 19 -17 -16 23 -23 24 -8 -26 29 28 -28 -25
right_child=6 3 -4 4 -6 -7 10 -9 -10 -11 -12 -13 -14 14 20 16 17 -19 -20 -21 -22 22 -24 26 25 -27 27 -29 -30 -31
leaf_value=0.31200486320090648 -0.097721928309315809 0.31214654310177631 0.3132693292005988 0.31200486320090653 0.31200486320090653 0.31246798744663856 -0.097646736101902706 -0.097779306587608403 -0.097593310485777254 -0.097646564600355423 -0.097646564600355423 -0.097952721478792026 -0.097770743755050779 -0.09764772954366957 -0.097854009110901308 -0.097525565643695966 -0.097647300750048793 -0.097403857313712483 -0.097788084575417766 -0.097677748001634035 -0.097765553995604687 -0.097646564600355423 -0.097701434576979052 -0.097638629340043803 -0.097787093629821437 -0.097653319575265574 -0.097694716236681384 -0.097647398745655145 -0.09765170607894752 -0.097646668399144571
leaf_weight=15.503627032041551 3.0134445726871553 6.5753969103097907 4.92028784751892 97.015120670199394 2690.1141934990883 4.6936368495225897 59.145760789513588 3.0204569548368445 3.4419646710157386 21.91677233576775 7175.6413316577673 3.4963012337684622 3.169517070055007 148.32194954156876 3.0325720757246009 2.9842051565647143 3.4527281522750846 3.4107818901538849 3.0211029648780823 4.5102729797363281 3.0195543766021729 4.053101733326911 3.010421484708786 28.359226509928703 3.1740560382604599 3.0032944977283469 6.3197786808013943 83.467270150780678 11.411584734916685 1419.6416880488396
leaf_count=66 20 28 21 413 11452 20 394 20 23 146 47801 23 21 988 20 20 23 23 20 30 20 27 20 189 21 20 42 556 76 9457
internal_value=-1.20888e-06 0.312008 0.312309 0.312006 0.312006 0.312026 -0.0976469 -0.0976607 -0.0976481 -0.0976557 -0.0976469 -0.0976482 -0.0976476 -0.0976474 -0.0976541 -0.0976468 -0.097611 -0.0975263 -0.0976663 -0.0976172 -0.0978099 -0.0976472 -0.0976699 -0.0976471 -0.0976539 -0.0977221 -0.0976468 -0.0976508 -0.097667 -0.0976465
internal_weight=11825.9 2818.82 20.4239 2798.4 2791.82 101.709 9007.04 31.3926 28.3722 24.9302 8975.65 1800.01 1796.51 1793.34 154.374 1638.97 17.3791 6.86351 10.5156 7.49448 6.05213 1621.59 7.06352 1614.52 65.3231 6.17735 1549.2 101.199 17.7314 1448
internal_count=72000 12000 87 11913 11885 433 60000 209 189 166 59791 11990 11967 11946 1028 10918 116 46 70 50 40 10802 47 10755 435 41 10320 674 118 9646
is_linear=0
shrinkage=0.1


Tree=9
num_leaves=31
num_cat=0
split_feature=3 14 1 2 3 1 3 11 13 2 9 3 7 13 3 4 3 9 15 10 16 4 11 16 5 11 11 9 9 1
split_gain=36028.7 4.75333e-07 3.12787e-06 9.50886e-07 2.1986e-06 1.30748e-06 3.11024e-07 1.17975e-05 4.47973e-05 5.37804e-06 1.14619e-05 6.72218e-07 1.2807e-05 6.66799e-07 8.59437e-06 3.21722e-05 6.81651e-06 6.3381e-06 4.47236e-06 3.7229e-06 1.71699e-06 8.69247e-07 6.38048e-07 4.62768e-07 3.9023e-06 1.14851e-05 3.85523e-07 1.4534e-06 3.02769e-07 1.50527e-07
threshold=1.0000000180025095e-35 -2.1440201802270225 1.8104774019503591 0.13080556537777691 -0.49404698734777008 -0.079670639852614453 -0.4899449959249953 -0.44581499211439235 -0.23766825739308339 -0.054676914236915723 -1.4700741696785939 -0.49168601944735174 1.0000000180025095e-35 -0.21485940132155365 -0.49321493872309657 0.43311416063840208 -0.49321493872309657 0.091917309704695999 0.22220491908389978 0.38784804488962593 0.81479597303009488 0.65213108514296658 -0.45343915464713391 -0.40688895112998064 0.76334434326307132 -0.45473299638960213 -0.44904820915901844 1.2757445435669041 1.669782029819562 2.1230349508871647
decision_type=2 2 2 2 2 2 2 2 2 2 2 2 2 2 2 2 2 2 2 2 2 2 2 2 2 2 2 2 2 2
left_child=1 2 3 4 -1 -5 7 9 -9 11 -11 13 -13 14 29 -16 23 18 -18 -20 21 -19 -14 24 -15 -26 28 -28 -25 -3
right_child=-2 6 -4 5 -6 -7 -8 8 -10 10 -12 12 22 16 15 -17 17 20 19 -21 -22 -23 -24 26 25 -27 27 -29 -30 -31
leaf_value=-0.09772451711469049 0.31200486320090653 -0.097646837773183282 -0.097753229014924836 -0.097646564600355423 -0.097646045946283427 -0.097568359435074317 -0.097646561744706317 -0.09764357888935371 -0.098077697797716801 -0.097645066193523367 -0.097409170778590015 -0.097851494229791836 -0.097595063184048203 -0.097647175666431649 -0.097646564600355409 -0.097976715991758237 -0.097622854814206933 -0.097646564600355451 -0.09755918968160382 -0.097408423738027161 -0.097705509154876427 -0.097577544352396017 -0.097643738149614426 -0.097646635464611317 -0.097875720101099239 -0.097647693038415584 -0.097649047759358773 -0.097705691588558796 -0.097670016232527773 -0.09765617174550402
leaf_weight=4.3700519800186148 2818.841278553009 239.13616949319839 3.1674754470586768 7.5057439506053925 19.514432013034824 2.9891429245471937 7088.5736973136663 10.656577080488203 3.0594638735055915 6.7546672970056534 2.9634427726268751 3.1804374605417278 3.1443763226270702 92.323419392108917 13.059994474053385 3.8134223669767371 3.5983899533748644 4.3533314913511258 3.2881311029195786 3.2633744180202484 3.1614798605442047 3.1414142102003098 18.761727660894394 1390.3686933517456 3.0360629856586447 8.1066473275423032 32.278632059693336 5.2692626267671576 5.5606641322374335 18.623001098632812
leaf_count=29 12000 1593 21 50 130 20 47221 71 20 45 20 21 21 615 87 25 24 29 22 22 21 21 125 9262 20 54 215 35 37 124
internal_value=-1.33837e-06 -0.0976469 -0.0976581 -0.0976494 -0.0976604 -0.0976243 -0.0976469 -0.097648 -0.0977404 -0.0976473 -0.0975731 -0.0976477 -0.097664 -0.0976475 -0.097652 -0.0977212 -0.0976467 -0.0975898 -0.0975333 -0.0974841 -0.0976437 -0.0976176 -0.0976368 -0.0976475 -0.0976539 -0.0977098 -0.097647 -0.097657 -0.0976467 -0.0976475
internal_weight=11825.9 9007.02 37.5468 34.3794 23.8845 10.4949 8969.48 1880.9 13.716 1867.19 9.71811 1857.47 25.0865 1832.38 274.633 16.8734 1557.75 20.8061 10.1499 6.55151 10.6562 7.49475 21.9061 1536.94 103.466 11.1427 1433.48 37.5479 1395.93 257.759
internal_count=72000 60000 250 229 159 70 59750 12529 91 12438 65 12373 167 12206 1829 112 10377 139 68 44 71 50 146 10238 689 74 9549 250 9299 1717
is_linear=0
shrinkage=0.1


Tree=10
num_leaves=31
num_cat=0
split_feature=3 4 11 3 5 10 7 14 9 12 3 14 10 3 16 9 11 5 2 3 14 10 16 3 1 7 9 5 16 11
split_gain=35301 689.2 0.285427 0.190676 1.6733 2.73005 0.100459 0.0457916 0.0297599 0.128964 0.023681 0.276629 0.0154939 0.106851 0.0999083 0.0110031 0.124188 0.0620902 0.113308 0.0101815 0.131423 0.00987578 0.0082151 0.00319424 0.0520953 0.142414 0.00216896 0.0018145 0.00728351 0.0162261
threshold=-0.49168601944735174 1.0000000180025095e-35 -0.45379223750705255 -0.49321493872309657 0.68197017881968403 0.13181064362265826 -0.19968048021748913 -2.1440201802270225 1.669782029819562 -0.39700034336860462 -0.4899449959249953 -0.68133313552725772 -0.92340496562902141 -0.49404698734777008 -0.40688895112998064 1.4713636973611826 -0.44904820915901844 0.77230296687151756 -0.41533729126548463 -0.49372712958185333 -0.79743940877980501 -0.56795687962651864 0.81479597303009488 -0.49755310637315547 2.1230349508871647 -0.2705982689979296 0.12915865758439551 0.76334434326307132 -0.40688895112998064 -0.45402830570951264
decision_type=2 2 2 2 2 2 2 2 2 2 2 2 2 2 2 2 2 2 2 2 2 2 2 2 2 2 2 2 2 2
left_child=1 -1 -2 7 5 -5 22 -3 12 -10 11 -4 13 14 -9 19 17 -17 -19 23 -21 -22 26 24 -14 -26 -6 -25 29 -29
right_child=2 3 10 4 6 -7 -8 8 9 -11 -12 -13 15 -15 -16 16 -18 18 -20 20 21 -23 -24 27 25 -27 -28 28 -30 -31
leaf_value=-0.097646564600355423 -0.068577216371573255 0.3039927015502597 -0.097697841337920921 0.31814952196752788 0.31460057483908754 0.21306038933937643 0.33088352839158597 0.29999499838454929 0.31522228765535598 0.29389995221831161 -0.097646564600355423 -0.067111214242278797 0.31202823212295611 0.29761772177769846 0.3120452716412247 0.31207012300372394 0.29505165027679126 0.29259605910222519 0.31387216261827977 0.29765060193110754 0.3165005884469772 0.31200486320090653 0.3179515170228005 0.31202544672289417 0.31238027649411959 0.29151058778424543 0.31238981405958222 0.31938170782872344 0.31217422694837127 0.3122309977116397
leaf_weight=41.731936365365982 3.381506383419036 7.4339023083448401 35.958718523383141 5.3352913558483106 9.3465507030487114 4.6063040494918823 4.5218227952718761 7.255117490887641 7.2343346625566483 4.6662874817848188 8921.1771448105574 3.2218136489391318 263.07922247052193 5.8398230224847785 133.17924223840237 164.17551343142986 4.6544905155897132 4.6792402565479279 5.3821870237588865 6.8075193315744391 5.5861978828907004 38.993971019983292 5.5697999149560919 1892.772109568119 10.79723486304283 4.6901234686374655 8.4498674273490888 4.6279375106096259 200.53801697492599 10.096167489886282
leaf_count=278 22 32 239 23 40 20 20 31 31 20 59429 21 1120 25 567 699 20 20 23 29 24 166 24 8058 46 20 36 20 854 43
internal_value=2.77982e-06 0.305766 -0.0976248 0.311735 0.304683 0.269458 0.31724 0.311831 0.311852 0.306862 -0.0976358 -0.0951827 0.311873 0.310872 0.311423 0.311929 0.311172 0.311603 0.303977 0.311985 0.310592 0.312568 0.3146 0.312015 0.311696 0.30606 0.313551 0.312057 0.312332 0.314479
internal_weight=11825.8 2862.05 8963.74 2820.32 37.8296 9.9416 27.888 2782.49 2775.05 11.9006 8960.36 39.1805 2763.15 146.274 140.434 2616.88 178.891 174.237 10.0614 2437.99 51.3877 44.5802 23.3662 2386.6 278.567 15.4874 17.7964 2108.03 215.262 14.7241
internal_count=72000 12289 59711 12011 163 43 120 11848 11816 51 59689 260 11765 623 598 11142 762 742 43 10380 219 190 100 10161 1186 66 76 8975 917 63
is_linear=0
shrinkage=0.1


Tree=11
num_leaves=31
num_cat=0
split_feature=6 14 1 2 3 1 3 11 13 2 9 3 7 13 3 4 3 9 15 10 16 4 11 16 5 11 11 9 9 1
split_gain=36028.7 4.96271e-07 3.10816e-06 9.8032e-07 2.16797e-06 1.30748e-06 3.11036e-07 1.17975e-05 4.47973e-05 5.37804e-06 1.14619e-05 6.72218e-07 1.2807e-05 6.66799e-07 8.59437e-06 3.21722e-05 6.81651e-06 6.3381e-06 4.47236e-06 3.7229e-06 1.71699e-06 8.69247e-07 6.38048e-07 4.62768e-07 3.9023e-06 1.14851e-05 3.85523e-07 1.4534e-06 3.02769e-07 1.50527e-07
threshold=1.9345531713361603 -2.1440201802270225 1.8104774019503591 0.13080556537777691 -0.49404698734777008 -0.079670639852614453 -0.4899449959249953 -0.44581499211439235 -0.23766825739308339 -0.054676914236915723 -1.4700741696785939 -0.49168601944735174 1.0000000180025095e-35 -0.21485940132155365 -0.49321493872309657 0.43311416063840208 -0.49321493872309657 0.091917309704695999 0.22220491908389978 0.38784804488962593 0.81479597303009488 0.65213108514296658 -0.45343915464713391 -0.40688895112998064 0.76334434326307132 -0.45473299638960213 -0.44904820915901844 1.2757445435669041 1.669782029819562 2.1230349508871647
decision_type=2 2 2 2 2 2 2 2 2 2 2 2 2 2 2 2 2 2 2 2 2 2 2 2 2 2 2 2 2 2
left_child=1 2 3 4 -1 -5 7 9 -9 11 -11 13 -13 14 29 -16 23 18 -18 -20 21 -19 -14 24 -15 -26 28 -28 -25 -3
right_child=-2 6 -4 5 -6 -7 -8 8 -10 10 -12 12 22 16 15 -17 17 20 19 -21 -22 -23 -24 26 25 -27 27 -29 -30 -31
leaf_value=-0.09772451711469049 0.31200486320090653 -0.097646837773183282 -0.097753229014924836 -0.097646564600355423 -0.097646002723905639 -0.097568359435074317 -0.097646561745310931 -0.09764357888935371 -0.098077697797716801 -0.097645066193523367 -0.097409170778590015 -0.097851494229791836 -0.097595063184048203 -0.097647175666431649 -0.097646564600355409 -0.097976715991758237 -0.097622854814206933 -0.097646564600355451 -0.09755918968160382 -0.097408423738027161 -0.097705509154876427 -0.097577544352396017 -0.097643738149614426 -0.097646635464611317 -0.097875720101099239 -0.097647693038415584 -0.097649047759358773 -0.097705691588558796 -0.097670016232527773 -0.09765617174550402
leaf_weight=4.3700519800186148 2818.841278553009 239.13616949319839 3.1674754470586768 7.5057439506053925 18.013283222913746 2.9891429245471937 7090.0748461037874 10.656577080488203 3.0594638735055915 6.7546672970056534 2.9634427726268751 3.1804374605417278 3.1443763226270702 92.323419392108917 13.059994474053385 3.8134223669767371 3.5983899533748644 4.3533314913511258 3.2881311029195786 3.2633744180202484 3.1614798605442047 3.1414142102003098 18.761727660894394 1390.3686933517456 3.0360629856586447 8.1066473275423032 32.278632059693336 5.2692626267671576 5.5606641322374335 18.623001098632812
leaf_count=29 12000 1593 21 50 120 20 47231 71 20 45 20 21 21 615 87 25 24 29 22 22 21 21 125 9262 20 54 215 35 37 124
internal_value=-1.33837e-06 -0.0976469 -0.0976586 -0.0976495 -0.0976613 -0.0976243 -0.0976469 -0.097648 -0.0977404 -0.0976473 -0.0975731 -0.0976477 -0.097664 -0.0976475 -0.097652 -0.0977212 -0.0976467 -0.0975898 -0.0975333 -0.0974841 -0.0976437 -0.0976176 -0.0976368 -0.0976475 -0.0976539 -0.0977098 -0.097647 -0.097657 -0.0976467 -0.0976475
internal_weight=11825.9 9007.02 36.0457 32.8782 22.3833 10.4949 8970.98 1880.9 13.716 1867.19 9.71811 1857.47 25.0865 1832.38 274.633 16.8734 1557.75 20.8061 10.1499 6.55151 10.6562 7.49475 21.9061 1536.94 103.466 11.1427 1433.48 37.5479 1395.93 257.759
internal_count=72000 60000 240 219 149 70 59760 12529 91 12438 65 12373 167 12206 1829 112 10377 139 68 44 71 50 146 10238 689 74 9549 250 9299 1717
is_linear=0
shrinkage=0.1


Tree=12
num_leaves=31
num_cat=0
split_feature=2 0 1 14 1 2 3 3 11 10 2 3 10 11 9 3 13 7 3 9 10 16 5 11 12 11 11 11 13 3
split_gain=21781.9 1080.79 2768.22 2.35948e-06 1.27925e-05 3.1046e-06 4.50552e-06 1.14534e-06 7.71669e-05 0.000113683 1.58153e-05 8.42536e-06 4.31028e-05 1.02886e-06 5.09346e-06 3.18982e-06 1.09585e-06 1.89176e-06 1.41139e-06 8.47024e-07 1.28266e-06 7.0345e-07 3.59473e-06 1.37732e-05 1.12598e-06 4.9822e-07 3.32765e-07 3.39064e-07 2.91253e-07 6.31997e-06
threshold=0.13091035773914114 1.0000000180025095e-35 -0.75807090941218069 -2.1440201802270225 1.5491746637048298 0.13080556537777691 -0.49321493872309657 -0.4899449959249953 -0.44581499211439235 -1.4680156309250658 -0.054676914236915723 -0.49168601944735174 -1.4810888256740393 -0.44904820915901844 1.2757445435669041 -0.49404698734777008 -0.21771158477181207 -0.13943519797711781 -0.49321493872309657 1.669782029819562 0.73883259222225905 -0.40688895112998064 0.76334434326307132 -0.45473299638960213 -0.39028401853293976 -0.45215770757174462 -0.45379223750705255 -0.45451374969777164 -0.21612866966543504 -0.49372712958185333
decision_type=2 2 2 2 2 2 2 2 2 2 2 2 2 2 2 2 2 2 2 2 2 2 2 2 2 2 2 2 2 2
left_child=1 3 -3 4 5 6 -1 8 10 -10 11 13 25 19 16 -16 17 -15 -18 21 -21 22 -5 -24 28 -13 27 -4 29 -23
right_child=-2 2 26 7 -6 -7 -8 -9 9 -11 -12 12 -14 14 15 -17 18 -19 -20 20 -22 24 23 -25 -26 -27 -28 -29 -30 -31
leaf_value=-0.095817005998072635 0.23514416079443223 0.2351441601066557 -0.095688841136300704 -0.095691329525864247 -0.095913738015315927 -0.095605473245082562 -0.095688805370206867 -0.095688806928872883 -0.095681584772235151 -0.096515675019130262 -0.095506480875738431 -0.095635561632955418 -0.09612170757847148 -0.095793386962432822 -0.095868231979617469 -0.095729300885102384 -0.095692617433323801 -0.095688637232642385 -0.095636022154487535 -0.095689539607623136 -0.095778397728774695 -0.095689651592873334 -0.09594597539930963 -0.095689600639667749 -0.095744567970544661 -0.095686054805885129 -0.09568872810662768 -0.095638676040910267 -0.095688478719190395 -0.095808246318952336
leaf_weight=3.2633742988109651 2927.0645047128201 367.63337185978889 2.6987825483083725 103.78343242406845 3.002182886004447 3.3523824438452712 17.137240171432499 5605.2240383774042 3.9115248024463654 2.806491255760192 4.6610937267541876 2.8246076554059973 2.7529940456151953 2.7153429836034775 2.7277032285928726 4.1928970515727988 31.987784251570698 4.7228123396635047 5.110419467091563 4.0483357906341544 2.7132565826177597 164.22880543768406 2.7401933372020713 8.9063538759946805 3.6546627879142752 6.3410759270191184 805.17624005675316 2.6906043887138358 1284.5909052044153 4.6199022978544226
leaf_count=24 10661 1339 20 769 22 25 127 41539 29 20 35 21 20 20 20 31 237 35 38 30 20 1217 20 66 27 47 5967 20 9520 34
internal_value=-2.56364e-06 -0.0813201 0.00754115 -0.0956896 -0.0957192 -0.0956947 -0.0957093 -0.0956895 -0.0956918 -0.09603 -0.0956904 -0.0956909 -0.0957747 -0.0956903 -0.0957042 -0.0957841 -0.0956918 -0.0957269 -0.0956848 -0.0956899 -0.0957252 -0.0956897 -0.0956972 -0.0957499 -0.0956891 -0.0956705 -0.0956886 -0.0956638 -0.095689 -0.0956929
internal_weight=11391.3 8464.22 1178.2 7286.02 26.7552 23.753 20.4006 7259.26 1654.04 6.71802 1647.32 1642.66 11.9187 1630.74 51.457 6.9206 44.5364 7.43816 37.0982 1579.29 6.76159 1572.52 115.43 11.6465 1457.09 9.16568 810.566 5.38939 1453.44 168.849
internal_count=72000 61339 7346 53993 198 176 151 53795 12256 49 12207 12172 88 12084 381 51 330 55 275 11703 50 11653 855 86 10798 68 6007 40 10771 1251
is_linear=0
shrinkage=0.1


Tree=13
num_leaves=31
num_cat=0
split_feature=1 3 4 2 3 4 3 4 3 4 13 9 14 9 14 3 10 7 5 9 1 14 3 10 4 11 14 16 11 11
split_gain=7755.95 9230.33 4247.69 1344.19 432.391 2098 40.5026 439.962 0.895591 2.74277 4.74915 1.74852 0.262751 0.126208 0.223075 0.0430539 0.149454 0.573817 0.0464853 0.19076 0.158464 0.18022 0.0277233 0.00033775 0.000126118 0.000125577 6.27757e-06 2.30498e-06 1.78759e-06 9.80348e-07
threshold=-0.75807090941218069 -0.4756036091972729 1.0000000180025095e-35 0.13080556537777691 -0.48300036743024882 1.0000000180025095e-35 -0.4899449959249953 1.0000000180025095e-35 -0.49321493872309657 0.54319596562498951 -0.21449627843575866 -0.55268980254738287 -0.59697770617540769 1.669782029819562 -0.21948841298301161 -0.49404698734777008 -0.56795687962651864 -0.47011019757892153 0.77230296687151756 1.5101626062117821 2.1230349508871647 0.31349998156161768 -0.48684881717944234 0.99770032367661476 0.43311416063840208 -0.45037393574660795 -2.1440201802270225 -0.40688895112998064 -0.45379223750705255 -0.44904820915901844
decision_type=2 2 2 2 2 2 2 2 2 2 2 2 2 2 2 2 2 2 2 2 2 2 2 2 2 2 2 2 2 2
left_child=-1 3 -3 4 6 -6 8 -8 13 24 -11 -12 -13 15 -15 18 17 -17 26 20 27 -22 -5 25 28 -14 -2 -20 -10 -28
right_child=1 2 -4 22 5 -7 7 -9 9 10 11 12 23 14 -16 16 -18 -19 19 -21 21 -23 -24 -25 -26 -27 29 -29 -30 -31
leaf_value=-0.095688822322294934 -0.0958137668903212 -0.095688817328409004 0.23514416114839043 0.24181377079469191 -0.095688817101792806 0.23514415768987551 -0.095688737555333608 0.23514416004180344 -0.095613662594043747 0.059643488076519771 -0.0094647300729711233 -0.062841624421969111 -0.09598309991512477 -0.059859070193284271 -0.096092943918037965 -0.055930758694748298 -0.095695120918574364 -0.095701370053582049 -0.095758639649137778 -0.072426214859849014 -0.096143234116649823 -0.060080084923004755 0.23514417419287575 -0.09755952533711959 -0.096269283473027573 -0.096805506358949633 -0.095689204024943617 -0.095689852632350567 -0.095685236846060367 -0.095710273830834441
leaf_weight=4857.8023799359798 4.078427165746688 449.88649116456509 2825.4779852032661 6.4975301176309577 720.97885072231293 261.10480824112892 374.72369481623173 45.027537703514099 3.761163964867591 3.1692167520523098 3.4038950949907365 2.9063321948051497 4.2516908198595074 2.760526105761528 4.4190286695957175 4.8913676142692593 56.425694659352303 14.044152989983557 5.2843056172132483 4.1911397725343695 2.7708430439233771 2.7720372974872589 152.65433099865913 3.2654849290847778 3.9051561802625647 3.2960323989391194 1434.5690229535103 62.345615610480309 48.297721937298775 22.428299903869629
leaf_count=36000 30 3334 10291 24 5343 951 2777 164 28 21 23 20 31 20 32 34 418 104 39 30 20 20 556 22 28 23 10631 462 358 166
internal_value=5.24191e-06 0.0711549 0.189703 -0.0480165 -0.0625721 -0.00773085 -0.0880133 -0.0601996 -0.094892 -0.0843011 -0.0528061 -0.0736184 -0.0895352 -0.0953902 -0.0821611 -0.0954491 -0.0931154 -0.0854279 -0.0955634 -0.0931746 -0.094363 -0.0781078 0.235416 -0.0967098 -0.0957212 -0.0963422 -0.0956899 -0.0956952 -0.0956801 -0.0956895
internal_weight=11391.4 6533.59 3275.36 3258.22 3099.07 982.084 2116.99 419.751 1697.24 76.2567 20.2927 17.1234 13.7195 1620.98 7.17955 1613.8 75.3612 18.9355 1538.44 77.3639 73.1728 5.54288 159.152 10.8132 55.964 7.54772 1461.08 67.6299 52.0589 1457
internal_count=72000 36000 13625 22375 21795 6294 15501 2941 12560 554 140 119 96 12006 52 11954 556 138 11398 571 541 40 580 76 414 54 10827 501 386 10797
is_linear=0
shrinkage=0.1


Tree=14
num_leaves=31
num_cat=0
split_feature=4 11 3 3 14 4 14 1 2 3 3 3 11 12 3 7 3 14 3 5 9 9 10 4 16 5 11 10 3 9
split_gain=25631.5 0.000336174 0.00107576 1.88811e-05 0.000116587 5.55682e-05 2.23304e-06 1.52875e-05 1.79592e-06 4.38629e-06 2.1183e-06 1.32946e-06 0.000134432 1.88666e-05 1.67964e-06 1.39776e-05 1.82175e-05 1.11966e-05 5.54786e-06 1.11298e-05 3.30831e-06 9.44865e-07 1.40223e-06 7.75887e-07 4.47094e-07 2.67691e-06 3.03876e-06 3.44883e-07 2.63971e-07 6.85975e-07
threshold=-1.2754471875909215 -0.45379223750705255 -0.49168601944735174 -0.4899449959249953 -0.68133313552725772 -2.0425797660912011 -2.1440201802270225 1.4981087238037565 0.13080556537777691 -0.47813878684402356 -0.45785244894265997 -0.4899449959249953 -0.44673335774109629 -0.38976084478565637 -0.49372712958185333 -0.19071240475710119 -0.49321493872309657 -0.92336404042054376 -0.49321493872309657 0.68197017881968403 0.12915865758439551 1.669782029819562 0.78006740456393231 0.66589131076628993 -0.52905744354598816 0.76334434326307132 -0.45379223750705255 -0.8826298028473637 -0.49459341115673078 1.2757445435669041
decision_type=2 2 2 2 2 2 2 2 2 2 2 2 2 2 2 2 2 2 2 2 2 2 2 2 2 2 2 2 2 2
left_child=1 2 -1 4 5 -3 7 8 9 -2 -10 12 13 14 21 17 -17 -16 -19 -20 23 24 -23 -21 25 27 -27 -8 -26 -30
right_child=6 3 -4 -5 -6 -7 11 -9 10 -11 -12 -13 -14 -15 15 16 -18 18 19 20 -22 22 -24 -25 28 26 -28 -29 29 -31
leaf_value=0.23514421979233979 -0.095822952327371605 0.2351412359436815 0.23671427949212454 0.2351441541427117 0.23554747566968706 0.23543447092616998 -0.095723437479202644 -0.095942383117021898 -0.095583439719490848 -0.095688883147661816 -0.095688868141333205 -0.095688813589144925 -0.096340161387851564 -0.095946988450478138 -0.095838109356004619 -0.095704544523712187 -0.096016396683051813 -0.095696402691932331 -0.095787208507946142 -0.095551268301557343 -0.095625810558595842 -0.095689713668145798 -0.095782613800480212 -0.095475033394082767 -0.09568875922819356 -0.095839345266283918 -0.095697346978864728 -0.095689193152467877 -0.095690667780627556 -0.095711802604256199
leaf_weight=18.120836198329929 2.9924914538860383 111.47123640775681 5.7483313381671897 3144.240046620369 8.2303603589534742 6.8601233661174765 3.1100274026393881 2.733365297317504 2.6775214448571205 13.224073693156244 6.6120271384716016 6450.2135879546404 3.1937660425901404 2.8680723309516898 4.3485043793916693 4.5922309458255768 3.1637784242629996 25.379990369081494 2.9855053871870068 2.6763577014207822 5.1079206764698029 4.048378273844718 2.7139391303062439 2.6637867987155914 1351.4003762081265 2.7228424847126007 3.375187784433364 54.111745655536652 122.13324303925037 17.565933987498283
leaf_count=66 22 406 21 11452 30 25 23 20 20 98 49 47801 23 21 32 34 23 188 22 20 38 30 20 20 10015 20 25 401 905 130
internal_value=-2.17963e-06 0.235148 0.235522 0.235146 0.235184 0.235158 -0.0956896 -0.0957176 -0.0956935 -0.0957136 -0.0956585 -0.0956895 -0.095692 -0.0956907 -0.0956903 -0.0957082 -0.0958318 -0.0956859 -0.0956689 -0.0956169 -0.0955683 -0.0956897 -0.095727 -0.0955132 -0.0956895 -0.0956978 -0.0957608 -0.0956911 -0.0956892 -0.0956933
internal_weight=11391.3 3294.67 23.8692 3270.8 126.562 118.331 8096.61 28.2395 25.5061 16.2166 9.28955 8068.38 1618.16 1614.97 1612.1 50.9181 7.75601 43.1621 38.8136 13.4336 10.4481 1561.18 6.76232 5.34014 1554.42 63.3198 6.09803 57.2218 1491.1 139.699
internal_count=72000 12000 87 11913 461 431 60000 209 189 120 69 59791 11990 11967 11946 377 57 320 288 100 78 11569 50 40 11519 469 45 424 11050 1035
is_linear=0
shrinkage=0.1


Tree=15
num_leaves=31
num_cat=0
split_feature=3 14 1 2 3 9 3 11 9 2 9 3 7 11 11 9 3 1 9 10 5 3 16 16 5 11 12 3 9 13
split_gain=25630.9 1.7937e-06 1.09157e-05 1.75956e-06 5.06657e-06 2.11564e-06 1.05763e-06 4.12459e-05 0.000149478 9.07109e-06 1.91598e-05 2.99661e-06 4.61103e-05 1.51301e-06 9.71502e-07 5.1375e-06 3.19756e-06 8.53815e-07 8.47645e-07 1.29379e-06 8.32706e-07 1.60907e-06 3.789e-06 6.15124e-07 3.68224e-06 1.3793e-05 1.12239e-06 5.1556e-07 5.08602e-07 2.89312e-07
threshold=1.0000000180025095e-35 -2.1440201802270225 1.8104774019503591 0.13080556537777691 -0.49404698734777008 0.76638199757495229 -0.4899449959249953 -0.44581499211439235 -1.4271277238518552 -0.054676914236915723 -1.4700741696785939 -0.49168601944735174 1.0000000180025095e-35 -0.45343915464713391 -0.44904820915901844 1.2757445435669041 -0.49404698734777008 -0.55876500805070994 1.669782029819562 0.73883259222225905 0.69802104611815041 -0.49321493872309657 1.0000000180025095e-35 -0.40688895112998064 0.76334434326307132 -0.45473299638960213 -0.39028401853293976 -0.49372712958185333 -0.038360858717352488 -0.21612866966543504
decision_type=2 2 2 2 2 2 2 2 2 2 2 2 2 2 2 2 2 2 2 2 2 2 2 2 2 2 2 2 2 2
left_child=1 2 3 4 -1 -5 7 9 -9 11 -11 14 -13 -14 18 17 -17 -16 23 -20 21 -19 -23 24 -3 -26 29 -22 -29 -25
right_child=-2 6 -4 5 -6 -7 -8 8 -10 10 -12 12 13 -15 15 16 -18 20 19 -21 27 22 -24 26 25 -27 -28 28 -30 -31
leaf_value=-0.095813429299300937 0.23514416044937325 -0.095691021310930185 -0.095899296057957564 -0.095689013921126442 -0.09568797058162308 -0.095583957232012365 -0.095688808470069289 -0.095685398000560196 -0.096515265278884932 -0.095686230638367328 -0.095363386197028333 -0.096100161280756075 -0.095604444084896004 -0.095683588825837593 -0.095639677538774961 -0.095868232363331612 -0.095729132576610726 -0.095692088143872367 -0.095689388558611116 -0.095778631099698461 -0.095690921240466256 -0.095685987674300477 -0.095839616332162036 -0.095692883419514346 -0.095946158473797408 -0.095689600193982483 -0.095744479318670028 -0.095622390478402791 -0.095680206733867693 -0.0956884803979339
leaf_weight=3.9423987567424801 3294.697878152132 117.81698022782803 2.8629286736249915 6.7470263093709928 17.541164085268978 2.6776050925254822 6371.9471824318171 9.5786906778812391 2.8064186871051779 6.0713032484054565 2.6365314498543722 2.8876962363719967 2.8193048536777523 16.862051874399185 2.9596848785877219 2.7277034819126129 4.1928570717573157 19.704934999346733 4.0482983291149131 2.713293269276619 11.471246108412744 3.9125629514455822 2.7224625796079636 168.84858401119709 2.7402226179838172 8.9063526093959791 3.6546458303928366 2.6877686381340027 3.5065431445837012 1284.5909861475229
leaf_count=29 12000 873 21 50 130 20 47221 71 20 45 20 21 21 125 22 20 31 146 30 20 85 29 20 1251 20 66 27 20 26 9520
internal_value=-2.5636e-06 -0.0956895 -0.0957125 -0.0956952 -0.095711 -0.0956592 -0.0956894 -0.0956916 -0.0958734 -0.0956903 -0.0955885 -0.0956908 -0.095727 -0.0956723 -0.0956903 -0.0957035 -0.095784 -0.0956917 -0.0956899 -0.0957252 -0.0956952 -0.0957064 -0.095749 -0.0956897 -0.0956963 -0.09575 -0.0956891 -0.0956784 -0.0956551 -0.095689
internal_weight=11391.3 8096.59 33.7711 30.9082 21.4836 9.42463 8062.81 1690.87 12.3851 1678.48 8.70783 1669.77 22.5691 19.6814 1647.21 53.8858 6.92056 46.9652 1593.32 6.76159 44.0055 26.34 6.63503 1586.56 129.464 11.6466 1457.09 17.6656 6.19431 1453.44
internal_count=72000 60000 250 229 159 70 59750 12529 91 12438 65 12373 167 146 12206 399 51 348 11807 50 326 195 49 11757 959 86 10798 131 46 10771
is_linear=0
shrinkage=0.1


Tree=16
num_leaves=31
num_cat=0
split_feature=3 4 11 12 1 14 3 12 11 3 5 9 14 3 10 3 16 3 14 5 4 7 16 7 11 4 9 1 9 10
split_gain=25199.9 405.482 0.301149 0.126323 0.317054 0.0283935 0.0248334 0.285824 0.0234563 0.0634328 0.571107 0.0214803 0.100712 0.0108207 0.00887792 0.0774757 0.0512887 0.00749414 0.111378 0.00813756 0.0901632 0.256801 0.00752529 0.00672907 0.00586562 0.0921512 0.0071965 0.00399184 0.00328398 0.00319977
threshold=-0.49168601944735174 1.0000000180025095e-35 -0.45379223750705255 -0.39028401853293976 0.99802608904437828 -2.1440201802270225 -0.4899449959249953 -0.39432408013907899 -0.44776475032007818 -0.49321493872309657 0.68197017881968403 1.669782029819562 -0.15724682706918092 -0.49321493872309657 -0.92340496562902141 -0.49404698734777008 -0.40688895112998064 -0.49372712958185333 -0.79743940877980501 0.77230296687151756 0.54319596562498951 -0.25292423889917304 -0.40688895112998064 -0.24852437368194111 -0.44904820915901844 0.70946535857348081 1.2630061748002304 2.167773719316445 1.4713636973611826 -0.56795687962651864
decision_type=2 2 2 2 2 2 2 2 2 2 2 2 2 2 2 2 2 2 2 2 2 2 2 2 2 2 2 2 2 2
left_child=1 -1 -2 5 -5 -3 7 -4 9 11 -11 14 -13 -10 15 16 -7 19 -19 24 21 -21 -22 -12 -16 26 -26 28 -24 -20
right_child=2 3 6 4 -6 8 -8 -9 13 10 23 12 -14 -15 17 -17 -18 18 29 20 22 -23 27 -25 25 -27 -28 -29 -30 -31
leaf_value=-0.095688641988292689 -0.064621842054721032 0.22927850384742032 -0.063474795192464448 0.23948979185817432 0.20672888638744702 0.22716415736266726 -0.09568881425027248 -0.095767003833186787 0.23673205623708476 0.20666218162596406 0.23781501735418809 0.22053196358491334 0.23807384447956859 0.24170748121981053 0.23515869700749792 0.22342184120307207 0.23516615290699971 0.22107397039460253 0.23754830080768019 0.23546764101368761 0.23861397915200599 0.21624909566621986 0.23516740843534512 0.2419257554449398 0.23519297727559116 0.22299368865274119 0.23891078106354291 0.23791741325448401 0.23739500737513436 0.23517639226944487
leaf_weight=37.512638866901398 3.1237643063068381 8.6877021193504316 2.9944556951522818 6.5334596931934339 5.3920907229185104 8.4443589299917203 8019.2837736904621 32.37894095480442 12.316999286413195 7.5127307176589992 15.022524267435077 5.4513657987117758 8.189911872148512 6.7757427394390097 2786.136667072773 6.2628731429576865 155.66781234741211 6.0103828310966483 6.5584760010242453 23.597129017114639 8.1809885799884778 9.8570473492145521 96.09093502163887 5.4184314608573887 39.532587438821793 6.5462787896394721 5.9962499737739554 6.280987173318862 7.107512265443801 42.828405499458313
leaf_count=278 22 32 21 24 20 31 59429 239 45 28 55 20 30 25 10148 23 567 22 24 86 30 36 350 20 144 24 22 23 26 156
internal_value=4.6211e-06 0.23123 -0.0956651 0.23495 0.224677 0.234988 -0.0956772 -0.0930334 0.235003 0.234982 0.230239 0.235024 0.231064 0.238498 0.23504 0.234338 0.234754 0.23508 0.233927 0.235101 0.234386 0.229805 0.235688 0.238905 0.235139 0.234088 0.235683 0.23547 0.235321 0.235491
internal_weight=11391.7 3333.91 8057.78 3296.4 11.9256 3284.47 8054.66 35.3734 3275.79 3256.69 27.9537 3228.74 13.6413 19.0927 3215.1 170.375 164.112 3044.72 55.3973 2989.33 151.115 33.4542 117.66 20.441 2838.21 52.0751 45.5288 109.479 103.198 49.3869
internal_count=72000 12289 59711 12011 44 11967 59689 260 11935 11865 103 11762 50 70 11712 621 598 11091 202 10889 551 122 429 75 10338 190 166 399 376 180
is_linear=0
shrinkage=0.1


Tree=17
num_leaves=31
num_cat=0
split_feature=6 14 1 2 3 9 3 11 9 2 9 3 7 11 11 9 3 1 9 10 5 3 16 16 5 11 12 3 9 13
split_gain=25630.9 1.87235e-06 1.08427e-05 1.82457e-06 4.99596e-06 2.11564e-06 1.05768e-06 4.12459e-05 0.000149478 9.07109e-06 1.91598e-05 2.99661e-06 4.61103e-05 1.51301e-06 9.71502e-07 5.1375e-06 3.19756e-06 8.53815e-07 8.47645e-07 1.29379e-06 8.32706e-07 1.60907e-06 3.789e-06 6.15124e-07 3.68224e-06 1.3793e-05 1.12239e-06 5.1556e-07 5.08602e-07 2.89312e-07
threshold=1.9345531713361603 -2.1440201802270225 1.8104774019503591 0.13080556537777691 -0.49404698734777008 0.76638199757495229 -0.4899449959249953 -0.44581499211439235 -1.4271277238518552 -0.054676914236915723 -1.4700741696785939 -0.49168601944735174 1.0000000180025095e-35 -0.45343915464713391 -0.44904820915901844 1.2757445435669041 -0.49404698734777008 -0.55876500805070994 1.669782029819562 0.73883259222225905 0.69802104611815041 -0.49321493872309657 1.0000000180025095e-35 -0.40688895112998064 0.76334434326307132 -0.45473299638960213 -0.39028401853293976 -0.49372712958185333 -0.038360858717352488 -0.21612866966543504
decision_type=2 2 2 2 2 2 2 2 2 2 2 2 2 2 2 2 2 2 2 2 2 2 2 2 2 2 2 2 2 2
left_child=1 2 3 4 -1 -5 7 9 -9 11 -11 14 -13 -14 18 17 -17 -16 23 -20 21 -19 -23 24 -3 -26 29 -22 -29 -25
right_child=-2 6 -4 5 -6 -7 -8 8 -10 10 -12 12 13 -15 15 16 -18 20 19 -21 27 22 -24 26 25 -27 -28 28 -30 -31
leaf_value=-0.095813429299300937 0.23514416085694304 -0.095691021310930185 -0.095899296057957564 -0.095689013921126442 -0.095687898848471398 -0.095583957232012365 -0.095688808473015682 -0.095685398000560196 -0.096515265278884932 -0.095686230638367328 -0.095363386197028333 -0.096100161280756075 -0.095604444084896004 -0.095683588825837593 -0.095639677538774961 -0.095868232363331612 -0.095729132576610726 -0.095692088143872367 -0.095689388558611116 -0.095778631099698461 -0.095690921240466256 -0.095685987674300477 -0.095839616332162036 -0.095692883419514346 -0.095946158473797408 -0.095689600193982483 -0.095744479318670028 -0.095622390478402791 -0.095680206733867693 -0.0956884803979339
leaf_weight=3.9423987567424801 3294.69787555933 117.81698022782803 2.8629286736249915 6.7470263093709928 16.191776916384701 2.6776050925254822 6373.2965719848871 9.5786906778812391 2.8064186871051779 6.0713032484054565 2.6365314498543722 2.8876962363719967 2.8193048536777523 16.862051874399185 2.9596848785877219 2.7277034819126129 4.1928570717573157 19.704934999346733 4.0482983291149131 2.713293269276619 11.471246108412744 3.9125629514455822 2.7224625796079636 168.84858401119709 2.7402226179838172 8.9063526093959791 3.6546458303928366 2.6877686381340027 3.5065431445837012 1284.5909861475229
leaf_count=29 12000 873 21 50 120 20 47231 71 20 45 20 21 21 125 22 20 31 146 30 20 85 29 20 1251 20 66 27 20 26 9520
internal_value=-2.56356e-06 -0.0956895 -0.0957135 -0.0956955 -0.0957125 -0.0956592 -0.0956894 -0.0956916 -0.0958734 -0.0956903 -0.0955885 -0.0956908 -0.095727 -0.0956723 -0.0956903 -0.0957035 -0.095784 -0.0956917 -0.0956899 -0.0957252 -0.0956952 -0.0957064 -0.095749 -0.0956897 -0.0956963 -0.09575 -0.0956891 -0.0956784 -0.0956551 -0.095689
internal_weight=11391.3 8096.59 32.4217 29.5588 20.1342 9.42463 8064.16 1690.87 12.3851 1678.48 8.70783 1669.77 22.5691 19.6814 1647.21 53.8858 6.92056 46.9652 1593.32 6.76159 44.0055 26.34 6.63503 1586.56 129.464 11.6466 1457.09 17.6656 6.19431 1453.44
internal_count=72000 60000 240 219 149 70 59760 12529 91 12438 65 12373 167 146 12206 399 51 348 11807 50 326 195 49 11757 959 86 10798 131 46 10771
is_linear=0
shrinkage=0.1


Tree=18
num_leaves=31
num_cat=0
split_feature=2 0 1 14 1 2 3 3 11 4 2 3 10 9 10 11 9 5 5 3 10 11 16 5 11 12 11 10 4 11
split_gain=16411.4 973.422 2094.77 4.40949e-06 2.16932e-05 3.25091e-06 6.42221e-06 2.49704e-06 0.000155491 0.000238312 1.67562e-05 1.89118e-05 8.86301e-05 1.6978e-06 2.08418e-06 1.4538e-06 5.77613e-06 2.8413e-06 1.1643e-06 3.6675e-06 2.58106e-06 1.22856e-06 9.48642e-07 3.40086e-06 1.28615e-05 2.14767e-06 6.23449e-07 5.95898e-07 2.59781e-06 4.41842e-07
threshold=0.13091035773914114 1.0000000180025095e-35 -0.75807090941218069 -2.1440201802270225 1.5491746637048298 0.13080556537777691 -0.49321493872309657 -0.4899449959249953 -0.44581499211439235 -2.0563399917145246 -0.054676914236915723 -0.49168601944735174 -1.4810888256740393 1.669782029819562 0.6981611450838211 -0.44904820915901844 1.2888440439939743 0.68197017881968403 0.68197017881968403 -0.49321493872309657 0.37561843802776412 -0.44837865612188199 -0.40688895112998064 0.76334434326307132 -0.45473299638960213 -0.39074131324134165 -0.45215770757174462 -0.92340496562902141 -1.0000000180025095e-35 -0.45379223750705255
decision_type=2 2 2 2 2 2 2 2 2 2 2 2 2 2 2 2 2 2 2 2 2 2 2 2 2 2 2 2 2 2
left_child=1 3 -3 4 5 6 -1 8 10 -10 11 13 26 15 -15 22 18 -18 20 -20 -17 -22 23 27 -25 -24 -13 28 -5 -4
right_child=-2 2 29 7 -6 -7 -8 -9 9 -11 -12 12 -14 14 -16 16 17 -19 19 -21 21 -23 25 24 -26 -27 -28 -29 -30 -31
leaf_value=-0.094150167874833185 0.19238288267960835 0.19238287682640379 -0.09395801528534059 -0.093988139257987088 -0.09429960380671798 -0.093901993636797063 -0.093988546523507396 -0.093988525317679553 -0.093983183630295536 -0.095261361896763416 -0.093790338823181968 -0.09392400656035084 -0.094646575337172301 -0.093992225710644903 -0.094109456014037085 -0.093987336538157634 -0.094164816601192802 -0.094024718753395686 -0.093996937996499552 -0.093887894693370444 -0.094026065449428486 -0.094126679157633092 -0.093988949270997199 -0.094253253975399839 -0.093991587509742847 -0.094057360797260792 -0.093983782172642513 -0.093989843025100855 -0.094093857905935482 -0.093988412372201374
leaf_weight=2.9286391809582772 3141.15198341012 394.52232772111893 4.8139134421944609 9.8903875499963743 2.6995404362678519 2.9898789525032035 15.318492799997331 5010.3440408036113 3.6171303912997246 2.444480523467063 4.1447591707110396 2.521023526787757 2.4910986497998229 3.4988307133316985 2.6767838299274445 9.7689805477857572 3.1756975874304763 2.6603006646037102 21.845014072954655 3.5915169492363956 2.4187377616763115 2.4357994347810736 1297.8822832852602 2.4583913460373878 7.9624546691775304 4.6051925942301741 5.6670790612697592 79.85633148252964 3.0384410694241515 719.72080080956221
leaf_count=24 10661 1339 40 82 22 25 127 41539 30 19 35 21 20 29 22 81 26 22 181 30 20 20 10760 20 66 38 47 662 25 5967
internal_value=-4.01798e-06 -0.0791861 0.0069716 -0.0939897 -0.0940326 -0.0939986 -0.0940145 -0.0939896 -0.0939932 -0.0944986 -0.0939911 -0.0939917 -0.0941243 -0.0939907 -0.094043 -0.0939905 -0.094008 -0.094101 -0.0939945 -0.0939815 -0.094017 -0.0940765 -0.0939899 -0.0939992 -0.0940533 -0.0939892 -0.0939654 -0.0939931 -0.094013 -0.0939882
internal_weight=10773.1 7631.99 1119.06 6512.93 23.9366 21.237 18.2471 6488.99 1478.65 6.06161 1472.59 1468.44 10.6792 1457.77 6.17561 1451.59 45.896 5.836 40.06 25.4365 14.6235 4.85454 1405.69 103.206 10.4208 1302.49 8.1881 92.7852 12.9288 724.535
internal_count=72000 61339 7346 53993 198 176 151 53795 12256 49 12207 12172 88 12084 51 12033 380 48 332 211 121 40 11653 855 86 10798 68 769 107 6007
is_linear=0
shrinkage=0.1


Tree=19
num_leaves=31
num_cat=0
split_feature=1 3 4 2 3 4 3 4 3 4 10 15 9 9 16 3 10 7 5 9 1 16 3 4 4 16 14 11 14 3
split_gain=6426.87 6719.86 3191.7 936.259 339.748 1446.23 37.968 346.313 0.96297 2.84228 3.67428 1.17717 1.80071 0.137315 0.24316 0.0472491 0.162958 0.606569 0.051186 0.206259 0.172551 0.198205 0.0353531 0.000611961 0.000191932 3.73709e-05 8.96989e-06 2.39053e-06 1.82178e-06 2.73778e-06
threshold=-0.75807090941218069 -0.47614818135242309 1.0000000180025095e-35 0.13080556537777691 -0.48300036743024882 1.0000000180025095e-35 -0.4899449959249953 1.0000000180025095e-35 -0.49321493872309657 0.68309159279544429 0.1691661328352119 0.27782397320142366 -1.0000000180025095e-35 1.669782029819562 0.32612200336606462 -0.49404698734777008 -0.56795687962651864 -0.47011019757892153 0.77230296687151756 1.5101626062117821 2.1230349508871647 0.32612200336606462 -0.48684881717944234 0.58791669890079057 0.59135675530662146 -1.5064053828740482 -2.1440201802270225 -0.45379223750705255 -0.83920885424334946 -0.49372712958185333
decision_type=2 2 2 2 2 2 2 2 2 2 2 2 2 2 2 2 2 2 2 2 2 2 2 2 2 2 2 2 2 2
left_child=-1 3 -3 4 6 -6 8 -8 13 11 -11 23 -13 15 -15 18 17 -17 26 20 -20 -22 -5 25 -14 27 -2 -10 29 -18
right_child=1 2 -4 22 5 -7 7 -9 9 10 -12 12 24 14 -16 16 28 -19 19 -21 21 -23 -24 -25 -26 -27 -28 -29 -30 -31
leaf_value=-0.093988548699054569 -0.094146179346559528 -0.093988549894535006 0.19238287117451364 0.19967062800188365 -0.093988549548583808 0.19238287481301811 -0.093988455079971278 0.19238287670553936 -0.093896507135731319 -0.095084179615055872 0.057817143673516203 -0.011113253813548237 -0.094307428188088058 -0.054790507942818069 -0.094492982577129292 -0.051331059413914554 -0.093985958090225252 -0.09401238288223239 -0.093999525943822812 -0.068622606554233648 -0.094585624547481068 -0.054892141853336199 0.19238291417969097 -0.095296443478188511 -0.095469730375767836 -0.094376480475577243 -0.093989404116663192 -0.093984186949402193 -0.093991836456145894 -0.094113080113578884
leaf_weight=4342.2511986345053 3.6597433835268012 445.44263999909163 3081.9294819831848 6.9775393903255454 601.16059059649706 249.55968064069748 334.95406898111105 48.320882558822632 3.3546010106801907 3.0961229279637328 3.1918542236089706 4.6632190644741058 3.083360552787779 2.512748271226882 3.9955049529671669 4.5300916880369213 3.4972651526331902 12.565671995282171 60.476897224783897 3.8227473050355902 2.5144348368048659 2.5175205990672112 144.66800153255463 3.9253251552581778 2.6347229182720184 2.477805554866797 1302.392441868782 42.564630731940269 43.674011059105396 3.2860046401619902
leaf_count=36000 30 3693 10460 24 4984 847 2777 164 28 24 21 33 25 20 32 34 29 104 501 30 20 20 491 30 20 20 10797 353 362 27
internal_value=8.52818e-06 0.0634715 0.156219 -0.0491826 -0.0625102 -0.00998119 -0.0860087 -0.0578846 -0.0931077 -0.0815649 -0.0174696 -0.0879924 -0.0572321 -0.0936571 -0.0791644 -0.0937225 -0.0911404 -0.0827025 -0.0938493 -0.0912015 -0.0925191 -0.0747267 0.192718 -0.0940956 -0.094843 -0.0939982 -0.0939898 -0.0939778 -0.0939993 -0.0940475
internal_weight=10773.7 6431.45 3527.37 2904.08 2752.43 850.72 1901.71 383.275 1518.44 68.9916 6.28798 62.7037 10.3813 1449.45 6.50825 1442.94 67.553 17.0958 1375.38 69.3316 65.5089 5.03196 151.646 52.3224 5.71808 48.397 1306.05 45.9192 50.4573 6.78327
internal_count=72000 36000 14153 21847 21332 5831 15501 2941 12560 554 45 509 78 12006 52 11954 556 138 11398 571 541 40 515 431 45 401 10827 381 418 56
is_linear=0
shrinkage=0.1


Tree=20
num_leaves=31
num_cat=0
split_feature=4 11 3 12 3 14 4 14 1 3 11 12 3 14 11 5 3 3 9 7 2 3 9 9 10 15 16 5 11 11
split_gain=19480.1 0.00041734 0.00133364 0.000131787 4.99776e-06 4.2659e-05 1.03875e-05 4.16925e-06 2.5814e-05 2.83471e-06 0.000279094 4.48984e-05 3.95455e-06 1.99858e-05 2.03998e-05 1.1583e-05 2.05366e-05 7.46281e-06 6.38313e-06 2.36922e-06 2.0844e-06 6.18849e-06 2.11593e-06 1.70022e-06 2.09926e-06 7.19833e-07 6.22699e-07 3.35436e-06 4.74307e-06 6.36377e-07
threshold=-1.2754471875909215 -0.45379223750705255 -0.49168601944735174 -0.39718691957586677 -0.4899449959249953 -0.68133313552725772 -2.0425797660912011 -2.1440201802270225 1.4981087238037565 -0.4899449959249953 -0.44673335774109629 -0.38976084478565637 -0.49372712958185333 -0.92336404042054376 -0.45133234218154777 0.68197017881968403 -0.49321493872309657 -0.49321493872309657 0.12915865758439551 -0.37591867991670064 -0.27634768930939008 -0.47813878684402356 0.90112902812597573 1.669782029819562 0.73883259222225905 -1.8913191373820053 -0.40688895112998064 0.77230296687151756 -0.45389407440945267 -0.45534158148954251
decision_type=2 2 2 2 2 2 2 2 2 2 2 2 2 2 2 2 2 2 2 2 2 2 2 2 2 2 2 2 2 2
left_child=1 2 -1 -3 5 6 25 8 20 10 11 12 23 14 -14 16 -15 -17 -19 -20 21 -2 -22 26 -25 -5 27 29 -29 -9
right_child=7 3 -4 4 -6 -7 -8 9 -10 -11 -12 -13 13 15 -16 17 -18 18 19 -21 22 -23 -24 24 -26 -27 -28 28 -30 -31
leaf_value=0.1923830680297148 -0.094157425297333439 0.19278384853371053 0.19407000523974322 0.19237909307571271 0.19238286399985247 0.19262298183370971 0.19251728503124324 -0.093967175659466107 -0.094338002261373635 -0.093988533662873699 -0.094972945698564543 -0.094407641296387304 -0.094412943837776153 -0.0939984966412028 -0.094004192464960418 -0.094001694552169668 -0.094278295494639328 -0.093813699661720623 -0.093895464680964658 -0.09402567009303639 -0.09398880637343851 -0.093988611873877526 -0.093878461219531251 -0.093992375247719515 -0.094111599774027499 0.19241270474877417 -0.093989025925788949 -0.094177080021784751 -0.093991281714638567 -0.093995565927162752
leaf_weight=19.446205079555515 2.685994520783427 8.2458015978336316 6.1743882894515982 106.66000637412071 3374.211925804615 8.2474583089351636 5.8918102085590354 8.7851643636822683 2.4597284495830527 5765.6569340899587 2.9033807516098014 2.5882209688425055 2.4699946641921997 9.8976990431547147 2.4145520925521842 16.419457301497459 3.5691944584250441 5.1199584230780619 2.5156815201044083 3.1440122947096825 6.392877981066702 11.338150709867479 2.386504128575325 3.498869188129901 2.5555043816566467 6.7764591574668875 1297.1631513759494 2.4449378475546837 3.1366550028324118 77.958344988524914
leaf_count=66 22 28 21 362 11452 28 20 73 20 47801 23 21 20 82 20 136 29 43 21 26 53 94 20 29 21 23 10754 20 26 646
internal_value=-3.26196e-06 0.192387 0.19279 0.192385 0.192384 0.192403 0.192388 -0.0939897 -0.0940302 -0.0939895 -0.0939935 -0.0939915 -0.0939908 -0.0940198 -0.0942109 -0.0939968 -0.0940727 -0.0939593 -0.0938946 -0.0939678 -0.093997 -0.0940209 -0.0939588 -0.0939898 -0.0940427 0.192381 -0.0939896 -0.0939975 -0.0940727 -0.0939927
internal_weight=10773.2 3535.65 25.6206 3510.03 3501.79 127.576 119.328 7237.5 25.2633 7212.24 1446.58 1443.68 1441.09 45.5505 4.88455 40.666 13.4669 27.1991 10.7797 5.65969 22.8035 14.0241 8.77938 1395.54 6.05437 113.436 1389.49 92.3251 5.58159 86.7435
internal_count=72000 12000 87 11913 11885 433 405 60000 209 59791 11990 11967 11946 377 40 337 111 226 90 47 189 116 73 11569 50 385 11519 765 46 719
is_linear=0
shrinkage=0.1


Tree=21
num_leaves=31
num_cat=0
split_feature=3 14 4 3 11 4 2 9 3 7 3 11 9 10 11 9 5 5 3 10 3 9 5 3 3 4 7 3 14 10
split_gain=19479.6 3.3682e-06 1.95743e-05 2.33278e-06 8.3749e-05 0.000292714 9.65728e-06 1.97372e-05 7.10717e-06 9.51022e-05 2.22012e-06 2.05743e-06 1.69942e-06 2.09639e-06 1.37102e-06 5.84169e-06 2.82854e-06 1.00411e-06 4.37022e-06 2.14476e-06 8.64705e-07 4.37521e-06 3.81989e-06 1.92277e-05 2.5048e-06 8.4025e-06 1.39727e-06 2.94372e-06 1.06038e-06 1.25613e-06
threshold=1.0000000180025095e-35 -2.1440201802270225 0.74501260810039971 -0.4899449959249953 -0.44581499211439235 -2.0517532498400839 -0.054676914236915723 -1.4700741696785939 -0.49168601944735174 1.0000000180025095e-35 -0.49404698734777008 -0.45343915464713391 1.669782029819562 0.6981611450838211 -0.44904820915901844 1.2888440439939743 0.68197017881968403 0.68644949062390725 -0.49321493872309657 0.37561843802776412 -0.49404698734777008 -0.091298671398875819 0.68197017881968403 -0.49321493872309657 -0.49321493872309657 0.53287579640749694 -0.16568695309630885 -0.49321493872309657 -0.81093990971183483 -0.76332440433117343
decision_type=2 2 2 2 2 2 2 2 2 2 2 2 2 2 2 2 2 2 2 2 2 2 2 2 2 2 2 2 2 2
left_child=1 2 10 4 6 -6 8 -8 12 -10 -1 -11 14 -14 20 17 -17 19 -19 -16 -3 24 23 -23 -22 -26 27 28 -24 -30
right_child=-2 3 -4 -5 5 -7 7 -9 9 11 -12 -13 13 -15 15 16 -18 18 -20 -21 21 22 26 -25 25 -27 -28 -29 29 -31
leaf_value=-0.094070504564372215 0.19238287705517643 -0.093989346591058426 -0.094293762533238956 -0.093988528144860944 -0.093985528328282844 -0.095203254145970084 -0.093984282875937866 -0.093636598629175227 -0.094613552116991198 -0.09388303167227717 -0.093987806808741595 -0.093980760732770993 -0.093992076334584868 -0.094109649145098367 -0.093990013451236518 -0.094164578726750867 -0.094024795688053775 -0.093997265975210936 -0.093869725558986747 -0.094064018281594053 -0.093994699643395588 -0.094005696449218495 -0.094070252423056333 -0.09431882165619275 -0.093995819812074249 -0.093814348019153448 -0.094067470624857596 -0.093924150500792364 -0.0940685610096888 -0.093990518645388862
leaf_weight=3.7540468126535478 3535.6743323206902 1348.7062196955085 2.4517734423279753 5695.6960283741355 8.561999671161173 2.5654563978314391 5.426114946603775 2.33548979461193 2.6111817583441761 2.5134811773896262 24.001687541604042 15.06869006156921 3.4987933263182631 2.6768206208944321 13.872248589992525 3.1756456345319739 2.660316213965416 19.793734945356846 3.1085543259978321 5.4565120115876189 19.428038544952869 9.5405191704630834 2.669201195240027 2.4684576317667952 7.723352402448656 3.8101984634995461 2.9110444113612202 4.8017262890934935 2.4262608364224532 13.752386696636668
leaf_count=31 12000 11181 20 47221 71 20 45 20 21 21 199 125 29 22 115 26 22 164 26 45 161 79 22 20 64 32 24 40 20 114
internal_value=-4.01863e-06 -0.0939896 -0.0940229 -0.0939895 -0.0939929 -0.0942663 -0.0939909 -0.0938797 -0.0939915 -0.0940504 -0.093999 -0.0939668 -0.0939907 -0.094043 -0.0939905 -0.0940071 -0.0941009 -0.0939941 -0.09398 -0.0940109 -0.0939899 -0.0940008 -0.0940233 -0.0940701 -0.0939728 -0.0939359 -0.0940021 -0.093994 -0.0940119 -0.0940022
internal_weight=10773.1 7237.47 30.2075 7207.26 1511.56 11.1275 1500.43 7.7616 1492.67 20.1934 27.7557 17.5822 1472.48 6.17561 1466.3 48.067 5.83596 42.231 22.9023 19.3288 1418.24 69.5312 38.5696 12.009 30.9616 11.5336 26.5606 23.6496 18.8478 16.1786
internal_count=72000 60000 250 59750 12529 91 12438 65 12373 167 230 146 12206 51 12155 398 48 350 190 160 11757 576 319 99 257 96 220 196 156 134
is_linear=0
shrinkage=0.1


Tree=22
num_leaves=31
num_cat=0
split_feature=3 4 11 12 14 3 5 14 3 12 9 5 9 4 10 10 12 3 12 9 5 1 10 7 11 4 9 7 7 5
split_gain=19187.6 272.069 0.320557 0.0888295 0.283287 0.0264311 0.307873 0.0246436 0.0216837 0.377924 0.111396 0.0354831 0.0173289 0.0942381 0.00677089 0.0478237 0.105434 0.021178 0.119147 0.439198 0.0170731 0.108139 0.0906286 0.0061896 0.00495845 0.0928771 0.00330242 0.00318076 0.00269135 0.00230981
threshold=-0.49168601944735174 1.0000000180025095e-35 -0.45379223750705255 -0.39028401853293976 0.34525264282090368 -0.4899449959249953 -1.503187429673843 -2.1440201802270225 -0.49321493872309657 -0.39252341290949361 -0.41076246347476536 0.68197017881968403 1.669782029819562 0.63837085951964323 -0.16601064028867005 -0.17951677433466531 -0.39754847920100816 -0.49404698734777008 -0.39852269341337304 0.45788312338590909 0.76334434326307132 2.1230349508871647 -1.0152320522695359 -0.47230496012813716 -0.44904820915901844 0.72207889872819375 1.2757445435669041 -0.31092555617917239 -0.4210480450445907 0.77230296687151756
decision_type=2 2 2 2 2 2 2 2 2 2 2 2 2 2 2 2 2 2 2 2 2 2 2 2 2 2 2 2 2 2
left_child=1 -1 -2 7 -5 6 -4 -3 12 10 -10 -12 14 -14 15 17 -17 20 19 28 -9 22 -22 -20 29 26 -26 -13 -19 -16
right_child=2 3 5 4 -6 -7 -8 8 9 -11 11 27 13 -15 24 16 -18 18 23 -21 21 -23 -24 -25 25 -27 -28 -29 -30 -31
leaf_value=-0.09398817268656999 -0.060606412681481009 0.18711274717877635 -0.094039642560581213 0.19740319089028299 0.16753492283144528 -0.093988537230013658 -0.058161883972899335 0.19240758076500208 0.18198560905531969 0.16777267531244405 0.20290177880812427 0.19382460548487579 0.19552168657761024 0.17939681175164096 0.19239194631245787 0.19246390339446426 0.17600681506808788 0.19564764224216027 0.19594846452792072 0.16118437011185616 0.18060311747397098 0.17824445987393156 0.19256891474322424 0.19297080907519026 0.19248447329117127 0.17953062497481395 0.19470165578333912 0.19668866518591985 0.19277667865494111 0.19286450035389391
leaf_weight=33.530907034873962 2.8799405694007865 9.3526846468448621 29.173035889863971 7.0237887203693372 5.7956870496273041 7168.2041331678629 2.6053789630532256 958.1375333070755 5.8376866877079037 6.4188625812530509 7.8369362354278591 11.469652622938161 8.803103029727934 6.1609389185905448 2153.7893039286137 11.489749759435655 5.8877605795860282 5.8675689101219186 10.556838333606722 5.8702841997146598 6.7374976277351371 6.1705541610717765 104.57186084985733 20.609271228313446 43.895668983459473 5.8491331636905661 7.9317074716091147 5.8581265509128526 7.3622580170631418 108.65441706776619
leaf_count=278 22 32 241 24 20 59429 19 3252 20 22 27 39 30 21 7310 39 20 20 36 20 23 21 355 70 149 20 27 20 25 369
internal_value=6.79266e-06 0.189522 -0.0939624 0.192209 0.1839 -0.0939758 -0.0910982 0.192239 0.192253 0.189858 0.194431 0.197318 0.192278 0.188883 0.192293 0.192094 0.186888 0.192174 0.190168 0.183949 0.192268 0.19113 0.191845 0.193979 0.192391 0.191476 0.192824 0.194793 0.19405 0.192415
internal_weight=10774.3 3571.47 7202.86 3537.94 12.8195 7199.98 31.7784 3525.12 3515.77 37.4213 31.0024 25.1647 3478.35 14.964 3463.38 1143.26 17.3775 1125.88 50.2662 19.1001 1075.62 117.48 111.309 31.1661 2320.12 57.6765 51.8274 17.3278 13.2298 2262.44
internal_count=72000 12289 59711 12011 44 59689 260 11967 11935 128 106 86 11807 51 11756 3881 59 3822 171 65 3651 399 378 106 7875 196 176 59 45 7679
is_linear=0
shrinkage=0.1


Tree=23
num_leaves=31
num_cat=0
split_feature=6 14 1 3 11 4 2 9 3 7 2 3 3 11 9 10 11 9 5 5 3 10 3 9 5 3 3 4 7 3
split_gain=19479.6 3.51682e-06 1.88882e-05 2.33287e-06 8.3749e-05 0.000292714 9.65728e-06 1.97372e-05 7.10717e-06 9.51022e-05 2.18621e-06 7.19856e-06 2.25264e-06 2.05743e-06 1.69942e-06 2.09639e-06 1.37102e-06 5.84169e-06 2.82854e-06 1.00411e-06 4.37022e-06 2.14476e-06 8.64705e-07 4.37521e-06 3.81989e-06 1.92277e-05 2.5048e-06 8.4025e-06 1.39727e-06 2.94372e-06
threshold=1.9345531713361603 -2.1440201802270225 1.8104774019503591 -0.4899449959249953 -0.44581499211439235 -2.0517532498400839 -0.054676914236915723 -1.4700741696785939 -0.49168601944735174 1.0000000180025095e-35 -0.27634768930939008 -0.49404698734777008 -0.4690110315470773 -0.45343915464713391 1.669782029819562 0.6981611450838211 -0.44904820915901844 1.2888440439939743 0.68197017881968403 0.68644949062390725 -0.49321493872309657 0.37561843802776412 -0.49404698734777008 -0.091298671398875819 0.68197017881968403 -0.49321493872309657 -0.49321493872309657 0.53287579640749694 -0.16568695309630885 -0.49321493872309657
decision_type=2 2 2 2 2 2 2 2 2 2 2 2 2 2 2 2 2 2 2 2 2 2 2 2 2 2 2 2 2 2
left_child=1 2 10 4 6 -6 8 -8 14 -10 11 -1 -12 -11 16 -16 22 19 -19 21 -21 -18 -3 26 25 -25 -24 -28 29 -26
right_child=-2 3 -4 -5 5 -7 7 -9 9 13 12 -13 -14 -15 15 -17 17 18 -20 20 -22 -23 23 24 28 -27 27 -29 -30 -31
leaf_value=-0.094151309081129106 0.19238287736266829 -0.093989346591058426 -0.094282988029276371 -0.093988528150548034 -0.093985528328282844 -0.095203254145970084 -0.093984282875937866 -0.093636598629175227 -0.094613552116991198 -0.09388303167227717 -0.093878673986197633 -0.093987241035845548 -0.093988880700003427 -0.093980760732770993 -0.093992076334584868 -0.094109649145098367 -0.093990013451236518 -0.094164578726750867 -0.094024795688053775 -0.093997265975210936 -0.093869725558986747 -0.094064018281594053 -0.093994699643395588 -0.094005696449218495 -0.094011856710678535 -0.09431882165619275 -0.093995819812074249 -0.093814348019153448 -0.094067470624857596 -0.093924150500792364
leaf_weight=3.4170268923044231 3535.6743310689926 1348.7062196955085 2.5730546414852133 5696.9022092744708 8.561999671161173 2.5654563978314391 5.426114946603775 2.33548979461193 2.6111817583441761 2.5134811773896262 2.3865413144230834 12.301858171820642 8.3228479102253896 15.06869006156921 3.4987933263182631 2.6768206208944321 13.872248589992525 3.1756456345319739 2.660316213965416 19.793734945356846 3.1085543259978321 5.4565120115876189 19.428038544952869 9.5405191704630834 18.847848728299144 2.4684576317667952 7.723352402448656 3.8101984634995461 2.9110444113612202 4.8017262890934935
leaf_count=28 12000 11181 21 47231 71 20 45 20 21 21 20 102 69 125 29 22 115 26 22 164 26 45 161 79 156 20 64 32 24 40
internal_value=-4.01857e-06 -0.0939896 -0.0940243 -0.0939895 -0.0939929 -0.0942663 -0.0939909 -0.0938797 -0.0939915 -0.0940504 -0.0939992 -0.0940229 -0.0939643 -0.0939668 -0.0939907 -0.094043 -0.0939905 -0.0940071 -0.0941009 -0.0939941 -0.09398 -0.0940109 -0.0939899 -0.0940008 -0.0940233 -0.0940701 -0.0939728 -0.0939359 -0.0940021 -0.093994
internal_weight=10773.1 7237.47 29.0013 7208.46 1511.56 11.1275 1500.43 7.7616 1492.67 20.1934 26.4283 15.7189 10.7094 17.5822 1472.48 6.17561 1466.3 48.067 5.83596 42.231 22.9023 19.3288 1418.24 69.5312 38.5696 12.009 30.9616 11.5336 26.5606 23.6496
internal_count=72000 60000 240 59760 12529 91 12438 65 12373 167 219 130 89 146 12206 51 12155 398 48 350 190 160 11757 576 319 99 257 96 220 196
is_linear=0
shrinkage=0.1


Tree=24
num_leaves=31
num_cat=0
split_feature=2 0 1 14 3 3 11 4 3 9 2 3 9 12 3 5 5 3 3 7 9 11 9 14 4 4 10 10 16 5
split_gain=12818.5 868.34 1642.92 6.32465e-06 2.96129e-05 4.12163e-06 0.000240213 0.000356438 2.36048e-05 0.000133502 1.18608e-05 2.54844e-06 7.01747e-06 5.12986e-06 4.2247e-06 6.97441e-06 3.50101e-06 1.50897e-05 2.04095e-06 1.8935e-06 1.78883e-06 1.587e-06 5.1121e-06 1.49902e-06 1.47364e-06 1.45758e-06 1.38279e-06 1.29246e-06 8.15054e-07 3.09118e-06
threshold=0.13091035773914114 1.0000000180025095e-35 -0.75807090941218069 -2.1440201802270225 -0.48684881717944234 -0.4899449959249953 -0.44581499211439235 -2.0563399917145246 -0.49168601944735174 -1.4556323136655009 -0.20285331320594133 -0.49404698734777008 -0.21984173169612301 -0.39028401853293976 -0.49321493872309657 0.68197017881968403 0.68197017881968403 -0.49321493872309657 -0.49321493872309657 -0.42538111215552815 1.669782029819562 -0.44904820915901844 1.2757445435669041 -0.81093990971183483 0.70946535857348081 0.66589131076628993 0.38784804488962593 -0.80455661330180928 -0.40688895112998064 0.76334434326307132
decision_type=2 2 2 2 2 2 2 2 2 2 2 2 2 2 2 2 2 2 2 2 2 2 2 2 2 2 2 2 2 2
left_child=1 3 -3 4 -1 6 8 -8 10 -10 11 20 14 16 -13 -16 17 -14 23 -20 21 28 24 -18 -23 -17 -22 -25 29 -5
right_child=-2 2 -4 5 -6 -7 7 -9 9 -11 -12 12 13 -15 15 25 18 -19 19 -21 26 22 -24 27 -26 -27 -28 -29 -30 -31
leaf_value=-0.092807058559973024 0.16522775199985076 0.16522775194182981 -0.092502739713014426 -0.09250692120488925 -0.09250300050546334 -0.09250304126004899 -0.092498593099100079 -0.094144535446642086 -0.092478961761040132 -0.093342427160470851 -0.092317571399111176 -0.09251022879664314 -0.092526253662859992 -0.092663021874586304 -0.092516321001489529 -0.092394956912576834 -0.092592293466240427 -0.092770166839980878 -0.092394618578915469 -0.092510642075830485 -0.092516902030302911 -0.092502521135145455 -0.092677606271260538 -0.092591877453608154 -0.09259125146739855 -0.09228280556455537 -0.092621968464279128 -0.092512117078839953 -0.092503353894255388 -0.092569156447287318
leaf_weight=3.9277847856283215 3198.0573886334896 401.66952848434448 643.70888519287109 74.074225060641766 17.360286764800549 4451.4292697384953 3.2136268094182014 2.2277598604559889 8.9825019910931569 2.2364073842763892 3.3529477939009658 19.193904638290405 12.563004739582537 3.4750904217362395 4.5053890943527239 2.440965861082077 3.3476088792085674 3.1779516488313666 2.3348760455846786 3.5380641743540791 2.7895270660519591 14.03764414042235 2.1757566854357711 2.2676541060209336 2.1597197726368895 2.2062587663531303 2.2736303806304932 19.51876778900623 1108.8407489210367 8.9446116238832456
leaf_count=36 10661 1339 6007 691 162 41539 30 19 84 20 32 179 117 32 42 23 31 29 22 33 26 131 20 21 20 21 21 182 10347 83
internal_value=-5.71728e-06 -0.0773518 0.00652598 -0.0925047 -0.0925591 -0.0925045 -0.0925094 -0.0931725 -0.0925067 -0.0926511 -0.0925054 -0.0925059 -0.0925234 -0.0925458 -0.0924836 -0.0924277 -0.0925371 -0.0925755 -0.0925176 -0.0924645 -0.0925048 -0.0925045 -0.0925337 -0.09253 -0.0925144 -0.0923417 -0.0925641 -0.0925204 -0.0925041 -0.0925136
internal_weight=10030 6831.97 1045.38 5786.6 21.2881 5765.31 1313.88 5.44139 1308.44 11.2189 1297.22 1293.87 78.5695 50.223 28.3465 9.15261 46.7479 15.741 31.007 5.87294 1215.3 1210.23 18.3731 25.134 16.1974 4.64722 5.06316 21.7864 1191.86 83.0188
internal_count=72000 61339 7346 53993 198 53795 12256 49 12207 104 12103 12071 732 467 265 86 435 146 289 55 11339 11292 171 234 151 44 47 203 11121 774
is_linear=0
shrinkage=0.1


Tree=25
num_leaves=31
num_cat=0
split_feature=1 3 4 2 3 4 3 4 3 4 7 9 14 9 3 3 10 7 5 9 1 12 3 10 16 10 14 11 11 9
split_gain=5365.51 5115.59 2651.94 638.619 245.557 967.488 34.9335 280.428 1.04114 2.92998 4.39622 1.72514 0.276391 0.151027 0.267857 0.0524936 0.179462 0.644289 0.0571495 0.22471 0.188791 0.217109 0.0418575 0.00101863 0.000179169 9.89468e-05 1.04753e-05 2.58222e-06 1.6818e-06 4.16929e-06
threshold=-0.75807090941218069 -0.47697507993754279 1.0000000180025095e-35 0.13080556537777691 -0.48300036743024882 1.0000000180025095e-35 -0.4899449959249953 1.0000000180025095e-35 -0.49321493872309657 0.54319596562498951 -0.19289240642141983 -0.55268980254738287 -0.5129986604531408 1.669782029819562 -0.49572443342983491 -0.49404698734777008 -0.56795687962651864 -0.47011019757892153 0.77230296687151756 1.5101626062117821 2.1230349508871647 -0.39930792170818913 -0.48684881717944234 1.0098654776904914 -0.16255196629796559 0.19349686917131528 -2.1440201802270225 -0.45379223750705255 -0.44904820915901844 1.2630061748002304
decision_type=2 2 2 2 2 2 2 2 2 2 2 2 2 2 2 2 2 2 2 2 2 2 2 2 2 2 2 2 2 2
left_child=-1 3 -3 4 6 -6 8 -8 13 24 11 -11 -13 15 -15 18 17 -17 26 20 -20 -22 -5 25 27 -14 -2 -10 -28 -30
right_child=1 2 -4 22 5 -7 7 -9 9 10 -12 12 23 14 -16 16 -18 -19 19 -21 21 -23 -24 -25 -26 -27 28 -29 29 -31
leaf_value=-0.092503083878986342 -0.092683523555707026 -0.092503085180026701 0.16522773081283099 0.17311530811324385 -0.092503084431930838 0.16522774608600788 -0.092502976025252523 0.1652277477491082 -0.092403002682745219 -0.0019683022523429143 0.064421308740982883 -0.056817883116838011 -0.092864888616520924 -0.093104989146366154 -0.049270663003256825 -0.046550509136654761 -0.092517682882462468 -0.092533758149178358 -0.092513233282399215 -0.064682053158370029 -0.093212254145195961 -0.049561812503488574 0.16522777597628927 -0.09556063759013389 -0.093283912404602737 -0.093675718617010253 -0.092503683727441277 -0.092499717524544486 -0.09251463571897163 -0.092651537888010338
leaf_weight=3857.8697387501597 3.2653296738862982 455.97882258892059 3208.2566075623035 7.1256272792816153 473.87502249330282 210.28404727578163 297.58904197067022 49.19626784324646 2.9741026684641829 3.1643646657466915 3.0675256177783004 2.6060588285326949 3.641377925872801 3.6010192111134529 2.2745801731944075 4.1894696503877631 44.850283168256283 11.174275472760199 53.735204443335533 3.4756953418254843 2.2714905813336372 2.2864098772406569 120.59085202217102 2.5910505428910255 3.0750369355082503 2.5652726218104362 1139.30878996104 38.460073724389076 15.232349351048471 2.6049821749329558
leaf_count=36000 30 4255 10695 24 4422 701 2777 164 28 23 21 21 33 32 20 34 418 104 501 30 20 20 402 20 27 22 10631 359 142 24
internal_value=1.25038e-05 0.057828 0.133156 -0.0521799 -0.0638634 -0.0132866 -0.0842515 -0.0559403 -0.0915218 -0.0788796 -0.0443844 -0.067295 -0.0854221 -0.0921316 -0.0761357 -0.0922049 -0.0893224 -0.0799948 -0.0923469 -0.089383 -0.0908558 -0.0713156 0.165668 -0.0938953 -0.0925474 -0.0932 -0.0925047 -0.0924928 -0.0925042 -0.0925346
internal_weight=10031.2 6173.31 3664.24 2509.08 2381.36 684.159 1697.2 346.785 1350.41 62.1449 17.6357 14.5681 11.4038 1288.27 5.8756 1282.39 60.214 15.3637 1222.18 61.7688 58.2931 4.5579 127.716 8.7977 44.5092 6.20665 1160.41 41.4342 1157.15 17.8373
internal_count=72000 36000 14950 21050 20624 5123 15501 2941 12560 554 140 119 96 12006 52 11954 556 138 11398 571 541 40 426 75 414 55 10827 387 10797 166
is_linear=0
shrinkage=0.1


Tree=26
num_leaves=31
num_cat=0
split_feature=4 11 3 12 14 1 3 5 14 3 11 12 3 14 11 5 3 3 9 4 9 7 3 10 11 16 9 4 16 5
split_gain=15330.4 0.000452785 0.00143992 5.96558e-05 5.98658e-06 3.46457e-05 5.94742e-06 3.14093e-05 1.63247e-05 4.6099e-06 0.000453753 7.79888e-05 6.62e-06 2.77622e-05 2.7683e-05 8.23899e-06 1.33e-05 6.17493e-06 4.7614e-06 3.89853e-06 2.34574e-06 2.26276e-06 2.05345e-06 1.86668e-06 6.03871e-07 1.2583e-06 4.16685e-06 1.0881e-06 5.25225e-07 3.26483e-06
threshold=-1.2754471875909215 -0.45379223750705255 -0.49168601944735174 -0.39718691957586677 -2.1440201802270225 1.4981087238037565 -0.4899449959249953 -1.5046805336085838 -0.68133313552725772 -0.4899449959249953 -0.44673335774109629 -0.38976084478565637 -0.49372712958185333 -0.92336404042054376 -0.45133234218154777 0.68197017881968403 -0.49321493872309657 -0.49321493872309657 0.052281649381370636 -2.0425797660912011 1.669782029819562 -0.37591867991670064 -0.47813878684402356 0.73883259222225905 -0.44904820915901844 1.0591329578621103 1.3001886404430223 0.70946535857348081 -0.40688895112998064 0.77230296687151756
decision_type=2 2 2 2 2 2 2 2 2 2 2 2 2 2 2 2 2 2 2 2 2 2 2 2 2 2 2 2 2 2
left_child=1 2 -1 -3 5 22 7 8 19 10 11 12 20 14 -14 16 -15 -17 -19 -5 24 -20 -2 -22 28 26 27 -26 29 -6
right_child=4 3 -4 6 9 -7 -8 -9 -10 -11 -12 -13 13 15 -16 17 -18 18 21 -21 23 -23 -24 -25 25 -27 -28 -29 -30 -31
leaf_value=0.16522820203596628 -0.092600495803112748 0.16549534994734119 0.16696396785140435 0.16522420165671392 -0.092506740413888164 -0.092932917377582303 0.1652277410874218 0.16546208253172257 0.16537538946919597 -0.092503049407048066 -0.093821100904127624 -0.093085312304178672 -0.0930323737309246 -0.092521562372882393 -0.092528375485018688 -0.092524353577986704 -0.092760306957350769 -0.092337983237851626 -0.092411632418427328 0.16530699679211899 -0.092520194681228352 -0.092539654038107183 -0.092503302753579014 -0.092639339740683654 -0.092505156840908764 -0.092451719600278703 -0.092658886367773627 -0.092580281182779028 -0.092503543289455925 -0.092590442814958929
leaf_weight=19.7984993159771 2.4763692989945474 8.3995356261730176 6.2999800145626059 109.1916728913784 75.565404832363129 2.200989954173564 3435.3393814265728 6.5996297001838675 8.0994886159896833 5122.4869939237833 2.633231319487094 2.3281004130840293 2.2127878963947296 8.8012443631887418 2.1474799141287795 14.600647561252115 3.1751766949892035 4.012147933244707 2.5509601309895515 5.9995842278003684 3.1122824475169173 3.0092789828777313 17.789407901465893 2.2770575881004333 18.113715566694747 2.445503205060958 2.1721936538815489 2.1576528251171103 1129.1133802160621 4.9662453904747954
leaf_count=66 23 28 21 364 705 20 11452 22 27 47801 23 21 20 82 20 136 29 38 24 20 29 28 166 21 169 23 20 20 10536 46
internal_value=-4.55717e-06 0.165232 0.165647 0.165229 -0.0925046 -0.0925561 0.165229 0.16525 0.165238 -0.0925044 -0.0925097 -0.0925071 -0.092506 -0.0925458 -0.0927841 -0.092517 -0.0925849 -0.0924834 -0.092421 0.165229 -0.0925047 -0.0924809 -0.0925152 -0.0925705 -0.0925044 -0.0925198 -0.0925273 -0.0925132 -0.0925041 -0.0925119
internal_weight=10030.1 3599.73 26.0985 3573.63 6430.35 22.4668 3565.23 129.89 123.291 6407.88 1285.39 1282.76 1280.43 40.5097 4.36027 36.1495 11.9764 24.173 9.57239 115.191 1239.92 5.56024 20.2658 5.38934 1234.53 24.8891 22.4436 20.2714 1209.65 80.5317
internal_count=72000 12000 87 11913 60000 209 11885 433 411 59791 11990 11967 11946 377 40 337 111 226 90 384 11569 52 189 50 11519 232 209 189 11287 751
is_linear=0
shrinkage=0.1


Tree=27
num_leaves=31
num_cat=0
split_feature=3 3 11 7 14 3 16 2 11 9 3 9 12 5 3 3 5 10 10 12 3 11 9 4 4 7 14 16 5 11
split_gain=15329.8 5.12568e-06 0.000127517 0.000445387 3.20139e-05 9.52625e-06 0.000151711 1.06874e-05 2.92903e-06 2.44334e-06 2.10101e-06 6.7355e-06 5.22183e-06 3.49831e-06 1.49268e-05 2.40676e-06 8.792e-06 1.9897e-06 1.97197e-06 1.75703e-06 1.73702e-06 1.57077e-06 5.12774e-06 1.47893e-06 1.45441e-06 1.39136e-06 9.16233e-07 7.58876e-07 3.22628e-06 1.14657e-05
threshold=1.0000000180025095e-35 -0.4899449959249953 -0.44581499211439235 0.10690518907805328 -2.1440201802270225 -0.49168601944735174 -1.7507423677060634 -0.054676914236915723 -0.45368564838302888 1.669782029819562 -0.49404698734777008 -0.21984173169612301 -0.39028401853293976 0.68197017881968403 -0.49321493872309657 -0.49321493872309657 0.68197017881968403 -0.42469182140087675 0.6981611450838211 -0.39804807284188887 -0.49321493872309657 -0.44904820915901844 1.2757445435669041 0.70946535857348081 0.66589131076628993 -0.37591867991670064 -0.81093990971183483 -0.40688895112998064 0.76334434326307132 -0.45473299638960213
decision_type=2 2 2 2 2 2 2 2 2 2 2 2 2 2 2 2 2 2 2 2 2 2 2 2 2 2 2 2 2 2
left_child=1 2 4 -4 -1 7 8 9 -7 10 21 15 13 14 -13 -12 -17 19 -11 -15 26 27 23 -23 -18 -22 -19 28 -6 -30
right_child=-2 -3 3 -5 5 6 -8 -9 -10 18 11 12 -14 17 -16 16 24 20 -20 -21 25 22 -24 -25 -26 -27 -28 -29 29 -31
leaf_value=-0.092781395055501051 0.16522774808444551 -0.092503045568715456 -0.094074540247676974 -0.092498474881613668 -0.092506591213293132 -0.092369834110115664 -0.093351470724808844 -0.092337495519821261 -0.092494659859657366 -0.092519944579832689 -0.092509615126539324 -0.092524820972476607 -0.092662773194775894 -0.092623211402054928 -0.092767648905711139 -0.092508383641232539 -0.092396123567367441 -0.092569054108286045 -0.092640782190909238 -0.092523404818657437 -0.092389738543369834 -0.092502546267136193 -0.092677609145477152 -0.092591346282897127 -0.092284100591482454 -0.092499965797024172 -0.092505981433375628 -0.09250334675553841 -0.09276857610946676 -0.092505381520412946
leaf_weight=4.2482075840234748 3599.726915448904 5082.8335178568959 2.3361438736319524 7.7126209363341331 80.503834620118141 2.1181715875864091 2.2383026778697959 3.7812890335917464 16.705074191093445 3.1122145429253569 21.1229103282094 12.454097829759119 3.475028693675994 2.8150967657566071 3.1772790551185599 10.398961462080477 2.4412181898951522 2.69431950896979 2.3857878372073174 4.723343387246131 2.2277779579162598 14.251990593969827 2.1757571324706069 2.1597373560070983 2.2065179198980331 2.3564223274588612 15.864077717065809 1108.8399693146348 2.1926438957452774 6.7525173351168615
leaf_count=39 12000 47431 20 72 751 20 20 36 156 29 197 116 32 26 29 97 23 25 22 44 21 133 20 20 21 22 148 10347 20 63
internal_value=-5.71847e-06 -0.0925045 -0.09251 -0.0928649 -0.0925073 -0.0925064 -0.0925732 -0.0925054 -0.0924806 -0.0925059 -0.0925056 -0.0925207 -0.0925445 -0.0925357 -0.0925742 -0.0924878 -0.0924573 -0.0925161 -0.0925724 -0.0925607 -0.0925015 -0.0925045 -0.0925334 -0.0925142 -0.0923429 -0.0924464 -0.0925151 -0.0925041 -0.0925129 -0.0925699
internal_weight=10030 6430.3 1347.47 10.0488 1337.42 1333.17 21.0615 1312.11 18.8232 1308.33 1302.83 85.9571 49.7874 46.3124 15.6314 36.1696 15.0467 30.681 5.498 7.53844 23.1426 1216.88 18.5875 16.4117 4.64774 4.5842 18.5584 1198.29 89.449 8.94516
internal_count=72000 60000 12569 92 12477 12438 196 12242 176 12206 12155 801 463 431 145 338 141 286 51 70 216 11354 173 153 44 43 173 11181 834 83
is_linear=0
shrinkage=0.1


Tree=28
num_leaves=31
num_cat=0
split_feature=3 4 11 3 5 9 3 13 14 9 3 7 10 15 16 5 4 10 4 9 3 3 14 11 16 9 1 10 12 9
split_gain=15116.8 195.987 0.252397 0.0907325 0.889583 1.84429 0.0287044 0.41034 0.0252706 0.0186522 0.0911598 0.0125695 0.0063538 0.0625754 0.040706 0.00773998 0.0655104 0.19605 0.330917 0.00609031 0.00379951 0.00350619 0.0698035 0.00444337 0.0904195 0.00341824 0.0029794 0.00283417 0.00250214 0.00211078
threshold=-0.49168601944735174 1.0000000180025095e-35 -0.45368564838302888 -0.49321493872309657 0.68197017881968403 0.37141391577239419 -0.4899449959249953 -0.18270296005241923 -2.1440201802270225 1.669782029819562 -0.49586138229871141 -0.19968048021748913 -0.92340496562902141 -0.16712845973876697 -0.40688895112998064 0.77230296687151756 0.54319596562498951 -0.14089521857182397 0.51911557078417359 -0.05203045614510516 -0.49427139342699894 -0.49372712958185333 -0.79743940877980501 -0.44904820915901844 1.0591329578621103 1.4973306886132114 2.1230349508871647 -0.56795687962651864 -0.39252341290949361 1.2888440439939743
decision_type=2 2 2 2 2 2 2 2 2 2 2 2 2 2 2 2 2 2 2 2 2 2 2 2 2 2 2 2 2 2
left_child=1 -1 -2 8 5 -5 7 -4 -3 12 -11 19 13 -10 -15 21 17 18 -17 -6 -16 23 -23 -14 29 26 -18 -24 -21 -25
right_child=2 3 6 4 11 -7 -8 -9 9 10 -12 -13 15 14 20 16 25 -19 -20 28 -22 22 27 24 -26 -27 -28 -29 -30 -31
leaf_value=-0.092502505361436851 -0.066047197077583178 0.15997853492788605 -0.092691882133130232 0.09718150556096064 0.16966218046449727 0.17331699559427513 -0.092503058716767839 -0.04631753516192999 0.1574902493035224 0.16783986294877073 0.15202754376654093 0.17300531230605398 0.16523830302401188 0.15848162171395597 0.16529028886836483 0.16648323224450456 0.16530973182701561 0.16587773568338113 0.13366405191113059 0.16587139759221625 0.16751120316302989 0.15612405672251331 0.16744258186884398 0.16541951528849058 0.15268350244526729 0.1676914460774781 0.16720027144829683 0.16543338914179645 0.16836687719150267 0.16740502461612652
leaf_weight=29.789822541177273 3.6120015010237685 9.5711714625358564 26.120966322720054 5.9161887466907483 12.59329643845558 6.8835623264312744 6367.8287812247872 2.0584023296833029 11.698012530803679 9.2977714836597425 5.9979564845561972 5.9884406328201321 3044.1659274399281 8.9672929644584638 158.08828634023666 6.298748165369032 113.08982214331627 25.198381870985031 5.9978212714195251 11.098864406347275 8.0976450741291028 8.6986518502235395 8.0975485742092115 49.796067118644714 5.9689110815525046 7.1990175545215598 8.9993587434291822 52.795886188745499 6.2978491783142099 5.9993330836296073
leaf_count=278 31 32 241 20 42 23 59422 17 39 31 20 20 10148 30 527 21 377 84 20 37 27 29 27 166 20 24 30 176 21 20
internal_value=9.20408e-06 0.162939 -0.092474 0.165051 0.160768 0.138126 -0.092489 -0.0893044 0.16511 0.165124 0.161639 0.168822 0.165139 0.164571 0.165044 0.165171 0.164507 0.160826 0.150475 0.167987 0.165399 0.165206 0.164504 0.165221 0.164382 0.165574 0.165449 0.165701 0.166775 0.165633
internal_weight=10032.2 3632.59 6399.62 3602.8 48.7782 12.7998 6396.01 28.1794 3554.02 3544.45 15.2957 35.9785 3529.16 186.851 175.153 3342.31 166.783 37.495 12.2966 29.99 166.186 3175.52 69.5921 3105.93 61.7643 129.288 122.089 60.8934 17.3967 55.7954
internal_count=72000 12289 59711 12011 163 43 59680 258 11848 11816 51 120 11765 623 584 11142 556 125 41 100 554 10586 232 10354 206 431 407 203 58 186
is_linear=0
shrinkage=0.1


Tree=29
num_leaves=31
num_cat=0
split_feature=6 3 11 7 14 3 16 2 11 9 3 9 12 5 3 3 5 10 10 12 3 11 9 4 4 7 14 16 5 11
split_gain=15329.8 5.12231e-06 0.000127518 0.000445387 3.18784e-05 9.52624e-06 0.000151711 1.06874e-05 2.92903e-06 2.44334e-06 2.10113e-06 6.7357e-06 5.2205e-06 3.49796e-06 1.49268e-05 2.40676e-06 8.792e-06 2.00425e-06 1.97197e-06 1.75797e-06 1.73386e-06 1.57077e-06 5.12774e-06 1.47893e-06 1.45441e-06 1.39136e-06 9.32367e-07 7.58876e-07 3.22628e-06 1.14657e-05
threshold=1.9345531713361603 -0.4899449959249953 -0.44581499211439235 0.10690518907805328 -2.1440201802270225 -0.49168601944735174 -1.7507423677060634 -0.054676914236915723 -0.45368564838302888 1.669782029819562 -0.49404698734777008 -0.21984173169612301 -0.39028401853293976 0.68197017881968403 -0.49321493872309657 -0.49321493872309657 0.68197017881968403 -0.42469182140087675 0.6981611450838211 -0.39804807284188887 -0.49321493872309657 -0.44904820915901844 1.2757445435669041 0.70946535857348081 0.66589131076628993 -0.37591867991670064 -0.81093990971183483 -0.40688895112998064 0.76334434326307132 -0.45473299638960213
decision_type=2 2 2 2 2 2 2 2 2 2 2 2 2 2 2 2 2 2 2 2 2 2 2 2 2 2 2 2 2 2
left_child=1 2 4 -4 -1 7 8 9 -7 10 21 15 13 14 -13 -12 -17 19 -11 -15 26 27 23 -23 -18 -22 -19 28 -6 -30
right_child=-2 -3 3 -5 5 6 -8 -9 -10 18 11 12 -14 17 -16 16 24 20 -20 -21 25 22 -24 -25 -26 -27 -28 -29 29 -31
leaf_value=-0.092780818903549361 0.16522774829973658 -0.092503046025475433 -0.094074540247676974 -0.092498474946833581 -0.092506591213293132 -0.092369834110115664 -0.093351470724808844 -0.092337495519821261 -0.092494659859657366 -0.092519944579832689 -0.092509615126539324 -0.092524820972476607 -0.092662759103821005 -0.092623392901340765 -0.092767648905711139 -0.092508383641232539 -0.092396123567367441 -0.092569463011188527 -0.092640782190909238 -0.092523560487273213 -0.092389738543369834 -0.092502546267136193 -0.092677609145477152 -0.092591346282897127 -0.092284100591482454 -0.092499965797024172 -0.092505838345787503 -0.09250334675553841 -0.09276857610946676 -0.092505381520412946
leaf_weight=4.2480054944753638 3599.726915538311 5082.8337206989527 2.3361438736319524 7.7126210033893585 80.503834620118141 2.1181715875864091 2.2383026778697959 3.7812890335917464 16.705074191093445 3.1122145429253569 21.1229103282094 12.454097829759119 3.4750245586037627 2.8151399716734886 3.1772790551185599 10.398961462080477 2.4412181898951522 2.6944147348403993 2.3857878372073174 4.7234067544341078 2.2277779579162598 14.251990593969827 2.1757571324706069 2.1597373560070983 2.2065179198980331 2.3564223274588612 15.863880403339861 1108.8399693146348 2.1926438957452774 6.7525173351168615
leaf_count=39 12000 47431 20 72 751 20 20 36 156 29 197 116 32 26 29 97 23 25 22 44 21 133 20 20 21 22 148 10347 20 63
internal_value=-5.71839e-06 -0.0925045 -0.09251 -0.0928649 -0.0925073 -0.0925064 -0.0925732 -0.0925054 -0.0924806 -0.0925059 -0.0925056 -0.0925207 -0.0925445 -0.0925357 -0.0925742 -0.0924878 -0.0924573 -0.0925161 -0.0925724 -0.0925608 -0.0925015 -0.0925045 -0.0925334 -0.0925142 -0.0923429 -0.0924464 -0.0925151 -0.0925041 -0.0925129 -0.0925699
internal_weight=10030 6430.3 1347.47 10.0488 1337.42 1333.17 21.0615 1312.11 18.8232 1308.33 1302.83 85.9571 49.7874 46.3124 15.6314 36.1696 15.0467 30.681 5.498 7.53855 23.1425 1216.88 18.5875 16.4117 4.64774 4.5842 18.5583 1198.29 89.449 8.94516
internal_count=72000 60000 12569 92 12477 12438 196 12242 176 12206 12155 801 463 431 145 338 141 286 51 70 216 11354 173 153 44 43 173 11181 834 83
is_linear=0
shrinkage=0.1


Tree=30
num_leaves=31
num_cat=0
split_feature=2 0 1 14 1 3 11 10 3 10 2 3 5 3 10 3 9 14 4 3 9 10 4 11 9 4 10 16 5 11
split_gain=10234.6 768.258 1316.72 8.07808e-06 3.77504e-05 6.10137e-06 0.000337217 0.000579515 3.87242e-05 0.000226444 8.64553e-06 3.89938e-06 1.25028e-05 1.38124e-05 3.76467e-05 8.70739e-06 6.79124e-06 5.58438e-06 4.18727e-06 3.75434e-06 2.92742e-06 1.93287e-06 1.61363e-06 1.38086e-06 3.23725e-06 1.41873e-06 1.366e-06 9.38265e-07 3.26024e-06 9.43493e-06
threshold=0.13091035773914114 1.0000000180025095e-35 -0.75807090941218069 -2.1440201802270225 1.7634013574923191 -0.4899449959249953 -0.44581499211439235 -1.4550525569528745 -0.49168601944735174 -1.4550525569528745 -0.20285331320594133 -0.49372712958185333 0.68197017881968403 -0.49321493872309657 0.040707606900387133 -0.49321493872309657 -0.2060069370018538 -0.75487866640943968 0.45146112813616668 -0.49321493872309657 1.669782029819562 0.73883259222225905 0.57186310234024684 -0.44904820915901844 1.3001886404430223 0.70946535857348081 0.013267124642039857 -0.40688895112998064 0.76334434326307132 -0.45473299638960213
decision_type=2 2 2 2 2 2 2 2 2 2 2 2 2 2 2 2 2 2 2 2 2 2 2 2 2 2 2 2 2 2
left_child=1 3 -3 4 19 6 8 -8 10 -10 11 20 13 -13 18 17 -17 -14 -15 -1 23 -22 -18 27 25 -25 -24 28 -5 -30
right_child=-2 2 -4 5 -6 -7 7 -9 9 -11 -12 12 15 14 -16 16 22 -19 -20 -21 21 -23 26 24 -26 -27 -28 -29 29 -31
leaf_value=-0.091336446571233659 0.1466215996252164 0.14662159956459078 -0.091206785972973853 -0.091212027751736202 -0.091702575309837775 -0.091207069851649586 -0.091195693835367825 -0.09344752472207235 -0.091182516561512716 -0.092417348238759342 -0.09103921783394614 -0.091228891282622571 -0.091385473686032628 -0.091206803315078799 -0.091779127153518825 -0.091026565176510962 -0.091262155469141626 -0.09121913841174456 -0.091390290821593209 -0.091207374015833093 -0.09123303406391034 -0.091361847164867338 -0.091216982390425819 -0.091211922408221346 -0.091351409658334881 -0.091295450130127825 -0.091111484930118364 -0.091207735737448115 -0.091471203713682503 -0.091219025771689305
