{"learner":{"attributes":{"scikit_learn":"{\"_estimator_type\": \"classifier\"}"},"feature_names":[],"feature_types":[],"gradient_booster":{"model":{"gbtree_model_param":{"num_parallel_tree":"1","num_trees":"600"},"iteration_indptr":[0,6,12,18,24,30,36,42,48,54,60,66,72,78,84,90,96,102,108,114,120,126,132,138,144,150,156,162,168,174,180,186,192,198,204,210,216,222,228,234,240,246,252,258,264,270,276,282,288,294,300,306,312,318,324,330,336,342,348,354,360,366,372,378,384,390,396,402,408,414,420,426,432,438,444,450,456,462,468,474,480,486,492,498,504,510,516,522,528,534,540,546,552,558,564,570,576,582,588,594,600],"tree_info":[0,1,2,3,4,5,0,1,2,3,4,5,0,1,2,3,4,5,0,1,2,3,4,5,0,1,2,3,4,5,0,1,2,3,4,5,0,1,2,3,4,5,0,1,2,3,4,5,0,1,2,3,4,5,0,1,2,3,4,5,0,1,2,3,4,5,0,1,2,3,4,5,0,1,2,3,4,5,0,1,2,3,4,5,0,1,2,3,4,5,0,1,2,3,4,5,0,1,2,3,4,5,0,1,2,3,4,5,0,1,2,3,4,5,0,1,2,3,4,5,0,1,2,3,4,5,0,1,2,3,4,5,0,1,2,3,4,5,0,1,2,3,4,5,0,1,2,3,4,5,0,1,2,3,4,5,0,1,2,3,4,5,0,1,2,3,4,5,0,1,2,3,4,5,0,1,2,3,4,5,0,1,2,3,4,5,0,1,2,3,4,5,0,1,2,3,4,5,0,1,2,3,4,5,0,1,2,3,4,5,0,1,2,3,4,5,0,1,2,3,4,5,0,1,2,3,4,5,0,1,2,3,4,5,0,1,2,3,4,5,0,1,2,3,4,5,0,1,2,3,4,5,0,1,2,3,4,5,0,1,2,3,4,5,0,1,2,3,4,5,0,1,2,3,4,5,0,1,2,3,4,5,0,1,2,3,4,5,0,1,2,3,4,5,0,1,2,3,4,5,0,1,2,3,4,5,0,1,2,3,4,5,0,1,2,3,4,5,0,1,2,3,4,5,0,1,2,3,4,5,0,1,2,3,4,5,0,1,2,3,4,5,0,1,2,3,4,5,0,1,2,3,4,5,0,1,2,3,4,5,0,1,2,3,4,5,0,1,2,3,4,5,0,1,2,3,4,5,0,1,2,3,4,5,0,1,2,3,4,5,0,1,2,3,4,5,0,1,2,3,4,5,0,1,2,3,4,5,0,1,2,3,4,5,0,1,2,3,4,5,0,1,2,3,4,5,0,1,2,3,4,5,0,1,2,3,4,5,0,1,2,3,4,5,0,1,2,3,4,5,0,1,2,3,4,5,0,1,2,3,4,5,0,1,2,3,4,5,0,1,2,3,4,5,0,1,2,3,4,5,0,1,2,3,4,5,0,1,2,3,4,5,0,1,2,3,4,5,0,1,2,3,4,5,0,1,2,3,4,5,0,1,2,3,4,5,0,1,2,3,4,5,0,1,2,3,4,5,0,1,2,3,4,5,0,1,2,3,4,5,0,1,2,3,4,5,0,1,2,3,4,5,0,1,2,3,4,5,0,1,2,3,4,5,0,1,2,3,4,5,0,1,2,3,4,5,0,1,2,3,4,5,0,1,2,3,4,5,0,1,2,3,4,5,0,1,2,3,4,5],"trees":[{"base_weights":[-2.6820748E-8,-5.1267916E-1,8.9969176E-1,-1.79988E-1,1.1581526E-1,-1.7989218E-1,8.9783216E-1],"categories":[],"categories_nodes":[],"categories_segments":[],"categories_sizes":[],"default_left":[0,0,0,0,0,0,0],"id":0,"left_children":[1,3,-1,-1,5,-1,-1],"loss_changes":[3.0753287E4,9.3710254E2,0E0,0E0,4.290911E3,0E0,0E0],"parents":[2147483647,0,0,1,1,4,4],"right_children":[2,4,-1,-1,6,-1,-1],"split_conditions":[1.885811E-1,1.6203839E0,8.9969176E-1,-1.79988E-1,-4.5554298E-1,-1.7989218E-1,8.9783216E-1],"split_indices":[2,0,0,0,3,0,0],"split_type":[0,0,0,0,0,0,0],"sum_hessian":[2E4,1.7080834E4,2.9191667E3,1.4998057E4,2.0827778E3,1.6686112E3,4.141667E2],"tree_param":{"num_deleted":"0","num_feature":"17","num_nodes":"7","size_leaf_vector":"1"}},{"base_weights":[-2.6820748E-8,-5.945695E-1,6.009449E-1,-5.279653E-1,-5.960712E-1,-2.255167E-1,2.3380334E0,-5.5366683E-1,5.625E-1,-5.8047646E-1,-1.7979272E-1,-3.477309E-1,8.963579E-1,-1.7969486E-1,8.9965624E-1,-5.837919E-1,3.913043E-1,-1.7989485E-1,8.114754E-1,-5.52343E-1,7.502356E-2,-1.7916667E-1,-9.3750015E-2,-1.4854369E-1,5.943396E-1,-5.960524E-1,-3.9034122E-1,-1.7989548E-1,8.977399E-1,-1.5E-1,3.3157894E-1,-1.7898712E-1,-1.0531916E-1,-1.7979518E-1,8.8368577E-1],"categories":[],"categories_nodes":[],"categories_segments":[],"categories_sizes":[],"default_left":[0,0,0,0,0,0,0,0,0,0,0,0,0,0,0,0,0,0,0,0,0,0,0,0,0,0,0,0,0,0,0,0,0,0,0],"id":1,"left_children":[1,3,5,7,9,11,13,15,-1,17,-1,19,-1,-1,-1,21,23,-1,-1,25,27,-1,29,-1,-1,31,33,-1,-1,-1,-1,-1,-1,-1,-1],"loss_changes":[7.146785E3,6.9091797E-1,1.4281767E4,1.5270355E1,1.4819336E-1,2.6485837E3,6.226289E3,6.741127E0,0E0,1.1002954E2,0E0,5.6190173E2,0E0,0E0,0E0,1.4058228E0,1.1785602E1,0E0,0E0,3.076184E1,4.173334E3,0E0,4.016447E0,0E0,0E0,2.72583E-1,6.521542E2,0E0,0E0,0E0,0E0,0E0,0E0,0E0,0E0],"parents":[2147483647,0,0,1,1,2,2,3,3,4,4,5,5,6,6,7,7,9,9,11,11,15,15,16,16,19,19,20,20,22,22,25,25,26,26],"right_children":[2,4,6,8,10,12,14,16,-1,18,-1,20,-1,-1,-1,22,24,-1,-1,26,28,-1,30,-1,-1,32,34,-1,-1,-1,-1,-1,-1,-1,-1],"split_conditions":[-7.1829E-1,-4.7174212E-1,-4.7348762E-1,-1.23281E-3,-4.567632E-1,-1.23281E-3,-5.2780825E-1,6.785048E-1,5.625E-1,4.285274E-1,-1.7979272E-1,-4.8255682E-1,8.963579E-1,-1.7969486E-1,8.9965624E-1,7.3534864E-1,-4.9374902E-1,-1.7989485E-1,8.114754E-1,-4.9044585E-1,-5.2780825E-1,-1.7916667E-1,-4.9333137E-1,-1.4854369E-1,5.943396E-1,-4.4492838E-1,-5.2780825E-1,-1.7989548E-1,8.977399E-1,-1.5E-1,3.3157894E-1,-1.7898712E-1,-1.0531916E-1,-1.7979518E-1,8.8368577E-1],"split_indices":[1,3,3,2,3,2,4,4,0,4,0,3,0,0,0,5,3,0,0,3,4,0,3,0,0,11,4,0,0,0,0,0,0,0,0],"split_type":[0,0,0,0,0,0,0,0,0,0,0,0,0,0,0,0,0,0,0,0,0,0,0,0,0,0,0,0,0,0,0,0,0,0,0],"sum_hessian":[2E4,1.0053334E4,9.946667E3,2.2944446E2,9.82389E3,6.7405557E3,3.2061113E3,2.2777779E2,1.6666667E0,1.7200001E3,8.103889E3,6.494445E3,2.4611113E2,5.888889E2,2.6172224E3,2.2111111E2,6.666667E0,1.7108334E3,9.166667E0,4.3761113E3,2.1183335E3,2.1500002E2,6.1111116E0,4.7222223E0,1.9444445E0,3.4441667E3,9.319445E2,1.7211112E3,3.9722223E2,5E0,1.1111112E0,3.4347224E3,9.444445E0,8.7777783E2,5.4166668E1],"tree_param":{"num_deleted":"0","num_feature":"17","num_nodes":"35","size_leaf_vector":"1"}},{"base_weights":[-2.6820748E-8,8.9973E-1,-1.7998919E-1],"categories":[],"categories_nodes":[],"categories_segments":[],"categories_sizes":[],"default_left":[0,0,0],"id":2,"left_children":[1,-1,-1],"loss_changes":[3.5990637E4,0E0,0E0],"parents":[2147483647,0,0],"right_children":[2,-1,-1],"split_conditions":[-5.2780825E-1,8.9973E-1,-1.7998919E-1],"split_indices":[4,0,0],"split_type":[0,0,0],"sum_hessian":[2E4,3.3333335E3,1.6666668E4],"tree_param":{"num_deleted":"0","num_feature":"17","num_nodes":"3","size_leaf_vector":"1"}},{"base_weights":[-2.6820748E-8,-1.7998919E-1,2.9782333E0,8.9973E-1,-1.7119566E-1],"categories":[],"categories_nodes":[],"categories_segments":[],"categories_sizes":[],"default_left":[0,0,0,0,0],"id":3,"left_children":[1,-1,3,-1,-1],"loss_changes":[3.5740227E4,0E0,2.5006836E2,0E0,0E0],"parents":[2147483647,0,0,2,2],"right_children":[2,-1,4,-1,-1],"split_conditions":[-1.5791629E-1,-1.7998919E-1,-1.7750423E-1,8.9973E-1,-1.7119566E-1],"split_indices":[11,0,0,0,0],"split_type":[0,0,0,0,0],"sum_hessian":[2E4,1.6647223E4,3.3527778E3,3.3333335E3,1.9444445E1],"tree_param":{"num_deleted":"0","num_feature":"17","num_nodes":"5","size_leaf_vector":"1"}},{"base_weights":[-2.6820748E-8,2.9298944E0,-5.989402E-1,-1.771529E-1,2.995799E0,-3.5307872E-1,-1.7998913E-1,8.9909947E-1,-9.4736844E-2,-1.7724958E-1,1.9756097E0,8.275862E-1,7.0481926E-1,3.3157894E-1,4.736842E-2],"categories":[],"categories_nodes":[],"categories_segments":[],"categories_sizes":[],"default_left":[0,0,0,0,0,0,0,0,0,0,0,0,0,0,0],"id":4,"left_children":[1,3,5,-1,7,9,-1,-1,-1,-1,11,13,-1,-1,-1],"loss_changes":[3.510014E4,7.894199E2,3.9667969E0,0E0,1.4181641E1,4.0630413E1,0E0,0E0,0E0,0E0,9.8797226E-1,4.2468238E-1,0E0,0E0,0E0],"parents":[2147483647,0,0,1,1,2,2,4,4,5,5,10,10,11,11],"right_children":[2,4,6,-1,8,10,-1,-1,-1,-1,12,14,-1,-1,-1],"split_conditions":[-4.9228147E-1,-5.2780825E-1,-4.9044585E-1,-1.771529E-1,-3.2182756E-1,6.577072E-1,-1.7998913E-1,8.9909947E-1,-9.4736844E-2,-1.7724958E-1,-3.9738703E-1,-4.8686236E-1,7.0481926E-1,3.3157894E-1,4.736842E-2],"split_indices":[3,4,3,0,2,5,0,0,0,0,12,7,0,0,0],"split_type":[0,0,0,0,0,0,0,0,0,0,0,0,0,0,0],"sum_hessian":[2E4,3.3938892E3,1.6606111E4,6.2222225E1,3.3316667E3,7.027778E1,1.6535834E4,3.3305557E3,1.1111112E0,6.444445E1,5.8333335E0,2.2222223E0,3.6111112E0,1.1111112E0,1.1111112E0],"tree_param":{"num_deleted":"0","num_feature":"17","num_nodes":"15","size_leaf_vector":"1"}},{"base_weights":[-2.6820748E-8,-1.7998919E-1,8.9973E-1],"categories":[],"categories_nodes":[],"categories_segments":[],"categories_sizes":[],"default_left":[0,0,0],"id":5,"left_children":[1,-1,-1],"loss_changes":[3.5990637E4,0E0,0E0],"parents":[2147483647,0,0],"right_children":[2,-1,-1],"split_conditions":[2.067558E0,-1.7998919E-1,8.9973E-1],"split_indices":[6,0,0],"split_type":[0,0,0],"sum_hessian":[2E4,1.6666668E4,3.3333335E3],"tree_param":{"num_deleted":"0","num_feature":"17","num_nodes":"3","size_leaf_vector":"1"}},{"base_weights":[-3.287504E-5,-4.7582978E-1,4.0470812E-1,-1.7159358E-1,9.0643525E-2,-1.7147271E-1,4.0468192E-1],"categories":[],"categories_nodes":[],"categories_segments":[],"categories_sizes":[],"default_left":[0,0,0,0,0,0,0],"id":6,"left_children":[1,3,-1,-1,5,-1,-1],"loss_changes":[1.2071292E4,7.572798E2,0E0,0E0,1.6824828E3,0E0,0E0],"parents":[2147483647,0,0,1,1,4,4],"right_children":[2,4,-1,-1,6,-1,-1],"split_conditions":[1.885811E-1,1.6203839E0,4.0470812E-1,-1.7159358E-1,-4.5554298E-1,-1.7147271E-1,4.0468192E-1],"split_indices":[2,0,0,0,3,0,0],"split_type":[0,0,0,0,0,0,0],"sum_hessian":[1.8804193E4,1.3901834E4,4.9023594E3,1.1884621E4,2.0172128E3,1.3220085E3,6.952042E2],"tree_param":{"num_deleted":"0","num_feature":"17","num_nodes":"7","size_leaf_vector":"1"}},{"base_weights":[2.5178987E-4,-5.656738E-1,4.173818E-1,-4.8797068E-1,-5.674579E-1,-2.9643765E-1,1.084406E0,-5.630285E-1,2.646203E-1,-5.496983E-1,-1.713486E-1,-3.7995636E-1,4.0410712E-1,-1.7138413E-1,4.0475827E-1,-1.7060521E-1,5.2980963E-2,-1.5728436E-1,4.4165084E-1,-1.7147736E-1,4.015406E-1,-5.2353454E-1,-5.200182E-2,-5.6717545E-1,-3.5931405E-1,-1.714488E-1,4.0438318E-1,-1.7036217E-1,-8.780057E-2,-1.7134173E-1,4.0383458E-1],"categories":[],"categories_nodes":[],"categories_segments":[],"categories_sizes":[],"default_left":[0,0,0,0,0,0,0,0,0,0,0,0,0,0,0,0,0,0,0,0,0,0,0,0,0,0,0,0,0,0,0],"id":7,"left_children":[1,3,5,7,9,11,13,15,17,19,-1,21,-1,-1,-1,-1,-1,-1,-1,-1,-1,23,25,27,29,-1,-1,-1,-1,-1,-1],"loss_changes":[4.4388076E3,8.293457E-1,5.1543496E3,1.0668015E1,1.9848633E-1,7.1834326E2,2.4540884E3,8.1007767E-1,1.7507725E1,5.7461365E1,0E0,2.3435327E2,0E0,0E0,0E0,0E0,0E0,0E0,0E0,0E0,0E0,2.4606201E1,1.1038474E3,3.577881E-1,2.6432037E2,0E0,0E0,0E0,0E0,0E0,0E0],"parents":[2147483647,0,0,1,1,2,2,3,3,4,4,5,5,6,6,7,7,8,8,9,9,11,11,21,21,22,22,23,23,24,24],"right_children":[2,4,6,8,10,12,14,16,18,20,-1,22,-1,-1,-1,-1,-1,-1,-1,-1,-1,24,26,28,30,-1,-1,-1,-1,-1,-1],"split_conditions":[-7.1829E-1,-4.7174212E-1,-4.7589767E-1,5.409026E-1,-4.567632E-1,-1.23281E-3,-5.2780825E-1,7.510262E-1,-4.9228147E-1,4.285274E-1,-1.713486E-1,-4.8285276E-1,4.0410712E-1,-1.7138413E-1,4.0475827E-1,-1.7060521E-1,5.2980963E-2,-1.5728436E-1,4.4165084E-1,-1.7147736E-1,4.015406E-1,-4.9044585E-1,-5.2780825E-1,-4.4492838E-1,-5.2780825E-1,-1.714488E-1,4.0438318E-1,-1.7036217E-1,-8.780057E-2,-1.7134173E-1,4.0383458E-1],"split_indices":[1,3,3,4,3,2,4,5,3,4,0,3,0,0,0,0,0,0,0,0,0,3,4,11,4,0,0,0,0,0,0],"split_type":[0,0,0,0,0,0,0,0,0,0,0,0,0,0,0,0,0,0,0,0,0,0,0,0,0,0,0,0,0,0,0],"sum_hessian":[1.8801361E4,7.9776396E3,1.0823723E4,1.8521742E2,7.7924224E3,5.228728E3,5.5949946E3,1.6864946E2,1.6567959E1,1.3705491E3,6.421873E3,4.9765923E3,2.521356E2,7.7125824E2,4.8237363E3,1.6759904E2,1.0504088E0,1.03633375E1,6.204622E0,1.3555293E3,1.5019798E1,3.4608423E3,1.5157499E3,2.7322935E3,7.28549E2,1.1059456E3,4.098043E2,2.7242932E3,8.00025E0,6.4864795E2,7.990106E1],"tree_param":{"num_deleted":"0","num_feature":"17","num_nodes":"31","size_leaf_vector":"1"}},{"base_weights":[-7.062686E-5,4.0472397E-1,-1.7159486E-1],"categories":[],"categories_nodes":[],"categories_segments":[],"categories_sizes":[],"default_left":[0,0,0],"id":8,"left_children":[1,-1,-1],"loss_changes":[1.4511158E4,0E0,0E0],"parents":[2147483647,0,0],"right_children":[2,-1,-1],"split_conditions":[-5.2780825E-1,4.0472397E-1,-1.7159486E-1],"split_indices":[4,0,0],"split_type":[0,0,0],"sum_hessian":[1.8804686E4,5.597866E3,1.3206818E4],"tree_param":{"num_deleted":"0","num_feature":"17","num_nodes":"3","size_leaf_vector":"1"}},{"base_weights":[-8.169646E-5,-1.7159466E-1,1.3437121E0,4.0470594E-1,-1.6138676E-1],"categories":[],"categories_nodes":[],"categories_segments":[],"categories_sizes":[],"default_left":[0,0,0,0,0],"id":9,"left_children":[1,-1,3,-1,-1],"loss_changes":[1.4453338E4,0E0,5.679883E1,0E0,0E0],"parents":[2147483647,0,0,2,2],"right_children":[2,-1,4,-1,-1],"split_conditions":[-1.5791629E-1,-1.7159466E-1,-1.7750423E-1,4.0470594E-1,-1.6138676E-1],"split_indices":[11,0,0,0,0],"split_type":[0,0,0,0,0],"sum_hessian":[1.8804805E4,1.3191327E4,5.6134766E3,5.597969E3,1.5507361E1],"tree_param":{"num_deleted":"0","num_feature":"17","num_nodes":"5","size_leaf_vector":"1"}},{"base_weights":[1.1286851E-5,1.331333E0,-5.707743E-1,-1.6825368E-1,4.044424E-1,-3.0216548E-1,-1.7159252E-1,-1.6852199E-1,3.5370868E-1],"categories":[],"categories_nodes":[],"categories_segments":[],"categories_sizes":[],"default_left":[0,0,0,0,0,0,0,0,0],"id":10,"left_children":[1,3,5,-1,-1,7,-1,-1,-1],"loss_changes":[1.4291002E4,1.8024121E2,4.072754E0,0E0,0E0,2.4000492E1,0E0,0E0,0E0],"parents":[2147483647,0,0,1,1,2,2,5,5],"right_children":[2,4,6,-1,-1,8,-1,-1,-1],"split_conditions":[-4.9228147E-1,-5.2780825E-1,-4.9044585E-1,-1.6825368E-1,4.044424E-1,6.577072E-1,-1.7159252E-1,-1.6852199E-1,3.5370868E-1],"split_indices":[3,4,3,0,0,5,0,0,0],"split_type":[0,0,0,0,0,0,0,0,0],"sum_hessian":[1.8804443E4,5.6424497E3,1.3161994E4,4.9395584E1,5.5930537E3,5.9700607E1,1.3102293E4,5.132655E1,8.374057E0],"tree_param":{"num_deleted":"0","num_feature":"17","num_nodes":"9","size_leaf_vector":"1"}},{"base_weights":[-7.7892735E-5,-1.7159465E-1,4.0470514E-1],"categories":[],"categories_nodes":[],"categories_segments":[],"categories_sizes":[],"default_left":[0,0,0],"id":11,"left_children":[1,-1,-1],"loss_changes":[1.4510357E4,0E0,0E0],"parents":[2147483647,0,0],"right_children":[2,-1,-1],"split_conditions":[2.067558E0,-1.7159465E-1,4.0470514E-1],"split_indices":[6,0,0],"split_type":[0,0,0],"sum_hessian":[1.8804688E4,1.3206714E4,5.597974E3],"tree_param":{"num_deleted":"0","num_feature":"17","num_nodes":"3","size_leaf_vector":"1"}},{"base_weights":[-5.1170944E-5,-4.532777E-1,2.9313836E-1,-1.6622776E-1,7.874384E-2,-1.660812E-1,2.9307005E-1],"categories":[],"categories_nodes":[],"categories_segments":[],"categories_sizes":[],"default_left":[0,0,0,0,0,0,0],"id":12,"left_children":[1,3,-1,-1,5,-1,-1],"loss_changes":[7.3419824E3,6.07468E2,0E0,0E0,1.0256978E3,0E0,0E0],"parents":[2147483647,0,0,1,1,4,4],"right_children":[2,4,-1,-1,6,-1,-1],"split_conditions":[1.885811E-1,1.6203839E0,2.9313836E-1,-1.6622776E-1,-4.5554298E-1,-1.660812E-1,2.9307005E-1],"split_indices":[2,0,0,0,3,0,0],"split_type":[0,0,0,0,0,0,0],"sum_hessian":[1.6575684E4,1.1324016E4,5.2516685E3,9.519994E3,1.8040217E3,1.0588916E3,7.451301E2],"tree_param":{"num_deleted":"0","num_feature":"17","num_nodes":"7","size_leaf_vector":"1"}},{"base_weights":[3.472244E-4,-5.4711956E-1,3.445055E-1,-4.620112E-1,-5.4910487E-1,-3.169368E-1,7.850469E-1,-5.4338E-1,2.2747537E-1,-5.3005725E-1,-1.6592458E-1,-3.8659558E-1,2.927446E-1,-1.66026E-1,2.9316485E-1,-1.6504028E-1,4.916084E-2,-1.4938858E-1,3.0538213E-1,-1.6608702E-1,2.8933468E-1,-5.20789E-1,-1.2222469E-1,-1.6522527E-1,-3.6484E-1,-1.6606316E-1,2.9299325E-1,-1.6583833E-1,2.8066412E-1],"categories":[],"categories_nodes":[],"categories_segments":[],"categories_sizes":[],"default_left":[0,0,0,0,0,0,0,0,0,0,0,0,0,0,0,0,0,0,0,0,0,0,0,0,0,0,0,0,0],"id":13,"left_children":[1,3,5,7,9,11,13,15,17,19,-1,21,-1,-1,-1,-1,-1,-1,-1,-1,-1,23,25,-1,27,-1,-1,-1,-1],"loss_changes":[3.123744E3,8.2788086E-1,2.9665388E3,8.661255E0,1.8005371E-1,3.6691077E2,1.5722197E3,7.417679E-1,1.0122438E1,3.9391174E1,0E0,1.3697876E2,0E0,0E0,0E0,0E0,0E0,0E0,0E0,0E0,0E0,1.1769897E1,6.175957E2,0E0,1.0215768E2,0E0,0E0,0E0,0E0],"parents":[2147483647,0,0,1,1,2,2,3,3,4,4,5,5,6,6,7,7,8,8,9,9,11,11,21,21,22,22,24,24],"right_children":[2,4,6,8,10,12,14,16,18,20,-1,22,-1,-1,-1,-1,-1,-1,-1,-1,-1,24,26,-1,28,-1,-1,-1,-1],"split_conditions":[-7.1829E-1,-4.7174212E-1,-4.7713196E-1,5.409026E-1,-4.567632E-1,-1.23281E-3,-5.2780825E-1,7.510262E-1,-4.9228147E-1,4.285274E-1,-1.6592458E-1,-4.846947E-1,2.927446E-1,-1.66026E-1,2.9316485E-1,-1.6504028E-1,4.916084E-2,-1.4938858E-1,3.0538213E-1,-1.6608702E-1,2.8933468E-1,-4.9228147E-1,-5.2780825E-1,-1.6522527E-1,-1.0245198E0,-1.6606316E-1,2.9299325E-1,-1.6583833E-1,2.8066412E-1],"split_indices":[1,3,3,4,3,2,4,5,3,4,0,3,0,0,0,0,0,0,0,0,0,3,4,0,9,0,0,0,0],"split_type":[0,0,0,0,0,0,0,0,0,0,0,0,0,0,0,0,0,0,0,0,0,0,0,0,0,0,0,0,0],"sum_hessian":[1.6577043E4,6.398344E3,1.01787E4,1.5117885E2,6.247165E3,4.0692637E3,6.109436E3,1.3541046E2,1.5768385E1,1.1022821E3,5.1448833E3,3.861871E3,2.0739252E2,7.667954E2,5.3426406E3,1.3434958E2,1.0608834E0,8.415358E0,7.3530273E0,1.0857904E3,1.6491709E1,2.5609663E3,1.3009049E3,2.1461116E3,4.1485477E2,9.345709E2,3.66334E2,3.6296735E2,5.1887413E1],"tree_param":{"num_deleted":"0","num_feature":"17","num_nodes":"29","size_leaf_vector":"1"}},{"base_weights":[-8.5963715E-5,2.931565E-1,-1.6622913E-1],"categories":[],"categories_nodes":[],"categories_segments":[],"categories_sizes":[],"default_left":[0,0,0],"id":14,"left_children":[1,-1,-1],"loss_changes":[8.975581E3,0E0,0E0],"parents":[2147483647,0,0],"right_children":[2,-1,-1],"split_conditions":[-5.2780825E-1,2.931565E-1,-1.6622913E-1],"split_indices":[4,0,0],"split_type":[0,0,0],"sum_hessian":[1.657583E4,5.9967725E3,1.0579057E4],"tree_param":{"num_deleted":"0","num_feature":"17","num_nodes":"3","size_leaf_vector":"1"}},{"base_weights":[-1.12479785E-4,-1.6622883E-1,9.7392875E-1,2.9313686E-1,-1.5423834E-1],"categories":[],"categories_nodes":[],"categories_segments":[],"categories_sizes":[],"default_left":[0,0,0,0,0],"id":15,"left_children":[1,-1,3,-1,-1],"loss_changes":[8.945467E3,0E0,2.9070312E1,0E0,0E0],"parents":[2147483647,0,0,2,2],"right_children":[2,-1,4,-1,-1],"split_conditions":[-1.5791629E-1,-1.6622883E-1,-1.7750423E-1,2.9313686E-1,-1.5423834E-1],"split_indices":[11,0,0,0,0],"split_type":[0,0,0,0,0],"sum_hessian":[1.657587E4,1.0566582E4,6.0092876E3,5.996759E3,1.252877E1],"tree_param":{"num_deleted":"0","num_feature":"17","num_nodes":"5","size_leaf_vector":"1"}},{"base_weights":[7.937153E-6,9.662104E-1,-5.5275077E-1,-1.6224313E-1,9.7627467E-1,-2.7347788E-1,-1.6622543E-1,2.929733E-1,-9.701944E-2,-1.6272035E-1,8.1545967E-1,8.914861E-2,2.778691E-1],"categories":[],"categories_nodes":[],"categories_segments":[],"categories_sizes":[],"default_left":[0,0,0,0,0,0,0,0,0,0,0,0,0],"id":16,"left_children":[1,3,5,-1,7,9,-1,-1,-1,-1,11,-1,-1],"loss_changes":[8.855286E3,9.204248E1,3.777832E0,0E0,2.6757812E0,1.57037525E1,0E0,0E0,0E0,0E0,3.4026432E-1,0E0,0E0],"parents":[2147483647,0,0,1,1,2,2,4,4,5,5,10,10],"right_children":[2,4,6,-1,8,10,-1,-1,-1,-1,12,-1,-1],"split_conditions":[-4.9228147E-1,-5.2780825E-1,-4.9044585E-1,-1.6224313E-1,-3.2182756E-1,6.577072E-1,-1.6622543E-1,2.929733E-1,-9.701944E-2,-1.6272035E-1,-5.882283E-1,8.914861E-2,2.778691E-1],"split_indices":[3,4,3,0,2,5,0,0,0,0,9,0,0],"split_type":[0,0,0,0,0,0,0,0,0,0,0,0,0],"sum_hessian":[1.6578547E4,6.0327563E3,1.0545791E4,3.9671135E1,5.993085E3,5.111519E1,1.0494676E4,5.991937E3,1.1480739E0,4.1394363E1,9.720825E0,2.3601806E0,7.3606443E0],"tree_param":{"num_deleted":"0","num_feature":"17","num_nodes":"13","size_leaf_vector":"1"}},{"base_weights":[-1.0557416E-4,-1.662288E-1,2.9313585E-1],"categories":[],"categories_nodes":[],"categories_segments":[],"categories_sizes":[],"default_left":[0,0,0],"id":17,"left_children":[1,-1,-1],"loss_changes":[8.974696E3,0E0,0E0],"parents":[2147483647,0,0],"right_children":[2,-1,-1],"split_conditions":[2.067558E0,-1.662288E-1,2.9313585E-1],"split_indices":[6,0,0],"split_type":[0,0,0],"sum_hessian":[1.657565E4,1.0578893E4,5.996758E3],"tree_param":{"num_deleted":"0","num_feature":"17","num_nodes":"3","size_leaf_vector":"1"}},{"base_weights":[-6.955123E-5,-4.3679935E-1,2.404116E-1,-1.6219129E-1,7.130084E-2,-1.620112E-1,2.4029286E-1],"categories":[],"categories_nodes":[],"categories_segments":[],"categories_sizes":[],"default_left":[0,0,0,0,0,0,0],"id":18,"left_children":[1,3,-1,-1,5,-1,-1],"loss_changes":[4.895471E3,4.776864E2,0E0,0E0,6.86097E2,0E0,0E0],"parents":[2147483647,0,0,1,1,4,4],"right_children":[2,4,-1,-1,6,-1,-1],"split_conditions":[1.885811E-1,1.6203839E0,2.404116E-1,-1.6219129E-1,-4.5554298E-1,-1.620112E-1,2.4029286E-1],"split_indices":[2,0,0,0,3,0,0],"split_type":[0,0,0,0,0,0,0],"sum_hessian":[1.3984525E4,9.052175E3,4.9323496E3,7.516081E3,1.536094E3,8.3596436E2,7.0012964E2],"tree_param":{"num_deleted":"0","num_feature":"17","num_nodes":"7","size_leaf_vector":"1"}},{"base_weights":[4.3472755E-4,-5.330372E-1,3.0244842E-1,-4.4143742E-1,-5.3520024E-1,-3.0788532E-1,6.524378E-1,-5.276109E-1,2.0264265E-1,-5.16086E-1,-1.6187611E-1,-3.7495273E-1,2.3997213E-1,-1.6195199E-1,2.4042107E-1,-1.6072716E-1,4.5565765E-2,-1.420778E-1,2.4062954E-1,-1.6203225E-1,2.4545006E-1,-5.160626E-1,-1.3873181E-1,-1.6091716E-1,-3.6152148E-1,-1.6200675E-1,2.402827E-1,-1.6050911E-1,2.2133608E-1],"categories":[],"categories_nodes":[],"categories_segments":[],"categories_sizes":[],"default_left":[0,0,0,0,0,0,0,0,0,0,0,0,0,0,0,0,0,0,0,0,0,0,0,0,0,0,0,0,0],"id":19,"left_children":[1,3,5,7,9,11,13,15,17,19,-1,21,-1,-1,-1,-1,-1,-1,-1,-1,-1,23,25,-1,27,-1,-1,-1,-1],"loss_changes":[2.2544734E3,7.659912E-1,1.9087426E3,6.9002724E0,1.3549805E-1,2.4227884E2,1.00902954E3,6.8047523E-1,6.527737E0,3.071341E1,0E0,1.0231705E2,0E0,0E0,0E0,0E0,0E0,0E0,0E0,0E0,0E0,5.845886E0,4.341075E2,0E0,4.3609314E1,0E0,0E0,0E0,0E0],"parents":[2147483647,0,0,1,1,2,2,3,3,4,4,5,5,6,6,7,7,8,8,9,9,11,11,21,21,22,22,24,24],"right_children":[2,4,6,8,10,12,14,16,18,20,-1,22,-1,-1,-1,-1,-1,-1,-1,-1,-1,24,26,-1,28,-1,-1,-1,-1],"split_conditions":[-7.1829E-1,-4.7174212E-1,-4.77418E-1,5.409026E-1,-4.5585346E-1,-1.23281E-3,-5.2780825E-1,7.510262E-1,-4.9228147E-1,4.285274E-1,-1.6187611E-1,-4.8610768E-1,2.3997213E-1,-1.6195199E-1,2.4042107E-1,-1.6072716E-1,4.5565765E-2,-1.420778E-1,2.4062954E-1,-1.6203225E-1,2.4545006E-1,-4.9228147E-1,-5.2780825E-1,-1.6091716E-1,-8.531274E-1,-1.6200675E-1,2.402827E-1,-1.6050911E-1,2.2133608E-1],"split_indices":[1,3,3,4,3,2,4,5,3,4,0,3,0,0,0,0,0,0,0,0,0,3,4,0,10,0,0,0,0],"split_type":[0,0,0,0,0,0,0,0,0,0,0,0,0,0,0,0,0,0,0,0,0,0,0,0,0,0,0,0,0],"sum_hessian":[1.3990872E4,5.0571836E3,8.933688E3,1.2139706E2,4.9357866E3,3.255923E3,5.6777656E3,1.072311E2,1.4165948E1,9.434857E2,3.9923008E3,3.070681E3,1.8524211E2,6.303119E2,5.047454E3,1.061698E2,1.0613087E0,6.7553363E0,7.410611E0,9.273845E2,1.610116E1,1.921601E3,1.14908E3,1.696038E3,2.2556305E2,8.055098E2,3.4357013E2,1.9525792E2,3.0305143E1],"tree_param":{"num_deleted":"0","num_feature":"17","num_nodes":"29","size_leaf_vector":"1"}},{"base_weights":[-1.06605396E-4,2.4042448E-1,-1.621928E-1],"categories":[],"categories_nodes":[],"categories_segments":[],"categories_sizes":[],"default_left":[0,0,0],"id":20,"left_children":[1,-1,-1],"loss_changes":[6.0596104E3,0E0,0E0],"parents":[2147483647,0,0],"right_children":[2,-1,-1],"split_conditions":[-5.2780825E-1,2.4042448E-1,-1.621928E-1],"split_indices":[4,0,0],"split_type":[0,0,0],"sum_hessian":[1.3984365E4,5.632242E3,8.352124E3],"tree_param":{"num_deleted":"0","num_feature":"17","num_nodes":"3","size_leaf_vector":"1"}},{"base_weights":[-1.4197707E-4,-1.621926E-1,7.989899E-1,2.4041109E-1,-1.4780602E-1],"categories":[],"categories_nodes":[],"categories_segments":[],"categories_sizes":[],"default_left":[0,0,0,0,0],"id":21,"left_children":[1,-1,3,-1,-1],"loss_changes":[6.0411167E3,0E0,1.7745361E1,0E0,0E0],"parents":[2147483647,0,0,2,2],"right_children":[2,-1,4,-1,-1],"split_conditions":[-1.5791629E-1,-1.621926E-1,-1.7750423E-1,2.4041109E-1,-1.4780602E-1],"split_indices":[11,0,0,0,0],"split_type":[0,0,0,0,0],"sum_hessian":[1.398431E4,8.342267E3,5.642043E3,5.6320435E3,9.999523E0],"tree_param":{"num_deleted":"0","num_feature":"17","num_nodes":"5","size_leaf_vector":"1"}},{"base_weights":[1.5578784E-5,7.929323E-1,-5.3910613E-1,-1.5731768E-1,2.4011315E-1,-2.3981625E-1,-1.6218862E-1,-1.579532E-1,6.66167E-1,2.5680706E-1,2.4756767E-1,2.1328267E-1,-5.65995E-2],"categories":[],"categories_nodes":[],"categories_segments":[],"categories_sizes":[],"default_left":[0,0,0,0,0,0,0,0,0,0,0,0,0],"id":22,"left_children":[1,3,5,-1,-1,7,-1,-1,9,11,-1,-1,-1],"loss_changes":[5.9812734E3,5.595874E1,3.6660156E0,0E0,0E0,1.1767734E1,0E0,0E0,5.0479174E-1,1.0509647E0,0E0,0E0,0E0],"parents":[2147483647,0,0,1,1,2,2,5,5,8,8,9,9],"right_children":[2,4,6,-1,-1,8,-1,-1,10,12,-1,-1,-1],"split_conditions":[-4.9228147E-1,-5.2780825E-1,-4.9044585E-1,-1.5731768E-1,2.4011315E-1,6.577072E-1,-1.6218862E-1,-1.579532E-1,-3.9738703E-1,-4.0265742E-1,2.4756767E-1,2.1328267E-1,-5.65995E-2],"split_indices":[3,4,3,0,0,5,0,0,12,2,0,0,0],"split_type":[0,0,0,0,0,0,0,0,0,0,0,0,0],"sum_hessian":[1.3989984E4,5.6620366E3,8.327947E3,3.1429005E1,5.630608E3,4.2955395E1,8.284992E3,3.2947994E1,1.0007398E1,3.5319533E0,6.475444E0,1.4538748E0,2.0780783E0],"tree_param":{"num_deleted":"0","num_feature":"17","num_nodes":"13","size_leaf_vector":"1"}},{"base_weights":[-1.3227935E-4,-1.6219254E-1,2.4040994E-1],"categories":[],"categories_nodes":[],"categories_segments":[],"categories_sizes":[],"default_left":[0,0,0],"id":23,"left_children":[1,-1,-1],"loss_changes":[6.058983E3,0E0,0E0],"parents":[2147483647,0,0],"right_children":[2,-1,-1],"split_conditions":[2.067558E0,-1.6219254E-1,2.4040994E-1],"split_indices":[6,0,0],"split_type":[0,0,0],"sum_hessian":[1.3984001E4,8.351976E3,5.6320254E3],"tree_param":{"num_deleted":"0","num_feature":"17","num_nodes":"3","size_leaf_vector":"1"}},{"base_weights":[-9.6457916E-5,-4.2457086E-1,2.1043576E-1,-1.591298E-1,6.6343665E-2,-1.5890369E-1,2.1026497E-1],"categories":[],"categories_nodes":[],"categories_segments":[],"categories_sizes":[],"default_left":[0,0,0,0,0,0,0],"id":24,"left_children":[1,3,-1,-1,5,-1,-1],"loss_changes":[3.400894E3,3.6981152E2,0E0,0E0,4.7806418E2,0E0,0E0],"parents":[2147483647,0,0,1,1,4,4],"right_children":[2,4,-1,-1,6,-1,-1],"split_conditions":[1.885811E-1,1.6203839E0,2.1043576E-1,-1.591298E-1,-4.5554298E-1,-1.5890369E-1,2.1026497E-1],"split_indices":[2,0,0,0,3,0,0],"split_type":[0,0,0,0,0,0,0],"sum_hessian":[1.141846E4,7.114316E3,4.3041445E3,5.8522456E3,1.26207E3,6.508717E2,6.111982E2],"tree_param":{"num_deleted":"0","num_feature":"17","num_nodes":"7","size_leaf_vector":"1"}},{"base_weights":[5.437657E-4,-5.2221775E-1,2.7577165E-1,-4.2451835E-1,-5.2454644E-1,-3.0259517E-1,5.7422495E-1,-5.143918E-1,1.8459131E-1,-2.857025E-1,-5.248146E-1,-3.6668348E-1,2.0989431E-1,-1.5883994E-1,2.1043827E-1,-1.5728652E-1,4.2262472E-2,-1.3489972E-1,2.0278597E-1,-1.299096E-1,7.2191834E-2,-5.059546E-1,-1.5872529E-1,-5.071079E-1,-1.4202146E-1,-1.5892777E-1,2.1187483E-1,-5.2495855E-1,-3.486786E-1,-1.588993E-1,2.1016955E-1,-1.5770793E-1,-9.024759E-2,-1.5800683E-1,1.7279896E-1],"categories":[],"categories_nodes":[],"categories_segments":[],"categories_sizes":[],"default_left":[0,0,0,0,0,0,0,0,0,0,0,0,0,0,0,0,0,0,0,0,0,0,0,0,0,0,0,0,0,0,0,0,0,0,0],"id":25,"left_children":[1,3,5,7,9,11,13,15,17,19,21,23,-1,-1,-1,-1,-1,-1,-1,-1,-1,25,-1,27,29,-1,-1,31,33,-1,-1,-1,-1,-1,-1],"loss_changes":[1.6446824E3,6.743164E-1,1.2927977E3,5.40658E0,9.643555E-2,1.6402174E2,6.9407336E2,6.238899E-1,4.421353E0,6.0897374E-1,4.1625977E-2,7.554895E1,0E0,0E0,0E0,0E0,0E0,0E0,0E0,0E0,0E0,2.1494415E1,0E0,3.9873657E0,3.0196097E2,0E0,0E0,5.97229E-2,2.5373232E1,0E0,0E0,0E0,0E0,0E0,0E0],"parents":[2147483647,0,0,1,1,2,2,3,3,4,4,5,5,6,6,7,7,8,8,9,9,10,10,11,11,21,21,23,23,24,24,27,27,28,28],"right_children":[2,4,6,8,10,12,14,16,18,20,22,24,-1,-1,-1,-1,-1,-1,-1,-1,-1,26,-1,28,30,-1,-1,32,34,-1,-1,-1,-1,-1,-1],"split_conditions":[-7.1829E-1,-4.7174212E-1,-4.777083E-1,5.409026E-1,-4.4676262E-1,-1.23281E-3,-5.2780825E-1,7.510262E-1,-4.9228147E-1,-3.191115E-1,-4.5585346E-1,-4.8669878E-1,2.0989431E-1,-1.5883994E-1,2.1043827E-1,-1.5728652E-1,4.2262472E-2,-1.3489972E-1,2.0278597E-1,-1.299096E-1,7.2191834E-2,4.285274E-1,-1.5872529E-1,-4.9228147E-1,-5.2780825E-1,-1.5892777E-1,2.1187483E-1,1.6695782E0,-5.286523E-1,-1.588993E-1,2.1016955E-1,-1.5770793E-1,-9.024759E-2,-1.5800683E-1,1.7279896E-1],"split_indices":[1,3,3,4,11,2,4,5,3,4,3,3,0,0,0,0,0,0,0,0,0,4,0,3,4,0,0,9,15,0,0,0,0,0,0],"split_type":[0,0,0,0,0,0,0,0,0,0,0,0,0,0,0,0,0,0,0,0,0,0,0,0,0,0,0,0,0,0,0,0,0,0,0],"sum_hessian":[1.1429047E4,3.941588E3,7.4874585E3,9.602879E1,3.845559E3,2.5485874E3,4.938871E3,8.381717E1,1.2211628E1,5.509315E0,3.8400498E3,2.396009E3,1.5257838E2,5.10184E2,4.4286875E3,8.276701E1,1.0501578E0,5.367736E0,6.843892E0,4.442958E0,1.0663574E0,7.309189E2,3.1091309E3,1.4736503E3,9.2235864E2,7.173941E2,1.3524818E1,1.3223445E3,1.5130579E2,6.319796E2,2.9037903E2,1.3166844E3,5.6600676E0,1.2724084E2,2.4064947E1],"tree_param":{"num_deleted":"0","num_feature":"17","num_nodes":"35","size_leaf_vector":"1"}},{"base_weights":[-1.270138E-4,2.104489E-1,-1.591316E-1],"categories":[],"categories_nodes":[],"categories_segments":[],"categories_sizes":[],"default_left":[0,0,0],"id":26,"left_children":[1,-1,-1],"loss_changes":[4.2492036E3,0E0,0E0],"parents":[2147483647,0,0],"right_children":[2,-1,-1],"split_conditions":[-5.2780825E-1,2.104489E-1,-1.591316E-1],"split_indices":[4,0,0],"split_type":[0,0,0],"sum_hessian":[1.1418165E4,4.9150444E3,6.503121E3],"tree_param":{"num_deleted":"0","num_feature":"17","num_nodes":"3","size_leaf_vector":"1"}},{"base_weights":[-1.8076062E-4,-1.5913141E-1,6.994775E-1,2.104364E-1,-1.4162557E-1],"categories":[],"categories_nodes":[],"categories_segments":[],"categories_sizes":[],"default_left":[0,0,0,0,0],"id":27,"left_children":[1,-1,3,-1,-1],"loss_changes":[4.236786E3,0E0,1.1735596E1,0E0,0E0],"parents":[2147483647,0,0,2,2],"right_children":[2,-1,4,-1,-1],"split_conditions":[-1.5791629E-1,-1.5913141E-1,-1.7750423E-1,2.104364E-1,-1.4162557E-1],"split_indices":[11,0,0,0,0],"split_type":[0,0,0,0,0],"sum_hessian":[1.1417943E4,6.4954277E3,4.922515E3,4.9146226E3,7.892567E0],"tree_param":{"num_deleted":"0","num_feature":"17","num_nodes":"5","size_leaf_vector":"1"}},{"base_weights":[2.736155E-5,6.940609E-1,-5.286845E-1,-1.530531E-1,7.001846E-1,-2.0781235E-1,-1.5912686E-1,2.1014021E-1,-9.2393056E-2,-1.5384373E-1,5.785235E-1,4.785006E-2,2.0340762E-1],"categories":[],"categories_nodes":[],"categories_segments":[],"categories_sizes":[],"default_left":[0,0,0,0,0,0,0,0,0,0,0,0,0],"id":28,"left_children":[1,3,5,-1,7,9,-1,-1,-1,-1,11,-1,-1],"loss_changes":[4.193632E3,3.679883E1,3.5083008E0,0E0,1.6171875E0,9.074088E0,0E0,0E0,0E0,0E0,3.3789778E-1,0E0,0E0],"parents":[2147483647,0,0,1,1,2,2,4,4,5,5,10,10],"right_children":[2,4,6,-1,8,10,-1,-1,-1,-1,12,-1,-1],"split_conditions":[-4.9228147E-1,-5.2780825E-1,-4.9044585E-1,-1.530531E-1,-3.2182756E-1,6.577072E-1,-1.5912686E-1,2.1014021E-1,-9.2393056E-2,-1.5384373E-1,-5.882283E-1,4.785006E-2,2.0340762E-1],"split_indices":[3,4,3,0,2,5,0,0,0,0,9,0,0],"split_type":[0,0,0,0,0,0,0,0,0,0,0,0,0],"sum_hessian":[1.1426541E4,4.9406704E3,6.48587E3,2.458023E1,4.9160903E3,3.5598103E1,6.450272E3,4.915017E3,1.0731237E0,2.5899988E1,9.698114E0,2.3605068E0,7.3376074E0],"tree_param":{"num_deleted":"0","num_feature":"17","num_nodes":"13","size_leaf_vector":"1"}},{"base_weights":[-1.6746546E-4,-1.591314E-1,2.1043544E-1],"categories":[],"categories_nodes":[],"categories_segments":[],"categories_sizes":[],"default_left":[0,0,0],"id":29,"left_children":[1,-1,-1],"loss_changes":[4.2486265E3,0E0,0E0],"parents":[2147483647,0,0],"right_children":[2,-1,-1],"split_conditions":[2.067558E0,-1.591314E-1,2.1043544E-1],"split_indices":[6,0,0],"split_type":[0,0,0],"sum_hessian":[1.1417573E4,6.502984E3,4.91459E3],"tree_param":{"num_deleted":"0","num_feature":"17","num_nodes":"3","size_leaf_vector":"1"}},{"base_weights":[-1.2761579E-4,-1.5681396E-1,5.124838E-1,-1.5652557E-1,1.9176598E-1],"categories":[],"categories_nodes":[],"categories_segments":[],"categories_sizes":[],"default_left":[0,0,0,0,0],"id":30,"left_children":[1,-1,3,-1,-1],"loss_changes":[2.437408E3,0E0,6.023895E2,0E0,0E0],"parents":[2147483647,0,0,2,2],"right_children":[2,-1,4,-1,-1],"split_conditions":[1.6203839E0,-1.5681396E-1,-4.5554298E-1,-1.5652557E-1,1.9176598E-1],"split_indices":[0,0,3,0,0],"split_type":[0,0,0,0,0],"sum_hessian":[9.096768E3,4.5045503E3,4.5922173E3,5.0096375E2,4.0912537E3],"tree_param":{"num_deleted":"0","num_feature":"17","num_nodes":"5","size_leaf_vector":"1"}},{"base_weights":[6.706237E-4,-5.138082E-1,2.5795603E-1,-4.1010553E-1,-5.1629657E-1,-2.9255733E-1,5.272993E-1,-1.5441178E-1,1.1608132E-1,-2.6036906E-1,-1.5497898E-1,-3.561989E-1,1.9101489E-1,-1.5644261E-1,1.9174562E-1,-1.3555163E-1,1.8859923E-1,-1.21901E-1,5.689639E-2,-4.9650106E-1,-1.3627641E-1,-5.1558155E-1,-3.3159825E-1,-1.5651841E-1,1.9130038E-1,-1.5495747E-1,-7.625984E-2,-1.5383564E-1,1.5180156E-1],"categories":[],"categories_nodes":[],"categories_segments":[],"categories_sizes":[],"default_left":[0,0,0,0,0,0,0,0,0,0,0,0,0,0,0,0,0,0,0,0,0,0,0,0,0,0,0,0,0],"id":31,"left_children":[1,3,5,7,9,11,13,-1,15,17,-1,19,-1,-1,-1,-1,-1,-1,-1,21,23,25,27,-1,-1,-1,-1,-1,-1],"loss_changes":[1.2062573E3,5.722656E-1,9.009245E2,4.245611E0,9.289551E-2,1.1829494E2,4.7889392E2,0E0,4.192835E0,4.3736815E-1,0E0,5.7604004E1,0E0,0E0,0E0,0E0,0E0,0E0,0E0,3.4182434E0,2.1791353E2,1.2036133E-1,1.8638626E1,0E0,0E0,0E0,0E0,0E0,0E0],"parents":[2147483647,0,0,1,1,2,2,3,3,4,4,5,5,6,6,8,8,9,9,11,11,19,19,20,20,21,21,22,22],"right_children":[2,4,6,8,10,12,14,-1,16,18,-1,20,-1,-1,-1,-1,-1,-1,-1,22,24,26,28,-1,-1,-1,-1,-1,-1],"split_conditions":[-7.1829E-1,-4.7174212E-1,-4.777083E-1,4.6522135E-1,-4.4676262E-1,-1.23281E-3,-5.2780825E-1,-1.5441178E-1,-4.9228147E-1,-1.2885537E0,-1.5497898E-1,-4.8669878E-1,1.9101489E-1,-1.5644261E-1,1.9174562E-1,-1.3555163E-1,1.8859923E-1,-1.21901E-1,5.689639E-2,-4.9228147E-1,-5.2780825E-1,1.6695782E0,-8.531274E-1,-1.5651841E-1,1.9130038E-1,-1.5495747E-1,-7.625984E-2,-1.5383564E-1,1.5180156E-1],"split_indices":[1,3,3,4,11,2,4,0,3,5,0,3,0,0,0,0,0,0,0,3,4,9,10,0,0,0,0,0,0],"split_type":[0,0,0,0,0,0,0,0,0,0,0,0,0,0,0,0,0,0,0,0,0,0,0,0,0,0,0,0,0],"sum_hessian":[9.110915E3,3.0370012E3,6.073913E3,7.505219E1,2.9619492E3,1.9954028E3,4.0785105E3,6.2624855E1,1.24273405E1,4.485017E0,2.957464E3,1.8680833E3,1.27319534E2,3.9270407E2,3.6858064E3,5.951659E0,6.4756813E0,3.4598675E0,1.0251492E0,1.1397249E3,7.283585E2,1.0196205E3,1.2010431E2,4.864267E2,2.4193181E2,1.01498126E3,4.6392E0,9.906314E1,2.1041166E1],"tree_param":{"num_deleted":"0","num_feature":"17","num_nodes":"29","size_leaf_vector":"1"}},{"base_weights":[-1.5420018E-4,1.9176036E-1,-1.5681624E-1],"categories":[],"categories_nodes":[],"categories_segments":[],"categories_sizes":[],"default_left":[0,0,0],"id":32,"left_children":[1,-1,-1],"loss_changes":[3.039821E3,0E0,0E0],"parents":[2147483647,0,0],"right_children":[2,-1,-1],"split_conditions":[-5.2780825E-1,1.9176036E-1,-1.5681624E-1],"split_indices":[4,0,0],"split_type":[0,0,0],"sum_hessian":[9.096379E3,4.0909353E3,5.005444E3],"tree_param":{"num_deleted":"0","num_feature":"17","num_nodes":"3","size_leaf_vector":"1"}},{"base_weights":[-2.2579734E-4,-1.568161E-1,6.374113E-1,1.9174972E-1,-1.3536993E-1],"categories":[],"categories_nodes":[],"categories_segments":[],"categories_sizes":[],"default_left":[0,0,0,0,0],"id":33,"left_children":[1,-1,3,-1,-1],"loss_changes":[3.0311248E3,0E0,8.11438E0,0E0,0E0],"parents":[2147483647,0,0,2,2],"right_children":[2,-1,4,-1,-1],"split_conditions":[-1.5791629E-1,-1.568161E-1,-1.7750423E-1,1.9174972E-1,-1.3536993E-1],"split_indices":[11,0,0,0,0],"split_type":[0,0,0,0,0],"sum_hessian":[9.096055E3,4.999516E3,4.0965386E3,4.0903594E3,6.1789093E0],"tree_param":{"num_deleted":"0","num_feature":"17","num_nodes":"5","size_leaf_vector":"1"}},{"base_weights":[3.8196427E-5,6.322028E-1,-5.206758E-1,-1.4913934E-1,1.9127144E-1,-1.7414144E-1,-1.568112E-1,-1.5010169E-1,5.0665313E-1,1.7012687E-1,1.9664334E-1,1.6761847E-1,-6.05491E-2],"categories":[],"categories_nodes":[],"categories_segments":[],"categories_sizes":[],"default_left":[0,0,0,0,0,0,0,0,0,0,0,0,0],"id":34,"left_children":[1,3,5,-1,-1,7,-1,-1,9,11,-1,-1,-1],"loss_changes":[2.9984917E3,2.5261597E1,3.4194336E0,0E0,0E0,7.0407114E0,0E0,0E0,4.092121E-1,7.68798E-1,0E0,0E0,0E0],"parents":[2147483647,0,0,1,1,2,2,5,5,8,8,9,9],"right_children":[2,4,6,-1,-1,8,-1,-1,10,12,-1,-1,-1],"split_conditions":[-4.9228147E-1,-5.2780825E-1,-4.9044585E-1,-1.4913934E-1,1.9127144E-1,6.577072E-1,-1.568112E-1,-1.5010169E-1,-3.9738703E-1,-4.0265742E-1,1.9664334E-1,1.6761847E-1,-6.05491E-2],"split_indices":[3,4,3,0,0,5,0,0,12,2,0,0,0],"split_type":[0,0,0,0,0,0,0,0,0,0,0,0,0],"sum_hessian":[9.107057E3,4.113235E3,4.993822E3,1.9027681E1,4.094207E3,2.9562908E1,4.9642593E3,2.0165722E1,9.397187E0,3.538645E0,5.858542E0,1.4850315E0,2.0536134E0],"tree_param":{"num_deleted":"0","num_feature":"17","num_nodes":"13","size_leaf_vector":"1"}},{"base_weights":[-2.0225493E-4,-1.568161E-1,1.9175003E-1],"categories":[],"categories_nodes":[],"categories_segments":[],"categories_sizes":[],"default_left":[0,0,0],"id":35,"left_children":[1,-1,-1],"loss_changes":[3.0393796E3,0E0,0E0],"parents":[2147483647,0,0],"right_children":[2,-1,-1],"split_conditions":[2.067558E0,-1.568161E-1,1.9175003E-1],"split_indices":[6,0,0],"split_type":[0,0,0],"sum_hessian":[9.09571E3,5.005333E3,4.0903767E3],"tree_param":{"num_deleted":"0","num_feature":"17","num_nodes":"3","size_leaf_vector":"1"}},{"base_weights":[-1.6502869E-4,-1.5507016E-1,4.8243964E-1,-1.5469563E-1,1.794641E-1],"categories":[],"categories_nodes":[],"categories_segments":[],"categories_sizes":[],"default_left":[0,0,0,0,0],"id":36,"left_children":[1,-1,3,-1,-1],"loss_changes":[1.7750713E3,0E0,4.2560577E2,0E0,0E0],"parents":[2147483647,0,0,2,2],"right_children":[2,-1,4,-1,-1],"split_conditions":[1.6203839E0,-1.5507016E-1,-4.5554298E-1,-1.5469563E-1,1.794641E-1],"split_indices":[0,0,3,0,0],"split_type":[0,0,0,0,0],"sum_hessian":[7.1159688E3,3.436433E3,3.6795356E3,3.8208804E2,3.2974475E3],"tree_param":{"num_deleted":"0","num_feature":"17","num_nodes":"5","size_leaf_vector":"1"}},{"base_weights":[8.758337E-4,-5.0604093E-1,2.4567293E-1,-3.9834887E-1,-5.086222E-1,-2.9846E-1,4.8974618E-1,-1.5196595E-1,1.109884E-1,-4.8558939E-1,-1.546832E-1,-3.5925078E-1,1.783762E-1,-1.5462431E-1,1.7943802E-1,-1.2869167E-1,1.687523E-1,-1.5482108E-1,7.292914E-1,-5.0753284E-1,-1.7116486E-1,1.7964438E-1,3.3302787E-1,-5.0875974E-1,-2.0450039E-1,-1.5474567E-1,5.782885E-1,-1.5410873E-1,-1.2756732E-1,6.8836585E-2,-1.14819266E-1,2.6052568E-2,1.7910099E-1],"categories":[],"categories_nodes":[],"categories_segments":[],"categories_sizes":[],"default_left":[0,0,0,0,0,0,0,0,0,0,0,0,0,0,0,0,0,0,0,0,0,0,0,0,0,0,0,0,0,0,0,0,0],"id":37,"left_children":[1,3,5,7,9,11,13,-1,15,17,-1,19,-1,-1,-1,-1,-1,-1,21,23,25,-1,-1,27,29,-1,31,-1,-1,-1,-1,-1,-1],"loss_changes":[8.8582544E2,4.4354248E-1,6.394603E2,3.309414E0,1.1450195E-1,8.117212E1,3.6237665E2,0E0,2.962887E0,2.0550812E1,0E0,3.8870438E1,0E0,0E0,0E0,0E0,0E0,0E0,1.8378258E-2,1.8615723E-1,1.5974258E2,0E0,0E0,1.018219E-1,4.6058488E-1,0E0,1.7408981E0,0E0,0E0,0E0,0E0,0E0,0E0],"parents":[2147483647,0,0,1,1,2,2,3,3,4,4,5,5,6,6,8,8,9,9,11,11,18,18,19,19,20,20,23,23,24,24,26,26],"right_children":[2,4,6,8,10,12,14,-1,16,18,-1,20,-1,-1,-1,-1,-1,-1,22,24,26,-1,-1,28,30,-1,32,-1,-1,-1,-1,-1,-1],"split_conditions":[-7.1829E-1,-4.7174212E-1,-4.7821563E-1,4.6522135E-1,-4.5259905E-1,-1.23281E-3,-5.2780825E-1,-1.5196595E-1,-4.9228147E-1,4.285274E-1,-1.546832E-1,-4.9228147E-1,1.783762E-1,-1.5462431E-1,1.7943802E-1,-1.2869167E-1,1.687523E-1,-1.5482108E-1,-4.573098E-1,1.6695782E0,-5.2780825E-1,1.7964438E-1,3.3302787E-1,-4.9403712E-1,5.3341616E-2,-1.5474567E-1,-4.9044585E-1,-1.5410873E-1,-1.2756732E-1,6.8836585E-2,-1.14819266E-1,2.6052568E-2,1.7910099E-1],"split_indices":[1,3,3,4,3,2,4,0,3,4,0,3,0,0,0,0,0,0,3,9,4,0,0,3,1,0,3,0,0,0,0,0,0],"split_type":[0,0,0,0,0,0,0,0,0,0,0,0,0,0,0,0,0,0,0,0,0,0,0,0,0,0,0,0,0,0,0,0,0],"sum_hessian":[7.1364697E3,2.3236577E3,4.812812E3,5.8028267E1,2.2656294E3,1.49025E3,3.322562E3,4.7865192E1,1.01630745E1,5.4380414E2,1.7218254E3,1.3958318E3,9.441814E1,3.2301825E2,2.9995437E3,4.6509976E0,5.512077E0,5.3105536E2,1.2748753E1,7.795536E2,6.1627826E2,1.1411319E1,1.3374335E0,7.75734E2,3.8195672E0,4.223584E2,1.9391986E2,7.275917E2,4.8142353E1,1.0283451E0,2.7912223E0,7.3206778E0,1.8659918E2],"tree_param":{"num_deleted":"0","num_feature":"17","num_nodes":"33","size_leaf_vector":"1"}},{"base_weights":[-2.237929E-4,1.7945488E-1,-1.550729E-1],"categories":[],"categories_nodes":[],"categories_segments":[],"categories_sizes":[],"default_left":[0,0,0],"id":38,"left_children":[1,-1,-1],"loss_changes":[2.2005183E3,0E0,0E0],"parents":[2147483647,0,0],"right_children":[2,-1,-1],"split_conditions":[-5.2780825E-1,1.7945488E-1,-1.550729E-1],"split_indices":[4,0,0],"split_type":[0,0,0],"sum_hessian":[7.1150806E3,3.2967488E3,3.8183318E3],"tree_param":{"num_deleted":"0","num_feature":"17","num_nodes":"3","size_leaf_vector":"1"}},{"base_weights":[-2.667791E-4,-1.5507281E-1,5.9654695E-1,1.7945229E-1,-1.2878543E-1],"categories":[],"categories_nodes":[],"categories_segments":[],"categories_sizes":[],"default_left":[0,0,0,0,0],"id":39,"left_children":[1,-1,3,-1,-1],"loss_changes":[2.194517E3,0E0,5.7697754E0,0E0,0E0],"parents":[2147483647,0,0,2,2],"right_children":[2,-1,4,-1,-1],"split_conditions":[-1.5791629E-1,-1.5507281E-1,-1.7750423E-1,1.7945229E-1,-1.2878543E-1],"split_indices":[11,0,0,0,0],"split_type":[0,0,0,0,0],"sum_hessian":[7.115214E3,3.8138337E3,3.3013804E3,3.2965676E3,4.8127275E0],"tree_param":{"num_deleted":"0","num_feature":"17","num_nodes":"5","size_leaf_vector":"1"}},{"base_weights":[4.4352564E-6,5.911397E-1,-5.145244E-1,-1.4530385E-1,1.7881389E-1,-1.405976E-1,-1.5506753E-1,-1.4645767E-1,4.643959E-1,2.3868568E-2,1.6990533E-1],"categories":[],"categories_nodes":[],"categories_segments":[],"categories_sizes":[],"default_left":[0,0,0,0,0,0,0,0,0,0,0],"id":40,"left_children":[1,3,5,-1,-1,7,-1,-1,9,-1,-1],"loss_changes":[2.1684836E3,1.7796387E1,3.3015747E0,0E0,0E0,5.5585375E0,0E0,0E0,3.3804488E-1,0E0,0E0],"parents":[2147483647,0,0,1,1,2,2,5,5,8,8],"right_children":[2,4,6,-1,-1,8,-1,-1,10,-1,-1],"split_conditions":[-4.9228147E-1,-5.2780825E-1,-4.9044585E-1,-1.4530385E-1,1.7881389E-1,6.577072E-1,-1.5506753E-1,-1.4645767E-1,-5.882283E-1,2.3868568E-2,1.6990533E-1],"split_indices":[3,4,3,0,0,5,0,0,9,0,0],"split_type":[0,0,0,0,0,0,0,0,0,0,0],"sum_hessian":[7.1275083E3,3.3167686E3,3.8107397E3,1.4619301E1,3.3021494E3,2.4354322E1,3.7863853E3,1.5590167E1,8.764155E0,2.208488E0,6.555667E0],"tree_param":{"num_deleted":"0","num_feature":"17","num_nodes":"11","size_leaf_vector":"1"}},{"base_weights":[-2.2731087E-4,-1.5507284E-1,1.7945379E-1],"categories":[],"categories_nodes":[],"categories_segments":[],"categories_sizes":[],"default_left":[0,0,0],"id":41,"left_children":[1,-1,-1],"loss_changes":[2.2004612E3,0E0,0E0],"parents":[2147483647,0,0],"right_children":[2,-1,-1],"split_conditions":[2.067558E0,-1.5507284E-1,1.7945379E-1],"split_indices":[6,0,0],"split_type":[0,0,0],"sum_hessian":[7.1149507E3,3.8182744E3,3.296676E3],"tree_param":{"num_deleted":"0","num_feature":"17","num_nodes":"3","size_leaf_vector":"1"}},{"base_weights":[-2.3436538E-4,-1.5375587E-1,4.6168637E-1,-1.5326881E-1,1.7106204E-1],"categories":[],"categories_nodes":[],"categories_segments":[],"categories_sizes":[],"default_left":[0,0,0,0,0],"id":42,"left_children":[1,-1,3,-1,-1],"loss_changes":[1.2994602E3,0E0,3.050686E2,0E0,0E0],"parents":[2147483647,0,0,2,2],"right_children":[2,-1,4,-1,-1],"split_conditions":[1.6203839E0,-1.5375587E-1,-4.5554298E-1,-1.5326881E-1,1.7106204E-1],"split_indices":[0,0,3,0,0],"split_type":[0,0,0,0,0],"sum_hessian":[5.4894077E3,2.6027563E3,2.8866511E3,2.89388E2,2.5972632E3],"tree_param":{"num_deleted":"0","num_feature":"17","num_nodes":"5","size_leaf_vector":"1"}},{"base_weights":[1.127542E-3,-5.0069696E-1,2.3707004E-1,-3.878248E-1,-5.033977E-1,-3.0568337E-1,4.62557E-1,-1.4972024E-1,1.0595317E-1,-4.8144644E-1,-1.5352234E-1,-3.6145085E-1,1.6953067E-1,-1.5321833E-1,1.7104052E-1,-1.21396415E-1,1.5321425E-1,-5.101259E-1,-9.047735E-2,-5.0016767E-1,-1.7484567E-1,-1.5346858E-1,-1.5544324E-1,7.914104E-1,-1.4752407E-1,-5.017752E-1,-1.5231824E-1,-1.5329862E-1,5.43531E-1,1.994307E-2,-8.5620314E-2,1.6303045E-1,4.0465203E-1,-1.5247275E-1,-1.1871431E-1,6.985835E-2,-1.0544399E-1,2.377872E-2,1.7028919E-1],"categories":[],"categories_nodes":[],"categories_segments":[],"categories_sizes":[],"default_left":[0,0,0,0,0,0,0,0,0,0,0,0,0,0,0,0,0,0,0,0,0,0,0,0,0,0,0,0,0,0,0,0,0,0,0,0,0,0,0],"id":43,"left_children":[1,3,5,7,9,11,13,-1,15,17,-1,19,-1,-1,-1,-1,-1,21,23,25,27,-1,29,31,-1,33,35,-1,37,-1,-1,-1,-1,-1,-1,-1,-1,-1,-1],"loss_changes":[6.526685E2,3.4213257E-1,4.5901273E2,2.5549817E0,6.8359375E-2,5.367559E1,2.7768787E2,0E0,2.1081142E0,5.4495697E0,0E0,2.6715256E1,0E0,0E0,0E0,0E0,0E0,1.5296173E-1,1.2672846E1,2.5538635E-1,1.0726595E2,0E0,1.1348267E-1,8.204603E-1,0E0,2.0375061E-1,4.0139636E-1,0E0,1.5406075E0,0E0,0E0,0E0,0E0,0E0,0E0,0E0,0E0,0E0,0E0],"parents":[2147483647,0,0,1,1,2,2,3,3,4,4,5,5,6,6,8,8,9,9,11,11,17,17,18,18,19,19,20,20,22,22,23,23,25,25,26,26,28,28],"right_children":[2,4,6,8,10,12,14,-1,16,18,-1,20,-1,-1,-1,-1,-1,22,24,26,28,-1,30,32,-1,34,36,-1,38,-1,-1,-1,-1,-1,-1,-1,-1,-1,-1],"split_conditions":[-7.1829E-1,-4.7174212E-1,-4.787177E-1,4.6522135E-1,-4.0051648E-1,-1.23281E-3,-5.2780825E-1,-1.4972024E-1,-4.9228147E-1,5.179689E-1,-1.5352234E-1,-4.9228147E-1,1.6953067E-1,-1.5321833E-1,1.7104052E-1,-1.21396415E-1,1.5321425E-1,6.935417E-1,1.6203839E0,1.6695782E0,-5.2780825E-1,-1.5346858E-1,-3.6151788E-1,-4.567632E-1,-1.4752407E-1,-4.9403712E-1,1.6406712E-1,-1.5329862E-1,-4.9044585E-1,1.994307E-2,-8.5620314E-2,1.6303045E-1,4.0465203E-1,-1.5247275E-1,-1.1871431E-1,6.985835E-2,-1.0544399E-1,2.377872E-2,1.7028919E-1],"split_indices":[1,3,3,4,11,2,4,0,3,4,0,3,0,0,0,0,0,5,0,9,4,0,3,3,0,3,1,0,3,0,0,0,0,0,0,0,0,0,0],"split_type":[0,0,0,0,0,0,0,0,0,0,0,0,0,0,0,0,0,0,0,0,0,0,0,0,0,0,0,0,0,0,0,0,0,0,0,0,0,0,0],"sum_hessian":[5.5103203E3,1.761876E3,3.7484443E3,4.4551476E1,1.7173246E3,1.100105E3,2.6483394E3,3.635124E1,8.200237E0,4.8913177E2,1.2281927E3,1.0344415E3,6.566354E1,2.6321573E2,2.3851235E3,3.6261253E0,4.574112E0,4.5541986E2,3.3711926E1,5.923933E2,4.420482E2,4.5314282E2,2.2770202E0,1.0238362E1,2.3473564E1,5.892278E2,3.165531E0,3.0133383E2,1.4071434E2,1.0213697E0,1.2556505E0,8.452927E0,1.7854359E0,5.5178925E2,3.743853E1,1.0212411E0,2.1442897E0,7.1555114E0,1.3355884E2],"tree_param":{"num_deleted":"0","num_feature":"17","num_nodes":"39","size_leaf_vector":"1"}},{"base_weights":[-2.5270472E-4,1.7105839E-1,-1.5375978E-1],"categories":[],"categories_nodes":[],"categories_segments":[],"categories_sizes":[],"default_left":[0,0,0],"id":44,"left_children":[1,-1,-1],"loss_changes":[1.6045729E3,0E0,0E0],"parents":[2147483647,0,0],"right_children":[2,-1,-1],"split_conditions":[-5.2780825E-1,1.7105839E-1,-1.5375978E-1],"split_indices":[4,0,0],"split_type":[0,0,0],"sum_hessian":[5.488813E3,2.596915E3,2.891898E3],"tree_param":{"num_deleted":"0","num_feature":"17","num_nodes":"3","size_leaf_vector":"1"}},{"base_weights":[-3.4109238E-4,-1.5375967E-1,5.6861764E-1,1.7105311E-1,-1.2170422E-1],"categories":[],"categories_nodes":[],"categories_segments":[],"categories_sizes":[],"default_left":[0,0,0,0,0],"id":45,"left_children":[1,-1,3,-1,-1],"loss_changes":[1.6000665E3,0E0,4.1832886E0,0E0,0E0],"parents":[2147483647,0,0,2,2],"right_children":[2,-1,4,-1,-1],"split_conditions":[-1.5791629E-1,-1.5375967E-1,-1.7750423E-1,1.7105311E-1,-1.2170422E-1],"split_indices":[11,0,0,0,0],"split_type":[0,0,0,0,0],"sum_hessian":[5.4886685E3,2.8884822E3,2.600186E3,2.5964453E3,3.7408843E0],"tree_param":{"num_deleted":"0","num_feature":"17","num_nodes":"5","size_leaf_vector":"1"}},{"base_weights":[-1.3296552E-5,5.6276214E-1,-5.0976086E-1,-1.4129485E-1,1.7021304E-1,-1.1496269E-1,-1.537537E-1,-1.4279951E-1,4.0653157E-1,1.0952181E-1,1.677007E-1,1.3806589E-1,-6.2006578E-2],"categories":[],"categories_nodes":[],"categories_segments":[],"categories_sizes":[],"default_left":[0,0,0,0,0,0,0,0,0,0,0,0,0],"id":46,"left_children":[1,3,5,-1,-1,7,-1,-1,9,11,-1,-1,-1],"loss_changes":[1.5791427E3,1.2747803E1,3.0787354E0,0E0,0E0,4.200095E0,0E0,0E0,3.5743475E-1,5.80803E-1,0E0,0E0,0E0],"parents":[2147483647,0,0,1,1,2,2,5,5,8,8,9,9],"right_children":[2,4,6,-1,-1,8,-1,-1,10,12,-1,-1,-1],"split_conditions":[-4.9228147E-1,-5.2780825E-1,-4.9044585E-1,-1.4129485E-1,1.7021304E-1,6.577072E-1,-1.537537E-1,-1.4279951E-1,-3.9738703E-1,-4.0265742E-1,1.677007E-1,1.3806589E-1,-6.2006578E-2],"split_indices":[3,4,3,0,0,5,0,0,12,2,0,0,0],"split_type":[0,0,0,0,0,0,0,0,0,0,0,0,0],"sum_hessian":[5.502668E3,2.6152527E3,2.8874153E3,1.1173578E1,2.604079E3,2.0280159E1,2.867135E3,1.2035266E1,8.244894E0,3.3796737E0,4.86522E0,1.3865159E0,1.993158E0],"tree_param":{"num_deleted":"0","num_feature":"17","num_nodes":"13","size_leaf_vector":"1"}},{"base_weights":[-2.9057058E-4,-1.5375972E-1,1.7105442E-1],"categories":[],"categories_nodes":[],"categories_segments":[],"categories_sizes":[],"default_left":[0,0,0],"id":47,"left_children":[1,-1,-1],"loss_changes":[1.6044038E3,0E0,0E0],"parents":[2147483647,0,0],"right_children":[2,-1,-1],"split_conditions":[2.067558E0,-1.5375972E-1,1.7105442E-1],"split_indices":[6,0,0],"split_type":[0,0,0],"sum_hessian":[5.4884053E3,2.8918442E3,2.5965613E3],"tree_param":{"num_deleted":"0","num_feature":"17","num_nodes":"3","size_leaf_vector":"1"}},{"base_weights":[-2.9907847E-4,-1.5276423E-1,4.470728E-1,-1.5212786E-1,1.6518924E-1],"categories":[],"categories_nodes":[],"categories_segments":[],"categories_sizes":[],"default_left":[0,0,0,0,0],"id":48,"left_children":[1,-1,3,-1,-1],"loss_changes":[9.547696E2,0E0,2.2079977E2,0E0,0E0],"parents":[2147483647,0,0,2,2],"right_children":[2,-1,4,-1,-1],"split_conditions":[1.6203839E0,-1.5276423E-1,-4.5554298E-1,-1.5212786E-1,1.6518924E-1],"split_indices":[0,0,3,0,0],"split_type":[0,0,0,0,0],"sum_hessian":[4.191577E3,1.9608464E3,2.2307305E3,2.1802142E2,2.0127091E3],"tree_param":{"num_deleted":"0","num_feature":"17","num_nodes":"5","size_leaf_vector":"1"}},{"base_weights":[1.4005221E-3,-4.9625078E-1,2.3092084E-1,-3.7791693E-1,-4.99067E-1,-2.9930797E-1,4.4788232E-1,-1.4749917E-1,1.0064425E-1,-4.7630456E-1,-1.5266147E-1,-3.549283E-1,1.6315721E-1,-1.5206046E-1,1.6516788E-1,-1.1358836E-1,1.4013398E-1,-1.5244538E-1,7.0275253E-1,-4.970369E-1,-1.748761E-1,1.5488099E-1,3.0095023E-1,-4.9922535E-1,-9.929821E-2,-1.5217288E-1,4.733993E-1,-1.5105493E-1,-1.1570001E-1,7.23701E-2,-9.5662564E-2,-2.090379E-2,1.6401827E-1],"categories":[],"categories_nodes":[],"categories_segments":[],"categories_sizes":[],"default_left":[0,0,0,0,0,0,0,0,0,0,0,0,0,0,0,0,0,0,0,0,0,0,0,0,0,0,0,0,0,0,0,0,0],"id":49,"left_children":[1,3,5,7,9,11,13,-1,15,17,-1,19,-1,-1,-1,-1,-1,-1,21,23,25,-1,-1,27,29,-1,31,-1,-1,-1,-1,-1,-1],"loss_changes":[4.8141403E2,2.5473022E-1,3.3195667E2,1.9570947E0,4.6936035E-2,3.949991E1,2.0097638E2,0E0,1.5046741E0,1.5597534E1,0E0,2.0047157E1,0E0,0E0,0E0,0E0,0E0,0E0,1.03619576E-1,3.3275604E-1,7.536154E1,0E0,0E0,1.8554688E-2,3.499852E-1,0E0,4.764429E0,0E0,0E0,0E0,0E0,0E0,0E0],"parents":[2147483647,0,0,1,1,2,2,3,3,4,4,5,5,6,6,8,8,9,9,11,11,18,18,19,19,20,20,23,23,24,24,26,26],"right_children":[2,4,6,8,10,12,14,-1,16,18,-1,20,-1,-1,-1,-1,-1,-1,22,24,26,-1,-1,28,30,-1,32,-1,-1,-1,-1,-1,-1],"split_conditions":[-7.1829E-1,-4.7174212E-1,-4.787177E-1,4.6522135E-1,-4.434866E-1,-1.23281E-3,-5.2780825E-1,-1.4749917E-1,-4.9228147E-1,4.285274E-1,-1.5266147E-1,-4.9333137E-1,1.6315721E-1,-1.5206046E-1,1.6516788E-1,-1.1358836E-1,1.4013398E-1,-1.5244538E-1,-4.567632E-1,1.6695782E0,-9.5664716E-1,1.5488099E-1,3.0095023E-1,-4.9403712E-1,2.1841468E-1,-1.5217288E-1,-4.9044585E-1,-1.5105493E-1,-1.1570001E-1,7.23701E-2,-9.5662564E-2,-2.090379E-2,1.6401827E-1],"split_indices":[1,3,3,4,3,2,4,0,3,4,0,3,0,0,0,0,0,0,3,9,16,0,0,3,1,0,3,0,0,0,0,0,0],"split_type":[0,0,0,0,0,0,0,0,0,0,0,0,0,0,0,0,0,0,0,0,0,0,0,0,0,0,0,0,0,0,0,0,0],"sum_hessian":[4.212753E3,1.3293226E3,2.8834304E3,3.4043915E1,1.2952787E3,8.371509E2,2.0462797E3,2.7483994E1,6.5599213E0,4.048809E2,8.903978E2,7.8588794E2,5.1262928E1,1.9831352E2,1.8479661E3,2.82811E0,3.7318113E0,3.9478662E2,1.0094274E1,4.3824042E2,3.4764752E2,7.905473E0,2.1888008E0,4.3558853E2,2.6518793E0,2.2996397E2,1.17683556E2,4.164191E2,1.9169436E1,1.0009394E0,1.65094E0,1.4005644E1,1.0367792E2],"tree_param":{"num_deleted":"0","num_feature":"17","num_nodes":"33","size_leaf_vector":"1"}},{"base_weights":[-2.771024E-4,1.651884E-1,-1.5276998E-1],"categories":[],"categories_nodes":[],"categories_segments":[],"categories_sizes":[],"default_left":[0,0,0],"id":50,"left_children":[1,-1,-1],"loss_changes":[1.1757123E3,0E0,0E0],"parents":[2147483647,0,0],"right_children":[2,-1,-1],"split_conditions":[-5.2780825E-1,1.651884E-1,-1.5276998E-1],"split_indices":[4,0,0],"split_type":[0,0,0],"sum_hessian":[4.191184E3,2.0126099E3,2.1785742E3],"tree_param":{"num_deleted":"0","num_feature":"17","num_nodes":"3","size_leaf_vector":"1"}},{"base_weights":[-4.3756346E-4,-1.5276985E-1,5.4907E-1,1.6518058E-1,-1.1404921E-1],"categories":[],"categories_nodes":[],"categories_segments":[],"categories_sizes":[],"default_left":[0,0,0,0,0],"id":51,"left_children":[1,-1,3,-1,-1],"loss_changes":[1.1722223E3,0E0,3.0786743E0,0E0,0E0],"parents":[2147483647,0,0,2,2],"right_children":[2,-1,4,-1,-1],"split_conditions":[-1.5791629E-1,-1.5276985E-1,-1.7750423E-1,1.6518058E-1,-1.1404921E-1],"split_indices":[11,0,0,0,0],"split_type":[0,0,0,0,0],"sum_hessian":[4.1906953E3,2.1759924E3,2.0147029E3,2.0117937E3,2.9090948E0],"tree_param":{"num_deleted":"0","num_feature":"17","num_nodes":"5","size_leaf_vector":"1"}},{"base_weights":[-2.931802E-5,5.424605E-1,-5.0600576E-1,-1.3689415E-1,5.4689324E-1,-8.900731E-2,-1.5276319E-1,1.6423644E-1,-8.798228E-2,-1.388444E-1,3.717046E-1,1.7632275E-3,1.4578703E-1],"categories":[],"categories_nodes":[],"categories_segments":[],"categories_sizes":[],"default_left":[0,0,0,0,0,0,0,0,0,0,0,0,0],"id":52,"left_children":[1,3,5,-1,7,9,-1,-1,-1,-1,11,-1,-1],"loss_changes":[1.1549995E3,9.239929E0,2.8642578E0,0E0,1.114624E0,3.240394E0,0E0,0E0,0E0,0E0,3.5388923E-1,0E0,0E0],"parents":[2147483647,0,0,1,1,2,2,4,4,5,5,10,10],"right_children":[2,4,6,-1,8,10,-1,-1,-1,-1,12,-1,-1],"split_conditions":[-4.9228147E-1,-5.2780825E-1,-4.9044585E-1,-1.3689415E-1,-3.2182756E-1,6.577072E-1,-1.5276319E-1,1.6423644E-1,-8.798228E-2,-1.388444E-1,-5.882283E-1,1.7632275E-3,1.4578703E-1],"split_indices":[3,4,3,0,2,5,0,0,0,0,9,0,0],"split_type":[0,0,0,0,0,0,0,0,0,0,0,0,0],"sum_hessian":[4.2058467E3,2.0296532E3,2.1761936E3,8.517734E0,2.0211355E3,1.6816793E1,2.1593767E3,2.0201337E3,1.0018402E0,9.281504E0,7.535289E0,2.0435214E0,5.4917674E0],"tree_param":{"num_deleted":"0","num_feature":"17","num_nodes":"13","size_leaf_vector":"1"}},{"base_weights":[-3.645638E-4,-1.5276991E-1,1.6518228E-1],"categories":[],"categories_nodes":[],"categories_segments":[],"categories_sizes":[],"default_left":[0,0,0],"id":53,"left_children":[1,-1,-1],"loss_changes":[1.1754608E3,0E0,0E0],"parents":[2147483647,0,0],"right_children":[2,-1,-1],"split_conditions":[2.067558E0,-1.5276991E-1,1.6518228E-1],"split_indices":[6,0,0],"split_type":[0,0,0],"sum_hessian":[4.1904995E3,2.178526E3,2.0119736E3],"tree_param":{"num_deleted":"0","num_feature":"17","num_nodes":"3","size_leaf_vector":"1"}},{"base_weights":[-4.0796233E-4,-1.5201342E-1,4.3658948E-1,-1.511764E-1,1.6100833E-1],"categories":[],"categories_nodes":[],"categories_segments":[],"categories_sizes":[],"default_left":[0,0,0,0,0],"id":54,"left_children":[1,-1,3,-1,-1],"loss_changes":[7.031734E2,0E0,1.6087314E2,0E0,0E0],"parents":[2147483647,0,0,2,2],"right_children":[2,-1,4,-1,-1],"split_conditions":[1.6203839E0,-1.5201342E-1,-4.5554298E-1,-1.511764E-1,1.6100833E-1],"split_indices":[0,0,3,0,0],"split_type":[0,0,0,0,0],"sum_hessian":[3.176138E3,1.471317E3,1.704821E3,1.6361198E2,1.5412091E3],"tree_param":{"num_deleted":"0","num_feature":"17","num_nodes":"5","size_leaf_vector":"1"}},{"base_weights":[1.7400736E-3,-4.9270076E-1,2.2645974E-1,-3.6808774E-1,-4.9564308E-1,-2.930911E-1,4.3736273E-1,-1.4513586E-1,9.490605E-2,-5.1547553E-2,-4.960083E-1,-3.4840587E-1,1.5815695E-1,-1.5108655E-1,1.6098818E-1,-1.0529026E-1,1.2845153E-1,-4.7184062E-1,-1.5187728E-1,-4.9054125E-1,-1.6988881E-1,-1.5158921E-1,1.938375E-1,-4.934331E-1,-4.668651E-2,-1.512306E-1,4.544853E-1,-1.4973497E-1,-1.0510277E-1,-8.514367E-2,7.260999E-2,-9.611706E-3,1.5936388E-1],"categories":[],"categories_nodes":[],"categories_segments":[],"categories_sizes":[],"default_left":[0,0,0,0,0,0,0,0,0,0,0,0,0,0,0,0,0,0,0,0,0,0,0,0,0,0,0,0,0,0,0,0,0],"id":55,"left_children":[1,3,5,7,9,11,13,-1,15,-1,17,19,-1,-1,-1,-1,-1,21,-1,23,25,-1,-1,27,29,-1,31,-1,-1,-1,-1,-1,-1],"loss_changes":[3.5544345E2,1.8408203E-1,2.4112611E2,1.4892275E0,2.9937744E-2,2.9024353E1,1.4642929E2,0E0,1.0749598E0,0E0,1.8920898E-3,1.5041183E1,0E0,0E0,0E0,0E0,0E0,1.1703903E1,0E0,4.0223694E-1,5.568442E1,0E0,0E0,9.275818E-2,2.9114142E-1,0E0,3.495432E0,0E0,0E0,0E0,0E0,0E0,0E0],"parents":[2147483647,0,0,1,1,2,2,3,3,4,4,5,5,6,6,8,8,10,10,11,11,17,17,19,19,20,20,23,23,24,24,26,26],"right_children":[2,4,6,8,10,12,14,-1,16,-1,18,20,-1,-1,-1,-1,-1,22,-1,24,26,-1,-1,28,30,-1,32,-1,-1,-1,-1,-1,-1],"split_conditions":[-7.1829E-1,-4.7174212E-1,-4.787177E-1,4.6522135E-1,-4.4676262E-1,-1.23281E-3,-5.2780825E-1,-1.4513586E-1,-4.9228147E-1,-5.1547553E-2,-4.434866E-1,-4.9333137E-1,1.5815695E-1,-1.5108655E-1,1.6098818E-1,-1.0529026E-1,1.2845153E-1,4.285274E-1,-1.5187728E-1,1.6695782E0,-9.5664716E-1,-1.5158921E-1,1.938375E-1,-4.9403712E-1,-4.5338124E-1,-1.512306E-1,-4.9044585E-1,-1.4973497E-1,-1.0510277E-1,-8.514367E-2,7.260999E-2,-9.611706E-3,1.5936388E-1],"split_indices":[1,3,3,4,11,2,4,0,3,0,3,3,0,0,0,0,0,4,0,9,16,0,0,3,11,0,3,0,0,0,0,0,0],"split_type":[0,0,0,0,0,0,0,0,0,0,0,0,0,0,0,0,0,0,0,0,0,0,0,0,0,0,0,0,0,0,0,0,0],"sum_hessian":[3.197002E3,9.9861053E2,2.1983916E3,2.5943739E1,9.726668E2,6.346262E2,1.5637653E3,2.0720854E1,5.222884E0,1.6269414E0,9.7103986E2,5.950733E2,3.9552876E1,1.4883168E2,1.4149336E3,2.2112944E0,3.01159E0,3.0318076E2,6.678591E2,3.3032248E2,2.6475085E2,2.9490338E2,8.277388E0,3.2807327E2,2.249197E0,1.7257045E2,9.218039E1,3.1314713E2,1.4926151E1,1.244273E0,1.004924E0,1.2636394E1,7.9544E1],"tree_param":{"num_deleted":"0","num_feature":"17","num_nodes":"33","size_leaf_vector":"1"}},{"base_weights":[-3.046549E-4,1.6101074E-1,-1.5202166E-1],"categories":[],"categories_nodes":[],"categories_segments":[],"categories_sizes":[],"default_left":[0,0,0],"id":56,"left_children":[1,-1,-1],"loss_changes":[8.6430817E2,0E0,0E0],"parents":[2147483647,0,0],"right_children":[2,-1,-1],"split_conditions":[-5.2780825E-1,1.6101074E-1,-1.5202166E-1],"split_indices":[4,0,0],"split_type":[0,0,0],"sum_hessian":[3.1760857E3,1.541484E3,1.6346016E3],"tree_param":{"num_deleted":"0","num_feature":"17","num_nodes":"3","size_leaf_vector":"1"}},{"base_weights":[-5.54555E-4,-1.5202151E-1,5.351359E-1,1.6100146E-1,-1.0584792E-1],"categories":[],"categories_nodes":[],"categories_segments":[],"categories_sizes":[],"default_left":[0,0,0,0,0],"id":57,"left_children":[1,-1,3,-1,-1],"loss_changes":[8.6155963E2,0E0,2.2942505E0,0E0,0E0],"parents":[2147483647,0,0,2,2],"right_children":[2,-1,4,-1,-1],"split_conditions":[-1.5791629E-1,-1.5202151E-1,-1.7750423E-1,1.6100146E-1,-1.0584792E-1],"split_indices":[11,0,0,0,0],"split_type":[0,0,0,0,0],"sum_hessian":[3.175336E3,1.6326597E3,1.5426763E3,1.540408E3,2.2682767E0],"tree_param":{"num_deleted":"0","num_feature":"17","num_nodes":"5","size_leaf_vector":"1"}},{"base_weights":[-3.9430182E-5,5.275478E-1,-5.0299865E-1,-1.3191533E-1,5.318763E-1,-7.237386E-2,-1.520139E-1,1.5960684E-1,4.648446E-2,-1.3852394E-1,3.25179E-1,4.043814E-1,-5.970144E-3,1.471768E-1,-6.4468915E-3],"categories":[],"categories_nodes":[],"categories_segments":[],"categories_sizes":[],"default_left":[0,0,0,0,0,0,0,0,0,0,0,0,0,0,0],"id":58,"left_children":[1,3,5,-1,7,9,-1,-1,-1,-1,11,13,-1,-1,-1],"loss_changes":[8.473793E2,6.759247E0,2.578186E0,0E0,3.1738281E-3,2.4948962E0,0E0,0E0,0E0,0E0,2.2892922E-1,2.5358415E-1,0E0,0E0,0E0],"parents":[2147483647,0,0,1,1,2,2,4,4,5,5,10,10,11,11],"right_children":[2,4,6,-1,8,10,-1,-1,-1,-1,12,14,-1,-1,-1],"split_conditions":[-4.9228147E-1,-5.2780825E-1,-4.9044585E-1,-1.3191533E-1,-4.464148E-1,-6.480814E-1,-1.520139E-1,1.5960684E-1,4.648446E-2,-1.3852394E-1,-2.6071468E-1,-4.4676262E-1,-5.970144E-3,1.471768E-1,-6.4468915E-3],"split_indices":[3,4,3,0,11,14,0,0,0,0,7,11,0,0,0],"split_type":[0,0,0,0,0,0,0,0,0,0,0,0,0,0,0],"sum_hessian":[3.1913813E3,1.557533E3,1.6338483E3,6.4908442E0,1.5510421E3,1.4147309E1,1.619701E3,1.5500286E3,1.0136633E0,7.065612E0,7.0816975E0,5.619959E0,1.4617386E0,4.5474615E0,1.0724974E0],"tree_param":{"num_deleted":"0","num_feature":"17","num_nodes":"15","size_leaf_vector":"1"}},{"base_weights":[-4.4475248E-4,-1.520216E-1,1.610038E-1],"categories":[],"categories_nodes":[],"categories_segments":[],"categories_sizes":[],"default_left":[0,0,0],"id":59,"left_children":[1,-1,-1],"loss_changes":[8.640285E2,0E0,0E0],"parents":[2147483647,0,0],"right_children":[2,-1,-1],"split_conditions":[2.067558E0,-1.520216E-1,1.610038E-1],"split_indices":[6,0,0],"split_type":[0,0,0],"sum_hessian":[3.1752454E3,1.6345616E3,1.5406836E3],"tree_param":{"num_deleted":"0","num_feature":"17","num_nodes":"3","size_leaf_vector":"1"}},{"base_weights":[-5.48819E-4,-1.5143949E-1,4.2897224E-1,-1.503327E-1,1.579918E-1],"categories":[],"categories_nodes":[],"categories_segments":[],"categories_sizes":[],"default_left":[0,0,0,0,0],"id":60,"left_children":[1,-1,3,-1,-1],"loss_changes":[5.187824E2,0E0,1.17761734E2,0E0,0E0],"parents":[2147483647,0,0,2,2],"right_children":[2,-1,4,-1,-1],"split_conditions":[1.6203839E0,-1.5143949E-1,-4.5554298E-1,-1.503327E-1,1.579918E-1],"split_indices":[0,0,3,0,0],"split_type":[0,0,0,0,0],"sum_hessian":[2.3932751E3,1.1007916E3,1.2924835E3,1.22432304E2,1.1700511E3],"tree_param":{"num_deleted":"0","num_feature":"17","num_nodes":"5","size_leaf_vector":"1"}},{"base_weights":[2.141348E-3,-4.898039E-1,2.2320977E-1,-3.578899E-1,-4.928867E-1,-2.8637367E-1,4.297103E-1,-1.4246716E-1,8.8281E-2,-4.4677496E-2,-1.4799981E-1,-3.4150198E-1,1.5425809E-1,-1.5021308E-1,1.5797117E-1,-9.669557E-2,1.1755707E-1,-4.8331296E-1,-1.647078E-1,-4.8713818E-1,1.1696484E-3,-1.5040067E-1,4.3721625E-1,-1.4840184E-1,-9.2662334E-2,-3.307685E-5,1.5575387E-1],"categories":[],"categories_nodes":[],"categories_segments":[],"categories_sizes":[],"default_left":[0,0,0,0,0,0,0,0,0,0,0,0,0,0,0,0,0,0,0,0,0,0,0,0,0,0,0],"id":61,"left_children":[1,3,5,7,9,11,13,-1,15,-1,-1,17,-1,-1,-1,-1,-1,19,21,23,-1,-1,25,-1,-1,-1,-1],"loss_changes":[2.6271344E2,1.2817383E-1,1.755081E2,1.1253734E0,3.8391113E-2,2.141428E1,1.0718848E2,0E0,7.688793E-1,0E0,0E0,1.1223316E1,0E0,0E0,0E0,0E0,0E0,4.6717072E-1,4.118603E1,1.799202E-1,0E0,0E0,2.6185083E0,0E0,0E0,0E0,0E0],"parents":[2147483647,0,0,1,1,2,2,3,3,4,4,5,5,6,6,8,8,11,11,17,17,18,18,19,19,22,22],"right_children":[2,4,6,8,10,12,14,-1,16,-1,-1,18,-1,-1,-1,-1,-1,20,22,24,-1,-1,26,-1,-1,-1,-1],"split_conditions":[-7.1829E-1,-4.7174212E-1,-4.787177E-1,4.6522135E-1,-4.4676262E-1,-1.23281E-3,-5.2780825E-1,-1.4246716E-1,-4.9228147E-1,-4.4677496E-2,-1.4799981E-1,-4.9333137E-1,1.5425809E-1,-1.5021308E-1,1.5797117E-1,-9.669557E-2,1.1755707E-1,1.6695782E0,-9.5664716E-1,-4.9403712E-1,1.1696484E-3,-1.5040067E-1,-4.9044585E-1,-1.4840184E-1,-9.2662334E-2,-3.307685E-5,1.5575387E-1],"split_indices":[1,3,3,4,11,2,4,0,3,0,0,3,0,0,0,0,0,9,16,3,0,0,3,0,0,0,0],"split_type":[0,0,0,0,0,0,0,0,0,0,0,0,0,0,0,0,0,0,0,0,0,0,0,0,0,0,0],"sum_hessian":[2.4136716E3,7.47977E2,1.6656946E3,1.9754837E1,7.2822217E2,4.802327E2,1.1854619E3,1.5599712E1,4.155124E0,1.376677E0,7.2684546E2,4.498301E2,3.0402576E1,1.1138169E2,1.0740802E3,1.7399826E0,2.4151416E0,2.4864893E2,2.011812E2,2.4671208E2,1.9368409E0,1.2913127E2,7.204993E1,2.3500427E2,1.1707816E1,1.1529783E1,6.0520145E1],"tree_param":{"num_deleted":"0","num_feature":"17","num_nodes":"27","size_leaf_vector":"1"}},{"base_weights":[-3.3542656E-4,1.5799654E-1,-1.5145111E-1],"categories":[],"categories_nodes":[],"categories_segments":[],"categories_sizes":[],"default_left":[0,0,0],"id":62,"left_children":[1,-1,-1],"loss_changes":[6.368898E2,0E0,0E0],"parents":[2147483647,0,0],"right_children":[2,-1,-1],"split_conditions":[-5.2780825E-1,1.5799654E-1,-1.5145111E-1],"split_indices":[4,0,0],"split_type":[0,0,0],"sum_hessian":[2.393515E3,1.1706439E3,1.2228711E3],"tree_param":{"num_deleted":"0","num_feature":"17","num_nodes":"3","size_leaf_vector":"1"}},{"base_weights":[-7.0342404E-4,-1.5145093E-1,5.250549E-1,1.5798622E-1,-9.722536E-2],"categories":[],"categories_nodes":[],"categories_segments":[],"categories_sizes":[],"default_left":[0,0,0,0,0],"id":63,"left_children":[1,-1,3,-1,-1],"loss_changes":[6.346811E2,0E0,1.7291565E0,0E0,0E0],"parents":[2147483647,0,0,2,2],"right_children":[2,-1,4,-1,-1],"split_conditions":[-1.5791629E-1,-1.5145093E-1,-1.7750423E-1,1.5798622E-1,-9.722536E-2],"split_indices":[11,0,0,0,0],"split_type":[0,0,0,0,0],"sum_hessian":[2.3925518E3,1.2214152E3,1.1711366E3,1.1693601E3,1.776521E0],"tree_param":{"num_deleted":"0","num_feature":"17","num_nodes":"5","size_leaf_vector":"1"}},{"base_weights":[-4.576924E-5,5.159679E-1,-5.0044787E-1,-1.2620977E-1,5.202472E-1,-5.631647E-2,-1.514423E-1,5.2199376E-1,3.9703417E-1,-1.3417543E-1,2.8979158E-1,1.5684214E-1,3.086762E-1,4.492337E-1,-3.7306115E-2,6.751451E-3,3.8152426E-1,1.32221E-1,-6.7002095E-2,1.4988941E-1,-3.5117447E-2,1.6955463E-2,1.4507344E-1],"categories":[],"categories_nodes":[],"categories_segments":[],"categories_sizes":[],"default_left":[0,0,0,0,0,0,0,0,0,0,0,0,0,0,0,0,0,0,0,0,0,0,0],"id":64,"left_children":[1,3,5,-1,7,9,-1,11,13,-1,15,-1,17,19,-1,-1,21,-1,-1,-1,-1,-1,-1],"loss_changes":[6.2266656E2,4.977539E0,2.342102E0,0E0,4.714966E-2,1.8921543E0,0E0,4.0374756E-2,6.1927557E-1,0E0,1.7570156E-1,0E0,5.802186E-1,6.0171795E-1,0E0,0E0,1.5618885E-1,0E0,0E0,0E0,0E0,0E0,0E0],"parents":[2147483647,0,0,1,1,2,2,4,4,5,5,7,7,8,8,10,10,12,12,13,13,16,16],"right_children":[2,4,6,-1,8,10,-1,12,14,-1,16,-1,18,20,-1,-1,22,-1,-1,-1,-1,-1,-1],"split_conditions":[-4.9228147E-1,-5.2780825E-1,-4.9044585E-1,-1.2620977E-1,-4.9333137E-1,-6.480814E-1,-1.514423E-1,1.6695782E0,-1.5429524E-1,-1.3417543E-1,5.9823686E-1,1.5684214E-1,-3.9584857E-1,1.1202172E0,-3.7306115E-2,6.751451E-3,7.1593827E-1,1.32221E-1,-6.7002095E-2,1.4988941E-1,-3.5117447E-2,1.6955463E-2,1.4507344E-1],"split_indices":[3,4,3,0,3,14,0,9,7,0,4,0,12,16,0,0,5,0,0,0,0,0,0],"split_type":[0,0,0,0,0,0,0,0,0,0,0,0,0,0,0,0,0,0,0,0,0,0,0],"sum_hessian":[2.409433E3,1.1861975E3,1.2232357E3,4.9521174E0,1.1812454E3,1.2026384E1,1.2112092E3,1.1615441E3,1.9701334E1,5.5102415E0,6.516143E0,1.1556866E3,5.857325E0,1.80342E1,1.6671329E0,1.983126E0,4.533017E0,4.8299727E0,1.0273525E0,1.6668488E1,1.3657119E0,1.4545593E0,3.0784576E0],"tree_param":{"num_deleted":"0","num_feature":"17","num_nodes":"23","size_leaf_vector":"1"}},{"base_weights":[-5.262204E-4,-1.5145107E-1,1.5798971E-1],"categories":[],"categories_nodes":[],"categories_segments":[],"categories_sizes":[],"default_left":[0,0,0],"id":65,"left_children":[1,-1,-1],"loss_changes":[6.366183E2,0E0,0E0],"parents":[2147483647,0,0],"right_children":[2,-1,-1],"split_conditions":[2.067558E0,-1.5145107E-1,1.5798971E-1],"split_indices":[6,0,0],"split_type":[0,0,0],"sum_hessian":[2.3926367E3,1.2228395E3,1.1697972E3],"tree_param":{"num_deleted":"0","num_feature":"17","num_nodes":"3","size_leaf_vector":"1"}},{"base_weights":[-6.7831884E-4,-1.5099746E-1,4.2342257E-1,-1.4952405E-1,1.5579222E-1],"categories":[],"categories_nodes":[],"categories_segments":[],"categories_sizes":[],"default_left":[0,0,0,0,0],"id":66,"left_children":[1,-1,3,-1,-1],"loss_changes":[3.8348245E2,0E0,8.650079E1,0E0,0E0],"parents":[2147483647,0,0,2,2],"right_children":[2,-1,4,-1,-1],"split_conditions":[1.6203839E0,-1.5099746E-1,-4.5554298E-1,-1.4952405E-1,1.5579222E-1],"split_indices":[0,0,3,0,0],"split_type":[0,0,0,0,0],"sum_hessian":[1.7969275E3,8.2222974E2,9.746977E2,9.143583E1,8.832619E2],"tree_param":{"num_deleted":"0","num_feature":"17","num_nodes":"5","size_leaf_vector":"1"}},{"base_weights":[2.6967006E-3,-4.8444438E-1,2.2074586E-1,-4.4335198E-1,-1.504781E-1,-2.789421E-1,4.240584E-1,-1.5019727E-1,3.3233535E-2,-3.3377677E-1,1.5083675E-1,-1.4936489E-1,1.5576552E-1,4.4887176E-1,-1.3538808E-1,-4.8438653E-1,-1.6699025E-1,-8.870878E-2,1.7630942E-1,-4.8979887E-1,1.8158134E-2,-1.496232E-1,3.262287E-1,-1.5028371E-1,-7.452313E-2,-3.2053746E-2,1.5278815E-1],"categories":[],"categories_nodes":[],"categories_segments":[],"categories_sizes":[],"default_left":[0,0,0,0,0,0,0,0,0,0,0,0,0,0,0,0,0,0,0,0,0,0,0,0,0,0,0],"id":67,"left_children":[1,3,5,7,-1,9,11,-1,13,15,-1,-1,-1,17,-1,19,21,-1,-1,23,-1,-1,25,-1,-1,-1,-1],"loss_changes":[1.9340605E2,1.7436218E-1,1.2790024E2,4.779358E0,0E0,1.5786602E1,7.872786E1,0E0,4.161024E0,8.486961E0,0E0,0E0,0E0,1.3192143E0,0E0,5.5669785E-1,2.6895267E1,0E0,0E0,3.519745E-1,0E0,0E0,5.311047E0,0E0,0E0,0E0,0E0],"parents":[2147483647,0,0,1,1,2,2,3,3,5,5,6,6,8,8,9,9,13,13,15,15,16,16,19,19,22,22],"right_children":[2,4,6,8,-1,10,12,-1,14,16,-1,-1,-1,18,-1,20,22,-1,-1,24,-1,-1,26,-1,-1,-1,-1],"split_conditions":[-7.1829E-1,-4.0051648E-1,-4.787177E-1,4.285274E-1,-1.504781E-1,-1.23281E-3,-5.2780825E-1,-1.5019727E-1,1.6203839E0,-4.9403712E-1,1.5083675E-1,-1.4936489E-1,1.5576552E-1,-4.9228147E-1,-1.3538808E-1,1.6695782E0,-1.0489916E0,-8.870878E-2,1.7630942E-1,7.793952E-1,1.8158134E-2,-1.496232E-1,-4.9044585E-1,-1.5028371E-1,-7.452313E-2,-3.2053746E-2,1.5278815E-1],"split_indices":[1,11,3,4,0,2,4,0,0,3,0,0,0,3,0,9,9,0,0,5,0,0,3,0,0,0,0],"split_type":[0,0,0,0,0,0,0,0,0,0,0,0,0,0,0,0,0,0,0,0,0,0,0,0,0,0,0],"sum_hessian":[1.8187875E3,5.620025E2,1.256785E3,1.7338838E2,3.8861414E2,3.6336322E2,8.9342175E2,1.5473253E2,1.8655848E1,3.4008118E2,2.328202E1,8.3192566E1,8.102292E2,1.0081391E1,8.574456E0,1.7770642E2,1.6237477E2,1.4067253E0,8.674666E0,1.7605887E2,1.6475538E0,9.707084E1,6.530393E1,1.6725987E2,8.798986E0,1.9526564E1,4.577737E1],"tree_param":{"num_deleted":"0","num_feature":"17","num_nodes":"27","size_leaf_vector":"1"}},{"base_weights":[-4.783311E-4,1.5579467E-1,-1.5101309E-1],"categories":[],"categories_nodes":[],"categories_segments":[],"categories_sizes":[],"default_left":[0,0,0],"id":68,"left_children":[1,-1,-1],"loss_changes":[4.7022885E2,0E0,0E0],"parents":[2147483647,0,0],"right_children":[2,-1,-1],"split_conditions":[-5.2780825E-1,1.5579467E-1,-1.5101309E-1],"split_indices":[4,0,0],"split_type":[0,0,0],"sum_hessian":[1.796861E3,8.83572E2,9.1328894E2],"tree_param":{"num_deleted":"0","num_feature":"17","num_nodes":"3","size_leaf_vector":"1"}},{"base_weights":[-8.41415E-4,-1.510129E-1,5.176721E-1,1.5578759E-1,-8.837908E-2],"categories":[],"categories_nodes":[],"categories_segments":[],"categories_sizes":[],"default_left":[0,0,0,0,0],"id":69,"left_children":[1,-1,3,-1,-1],"loss_changes":[4.685771E2,0E0,1.3174896E0,0E0,0E0],"parents":[2147483647,0,0,2,2],"right_children":[2,-1,4,-1,-1],"split_conditions":[-1.5791629E-1,-1.510129E-1,-1.7750423E-1,1.5578759E-1,-8.837908E-2],"split_indices":[11,0,0,0,0],"split_type":[0,0,0,0,0],"sum_hessian":[1.7962693E3,9.122046E2,8.840647E2,8.8266516E2,1.3994852E0],"tree_param":{"num_deleted":"0","num_feature":"17","num_nodes":"5","size_leaf_vector":"1"}},{"base_weights":[-1.2601094E-4,5.065413E-1,-4.9813026E-1,-1.1969965E-1,5.1081604E-1,-3.903948E-2,-1.5100315E-1,5.130643E-1,3.6449385E-1,-1.2918855E-1,2.6291528E-1,1.5423921E-1,2.688536E-1,-1.417615E-3,1.4100277E-1,3.2971463E-1,-1.8962998E-2,1.2539935E-1,-6.346759E-2,1.1432133E-1,-1.9761677E-1,1.2978764E-1,-9.635509E-3],"categories":[],"categories_nodes":[],"categories_segments":[],"categories_sizes":[],"default_left":[0,0,0,0,0,0,0,0,0,0,0,0,0,0,0,0,0,0,0,0,0,0,0],"id":70,"left_children":[1,3,5,-1,7,9,-1,11,13,-1,15,-1,17,19,-1,21,-1,-1,-1,-1,-1,-1,-1],"loss_changes":[4.5802377E2,3.6868134E0,2.171463E0,0E0,1.0777283E-1,1.456848E0,0E0,9.0927124E-2,6.5749574E-1,0E0,1.7413983E-1,0E0,5.127311E-1,1.4589757E0,0E0,2.3736864E-1,0E0,0E0,0E0,0E0,0E0,0E0,0E0],"parents":[2147483647,0,0,1,1,2,2,4,4,5,5,7,7,8,8,10,10,12,12,13,13,15,15],"right_children":[2,4,6,-1,8,10,-1,12,14,-1,16,-1,18,20,-1,22,-1,-1,-1,-1,-1,-1,-1],"split_conditions":[-4.9228147E-1,-5.2780825E-1,-4.9044585E-1,-1.1969965E-1,-4.9333137E-1,-6.480814E-1,-1.5100315E-1,1.6695782E0,-4.4336155E-1,-1.2918855E-1,-4.4676262E-1,1.5423921E-1,1.0479745E0,-7.2226906E-1,1.4100277E-1,-2.6071468E-1,-1.8962998E-2,1.2539935E-1,-6.346759E-2,1.1432133E-1,-1.9761677E-1,1.2978764E-1,-9.635509E-3],"split_indices":[3,4,3,0,3,14,0,9,14,0,11,0,10,14,0,7,0,0,0,0,0,0,0],"split_type":[0,0,0,0,0,0,0,0,0,0,0,0,0,0,0,0,0,0,0,0,0,0,0],"sum_hessian":[1.8132317E3,8.9878973E2,9.1444196E2,3.7890513E0,8.9500073E2,1.0363366E1,9.0407855E2,8.7898846E2,1.6012224E1,4.3264666E0,6.0368996E0,8.740667E2,4.9217834E0,3.8046908E0,1.2207533E1,5.0014586E0,1.0354407E0,3.8549354E0,1.0668483E0,2.6707952E0,1.1338956E0,3.741632E0,1.2598269E0],"tree_param":{"num_deleted":"0","num_feature":"17","num_nodes":"23","size_leaf_vector":"1"}},{"base_weights":[-6.0511526E-4,-1.5101306E-1,1.557912E-1],"categories":[],"categories_nodes":[],"categories_segments":[],"categories_sizes":[],"default_left":[0,0,0],"id":71,"left_children":[1,-1,-1],"loss_changes":[4.70094E2,0E0,0E0],"parents":[2147483647,0,0],"right_children":[2,-1,-1],"split_conditions":[2.067558E0,-1.5101306E-1,1.557912E-1],"split_indices":[6,0,0],"split_type":[0,0,0],"sum_hessian":[1.7964005E3,9.132678E2,8.831327E2],"tree_param":{"num_deleted":"0","num_feature":"17","num_nodes":"3","size_leaf_vector":"1"}},{"base_weights":[-8.651561E-4,-1.5063728E-1,4.192269E-1,-1.4868122E-1,1.5416092E-1],"categories":[],"categories_nodes":[],"categories_segments":[],"categories_sizes":[],"default_left":[0,0,0,0,0],"id":72,"left_children":[1,-1,3,-1,-1],"loss_changes":[2.8357834E2,0E0,6.369017E1,0E0,0E0],"parents":[2147483647,0,0,2,2],"right_children":[2,-1,4,-1,-1],"split_conditions":[1.6203839E0,-1.5063728E-1,-4.5554298E-1,-1.4868122E-1,1.5416092E-1],"split_indices":[0,0,3,0,0],"split_type":[0,0,0,0,0],"sum_hessian":[1.3446863E3,6.130236E2,7.3166266E2,6.819953E1,6.6346313E2],"tree_param":{"num_deleted":"0","num_feature":"17","num_nodes":"5","size_leaf_vector":"1"}},{"base_weights":[3.3170842E-3,-4.8192838E-1,2.1885613E-1,-4.4079256E-1,-1.5032457E-1,-2.5758463E-1,4.2507106E-1,-1.4973621E-1,4.2642686E-1,-3.1645322E-1,1.4847961E-1,-1.4829157E-1,1.5412785E-1,-7.9956554E-2,1.6529727E-1,-4.769679E-1,-1.5175359E-1,-4.84115E-1,2.4946045E-2,-1.4892505E-1,3.276931E-1,-1.4968026E-1,-5.7999812E-2,-1.8661624E-2,1.5054591E-1],"categories":[],"categories_nodes":[],"categories_segments":[],"categories_sizes":[],"default_left":[0,0,0,0,0,0,0,0,0,0,0,0,0,0,0,0,0,0,0,0,0,0,0,0,0],"id":73,"left_children":[1,3,5,7,-1,9,11,-1,13,15,-1,-1,-1,-1,-1,17,19,21,-1,-1,23,-1,-1,-1,-1],"loss_changes":[1.4303334E2,1.1053467E-1,9.3145485E1,7.3926563E0,0E0,1.2856062E1,5.4172394E1,0E0,9.6550894E-1,6.972542E0,0E0,0E0,0E0,0E0,0E0,5.786514E-1,2.2139511E1,4.7640038E-1,0E0,0E0,3.8483243E0,0E0,0E0,0E0,0E0],"parents":[2147483647,0,0,1,1,2,2,3,3,5,5,6,6,8,8,9,9,15,15,16,16,17,17,20,20],"right_children":[2,4,6,8,-1,10,12,-1,14,16,-1,-1,-1,-1,-1,18,20,22,-1,-1,24,-1,-1,-1,-1],"split_conditions":[-7.1829E-1,-4.434866E-1,-4.7821563E-1,4.285274E-1,-1.5032457E-1,-1.23281E-3,-5.2780825E-1,-1.4973621E-1,-4.9228147E-1,-4.9403712E-1,1.4847961E-1,-1.4829157E-1,1.5412785E-1,-7.9956554E-2,1.6529727E-1,1.6695782E0,-1.0489916E0,7.793952E-1,2.4946045E-2,-1.4892505E-1,-4.9044585E-1,-1.4968026E-1,-5.7999812E-2,-1.8661624E-2,1.5054591E-1],"split_indices":[1,3,3,4,0,2,4,0,3,3,0,0,0,0,0,9,9,5,0,0,3,0,0,0,0],"split_type":[0,0,0,0,0,0,0,0,0,0,0,0,0,0,0,0,0,0,0,0,0,0,0,0,0],"sum_hessian":[1.3655624E3,4.1962347E2,9.4593896E2,1.409405E2,2.7868295E2,2.8567163E2,6.6026733E2,1.3245612E2,8.484379E0,2.6548267E2,2.0188957E1,5.7687233E1,6.025801E2,1.1191145E0,7.3652644E0,1.334893E2,1.3199338E2,1.3194144E2,1.5478617E0,7.6769875E1,5.52235E1,1.2486225E2,7.0791893E0,1.7247105E1,3.7976395E1],"tree_param":{"num_deleted":"0","num_feature":"17","num_nodes":"25","size_leaf_vector":"1"}},{"base_weights":[-5.378652E-4,1.541644E-1,-1.5065905E-1],"categories":[],"categories_nodes":[],"categories_segments":[],"categories_sizes":[],"default_left":[0,0,0],"id":74,"left_children":[1,-1,-1],"loss_changes":[3.4754727E2,0E0,0E0],"parents":[2147483647,0,0],"right_children":[2,-1,-1],"split_conditions":[-5.2780825E-1,1.541644E-1,-1.5065905E-1],"split_indices":[4,0,0],"split_type":[0,0,0],"sum_hessian":[1.3447537E3,6.6392084E2,6.8083276E2],"tree_param":{"num_deleted":"0","num_feature":"17","num_nodes":"3","size_leaf_vector":"1"}},{"base_weights":[-1.0704788E-3,-1.5065882E-1,5.121552E-1,1.541563E-1,-7.954581E-2],"categories":[],"categories_nodes":[],"categories_segments":[],"categories_sizes":[],"default_left":[0,0,0,0,0],"id":75,"left_children":[1,-1,3,-1,-1],"loss_changes":[3.4617648E2,0E0,1.0144958E0,0E0,0E0],"parents":[2147483647,0,0,2,2],"right_children":[2,-1,4,-1,-1],"split_conditions":[-1.5791629E-1,-1.5065882E-1,-1.7750423E-1,1.541563E-1,-7.954581E-2],"split_indices":[11,0,0,0,0],"split_type":[0,0,0,0,0],"sum_hessian":[1.3439927E3,6.8002344E2,6.6396924E2,6.6285925E2,1.1100028E0],"tree_param":{"num_deleted":"0","num_feature":"17","num_nodes":"5","size_leaf_vector":"1"}},{"base_weights":[-9.4821895E-5,4.982598E-1,-4.960547E-1,-1.1239422E-1,5.0256664E-1,-3.3320088E-2,-1.5064737E-1,5.0552714E-1,3.270182E-1,-1.2391151E-1,2.2974281E-1,1.5207982E-1,2.3050246E-1,-5.3629752E-2,1.3579538E-1,-8.108097E-3,3.304401E-1,1.19278826E-1,-7.03612E-2,1.0917982E-1,-2.132367E-1,1.17631275E-2,1.2826884E-1],"categories":[],"categories_nodes":[],"categories_segments":[],"categories_sizes":[],"default_left":[0,0,0,0,0,0,0,0,0,0,0,0,0,0,0,0,0,0,0,0,0,0,0],"id":76,"left_children":[1,3,5,-1,7,9,-1,11,13,-1,15,-1,17,19,-1,-1,21,-1,-1,-1,-1,-1,-1],"loss_changes":[3.3703336E2,2.745285E0,1.9134216E0,0E0,1.8666077E-1,1.0905813E0,0E0,1.3990784E-1,6.968397E-1,0E0,1.777972E-1,0E0,4.9817726E-1,1.4616755E0,0E0,0E0,1.1806589E-1,0E0,0E0,0E0,0E0,0E0,0E0],"parents":[2147483647,0,0,1,1,2,2,4,4,5,5,7,7,8,8,10,10,12,12,13,13,16,16],"right_children":[2,4,6,-1,8,10,-1,12,14,-1,16,-1,18,20,-1,-1,22,-1,-1,-1,-1,-1,-1],"split_conditions":[-4.9228147E-1,-5.2780825E-1,-4.9044585E-1,-1.1239422E-1,-4.9333137E-1,-6.480814E-1,-1.5064737E-1,1.6695782E0,-4.4336155E-1,-1.2391151E-1,5.9823686E-1,1.5207982E-1,-4.9498382E-1,-6.20267E-1,1.3579538E-1,-8.108097E-3,7.1593827E-1,1.19278826E-1,-7.03612E-2,1.0917982E-1,-2.132367E-1,1.17631275E-2,1.2826884E-1],"split_indices":[3,4,3,0,3,14,0,9,14,0,4,0,3,14,0,0,5,0,0,0,0,0,0],"split_type":[0,0,0,0,0,0,0,0,0,0,0,0,0,0,0,0,0,0,0,0,0,0,0],"sum_hessian":[1.3616025E3,6.791593E2,6.824433E2,2.9122386E0,6.762471E2,8.967872E0,6.734754E2,6.6318317E2,1.3063918E1,3.4368448E0,5.5310273E0,6.589721E2,4.2110586E0,3.384017E0,9.679901E0,1.7641618E0,3.7668657E0,3.2046297E0,1.0064288E0,2.3420615E0,1.0419552E0,1.293107E0,2.4737587E0],"tree_param":{"num_deleted":"0","num_feature":"17","num_nodes":"23","size_leaf_vector":"1"}},{"base_weights":[-7.982814E-4,-1.5065902E-1,1.5415922E-1],"categories":[],"categories_nodes":[],"categories_segments":[],"categories_sizes":[],"default_left":[0,0,0],"id":77,"left_children":[1,-1,-1],"loss_changes":[3.473521E2,0E0,0E0],"parents":[2147483647,0,0],"right_children":[2,-1,-1],"split_conditions":[2.067558E0,-1.5065902E-1,1.5415922E-1],"split_indices":[6,0,0],"split_type":[0,0,0],"sum_hessian":[1.3440603E3,6.8081525E2,6.6324506E2],"tree_param":{"num_deleted":"0","num_feature":"17","num_nodes":"3","size_leaf_vector":"1"}},{"base_weights":[-1.1533516E-3,-1.503321E-1,4.159859E-1,-1.4773387E-1,1.5293173E-1],"categories":[],"categories_nodes":[],"categories_segments":[],"categories_sizes":[],"default_left":[0,0,0,0,0],"id":78,"left_children":[1,-1,3,-1,-1],"loss_changes":[2.0981696E2,0E0,4.6979347E1,0E0,0E0],"parents":[2147483647,0,0,2,2],"right_children":[2,-1,4,-1,-1],"split_conditions":[1.6203839E0,-1.503321E-1,-4.5554298E-1,-1.4773387E-1,1.5293173E-1],"split_indices":[0,0,3,0,0],"split_type":[0,0,0,0,0],"sum_hessian":[1.0040743E3,4.5661118E2,5.4746313E2,5.0833206E1,4.966299E2],"tree_param":{"num_deleted":"0","num_feature":"17","num_nodes":"5","size_leaf_vector":"1"}},{"base_weights":[4.1254857E-3,-4.797304E-1,2.173493E-1,-4.360721E-1,-1.4991814E-1,-2.474474E-1,4.2172047E-1,-1.4913131E-1,3.985536E-1,-3.0575E-1,1.4553975E-1,-1.4721845E-1,1.5289296E-1,-5.8211908E-2,1.5471382E-1,-4.677729E-1,-1.4198624E-1,-4.7717056E-1,3.0413397E-2,-1.4805515E-1,3.1580564E-1,-1.4905418E-1,-4.0136904E-2,-6.718909E-3,1.4814508E-1],"categories":[],"categories_nodes":[],"categories_segments":[],"categories_sizes":[],"default_left":[0,0,0,0,0,0,0,0,0,0,0,0,0,0,0,0,0,0,0,0,0,0,0,0,0],"id":79,"left_children":[1,3,5,7,-1,9,11,-1,13,15,-1,-1,-1,-1,-1,17,19,21,-1,-1,23,-1,-1,-1,-1],"loss_changes":[1.058452E2,5.605316E-2,6.7748085E1,5.6197605E0,0E0,9.464317E0,3.996074E1,0E0,6.4213705E-1,5.310581E0,0E0,0E0,0E0,0E0,0E0,5.908928E-1,1.6605782E1,6.08902E-1,0E0,0E0,2.7207632E0,0E0,0E0,0E0,0E0],"parents":[2147483647,0,0,1,1,2,2,3,3,5,5,6,6,8,8,9,9,15,15,16,16,17,17,20,20],"right_children":[2,4,6,8,-1,10,12,-1,14,16,-1,-1,-1,-1,-1,18,20,22,-1,-1,24,-1,-1,-1,-1],"split_conditions":[-7.1829E-1,-4.434866E-1,-4.7821563E-1,4.285274E-1,-1.4991814E-1,-1.23281E-3,-5.2780825E-1,-1.4913131E-1,-4.7918317E-1,-4.9403712E-1,1.4553975E-1,-1.4721845E-1,1.5289296E-1,-5.8211908E-2,1.5471382E-1,1.6695782E0,-9.5664716E-1,7.793952E-1,3.0413397E-2,-1.4805515E-1,-4.9044585E-1,-1.4905418E-1,-4.0136904E-2,-6.718909E-3,1.4814508E-1],"split_indices":[1,3,3,4,0,2,4,0,3,3,0,0,0,0,0,9,16,5,0,0,3,0,0,0,0],"split_type":[0,0,0,0,0,0,0,0,0,0,0,0,0,0,0,0,0,0,0,0,0,0,0,0,0],"sum_hessian":[1.0239233E3,3.1281693E2,7.111063E2,1.0543373E2,2.073832E2,2.1711526E2,4.939911E2,9.862607E1,6.8076644E0,2.0164957E2,1.5465701E1,4.3014263E1,4.5097684E2,1.0154239E0,5.7922406E0,1.004304E2,1.0121917E2,9.895804E1,1.472357E0,5.7210285E1,4.400888E1,9.317208E1,5.785955E0,1.5477501E1,2.8531382E1],"tree_param":{"num_deleted":"0","num_feature":"17","num_nodes":"25","size_leaf_vector":"1"}},{"base_weights":[-5.9303816E-4,1.52937E-1,-1.5036216E-1],"categories":[],"categories_nodes":[],"categories_segments":[],"categories_sizes":[],"default_left":[0,0,0],"id":80,"left_children":[1,-1,-1],"loss_changes":[2.571317E2,0E0,0E0],"parents":[2147483647,0,0],"right_children":[2,-1,-1],"split_conditions":[-5.2780825E-1,1.52937E-1,-1.5036216E-1],"split_indices":[4,0,0],"split_type":[0,0,0],"sum_hessian":[1.0043669E3,4.97322E2,5.0704492E2],"tree_param":{"num_deleted":"0","num_feature":"17","num_nodes":"3","size_leaf_vector":"1"}},{"base_weights":[-1.3628352E-3,-1.5036182E-1,5.079551E-1,2.8879598E-1,1.5292493E-1,-4.1142505E-2,1.236289E-1],"categories":[],"categories_nodes":[],"categories_segments":[],"categories_sizes":[],"default_left":[0,0,0,0,0,0,0],"id":81,"left_children":[1,-1,3,5,-1,-1,-1],"loss_changes":[2.5596548E2,0E0,4.866028E-2,3.9010775E-1,0E0,0E0,0E0],"parents":[2147483647,0,0,2,2,3,3],"right_children":[2,-1,4,6,-1,-1,-1],"split_conditions":[-1.5791629E-1,-1.5036182E-1,2.1507986E0,4.0352482E-1,1.5292493E-1,-4.1142505E-2,1.236289E-1],"split_indices":[11,0,3,11,0,0,0],"split_type":[0,0,0,0,0,0,0],"sum_hessian":[1.00344574E3,5.0644147E2,4.970043E2,5.3519263E0,4.9165237E2,1.1762716E0,4.175655E0],"tree_param":{"num_deleted":"0","num_feature":"17","num_nodes":"7","size_leaf_vector":"1"}},{"base_weights":[-6.280877E-5,4.9036515E-1,-4.9385998E-1,-1.04391016E-1,4.9473745E-1,-2.5319174E-2,-1.5034835E-1,5.02187E-1,3.7378943E-1,-1.1809432E-1,2.0506737E-1,1.5125078E-1,1.676503E-1,9.116525E-2,4.4857553E-1,-1.1270668E-2,3.0794394E-1,-7.067287E-2,1.08617775E-1,3.004602E-1,-1.8831037E-1,-2.8755354E-2,1.4550535E-1,1.1440674E-2,1.20119214E-1,-6.63354E-2,1.285738E-1],"categories":[],"categories_nodes":[],"categories_segments":[],"categories_sizes":[],"default_left":[0,0,0,0,0,0,0,0,0,0,0,0,0,0,0,0,0,0,0,0,0,0,0,0,0,0,0],"id":82,"left_children":[1,3,5,-1,7,9,-1,11,13,-1,15,-1,17,19,21,-1,23,-1,-1,25,-1,-1,-1,-1,-1,-1,-1],"loss_changes":[2.4785373E2,2.0543213E0,1.7318954E0,0E0,2.7290344E-1,8.3410704E-1,0E0,2.3288727E-1,6.687064E-1,0E0,1.643171E-1,0E0,4.2375937E-1,1.4343567E0,5.6813765E-1,0E0,9.463754E-2,0E0,0E0,5.684922E-1,0E0,0E0,0E0,0E0,0E0,0E0,0E0],"parents":[2147483647,0,0,1,1,2,2,4,4,5,5,7,7,8,8,10,10,12,12,13,13,14,14,16,16,19,19],"right_children":[2,4,6,-1,8,10,-1,12,14,-1,16,-1,18,20,22,-1,24,-1,-1,26,-1,-1,-1,-1,-1,-1,-1],"split_conditions":[-4.9228147E-1,-5.2780825E-1,-4.9044585E-1,-1.04391016E-1,-4.9403712E-1,-6.480814E-1,-1.5034835E-1,1.6695782E0,-4.4336155E-1,-1.1809432E-1,5.9823686E-1,1.5125078E-1,2.5001445E-1,-5.099475E-1,-9.1931546E-1,-1.1270668E-2,7.1593827E-1,-7.067287E-2,1.08617775E-1,-5.806378E-1,-1.8831037E-1,-2.8755354E-2,1.4550535E-1,1.1440674E-2,1.20119214E-1,-6.63354E-2,1.285738E-1],"split_indices":[3,4,3,0,3,14,0,9,14,0,4,0,15,14,10,0,5,0,0,10,0,0,0,0,0,0,0],"split_type":[0,0,0,0,0,0,0,0,0,0,0,0,0,0,0,0,0,0,0,0,0,0,0,0,0,0,0],"sum_hessian":[1.02146185E3,5.124828E2,5.089791E2,2.251241E0,5.102315E2,7.8781657E0,5.0110092E2,4.7765903E2,3.257249E1,2.758845E0,5.1193204E0,4.7434134E2,3.3176832E0,7.2799277E0,2.529256E1,1.7132962E0,3.4060242E0,1.0103483E0,2.307335E0,6.089137E0,1.1907904E0,1.4845169E0,2.3808044E1,1.2297394E0,2.1762848E0,1.0576249E0,5.0315123E0],"tree_param":{"num_deleted":"0","num_feature":"17","num_nodes":"27","size_leaf_vector":"1"}},{"base_weights":[-1.0332916E-3,-1.5036212E-1,1.5293033E-1],"categories":[],"categories_nodes":[],"categories_segments":[],"categories_sizes":[],"default_left":[0,0,0],"id":83,"left_children":[1,-1,-1],"loss_changes":[2.5689288E2,0E0,0E0],"parents":[2147483647,0,0],"right_children":[2,-1,-1],"split_conditions":[2.067558E0,-1.5036212E-1,1.5293033E-1],"split_indices":[6,0,0],"split_type":[0,0,0],"sum_hessian":[1.0034937E3,5.0703067E2,4.9646304E2],"tree_param":{"num_deleted":"0","num_feature":"17","num_nodes":"3","size_leaf_vector":"1"}},{"base_weights":[-1.5225875E-3,-1.5005524E-1,4.1340548E-1,-1.4660604E-1,1.5198316E-1],"categories":[],"categories_nodes":[],"categories_segments":[],"categories_sizes":[],"default_left":[0,0,0,0,0],"id":84,"left_children":[1,-1,3,-1,-1],"loss_changes":[1.5533633E2,0E0,3.470172E1,0E0,0E0],"parents":[2147483647,0,0,2,2],"right_children":[2,-1,4,-1,-1],"split_conditions":[1.6203839E0,-1.5005524E-1,-4.5554298E-1,-1.4660604E-1,1.5198316E-1],"split_indices":[0,0,3,0,0],"split_type":[0,0,0,0,0],"sum_hessian":[7.487489E2,3.3996848E2,4.0878043E2,3.788306E1,3.7089737E2],"tree_param":{"num_deleted":"0","num_feature":"17","num_nodes":"5","size_leaf_vector":"1"}},{"base_weights":[5.104152E-3,-4.7747287E-1,2.1603276E-1,-4.2806694E-1,-1.4912996E-1,-2.2439165E-1,4.240981E-1,-1.4815982E-1,4.8795782E-2,-2.8389868E-1,1.4316931E-1,-1.4558204E-1,1.5193075E-1,3.6418083E-1,-1.1769952E-1,-4.5615134E-1,-1.2304936E-1,-3.3204604E-2,1.4328812E-1,-4.8084444E-1,-7.935921E-2,-1.4720316E-1,3.13602E-1,-1.4835085E-1,4.0782172E-2,2.0135604E-1,-1.1917705E-1,2.5944165E-3,1.463174E-1],"categories":[],"categories_nodes":[],"categories_segments":[],"categories_sizes":[],"default_left":[0,0,0,0,0,0,0,0,0,0,0,0,0,0,0,0,0,0,0,0,0,0,0,0,0,0,0,0,0],"id":85,"left_children":[1,3,5,7,-1,9,11,-1,13,15,-1,-1,-1,17,-1,19,21,-1,-1,23,25,-1,27,-1,-1,-1,-1,-1,-1],"loss_changes":[7.835316E1,1.42326355E-2,4.9177883E1,2.338647E0,0E0,7.3378563E0,2.7509079E1,0E0,1.5138627E0,4.367134E0,0E0,0E0,0E0,3.9035416E-1,0E0,6.7566395E-1,1.3625953E1,0E0,0E0,6.7212677E-1,1.6782521E0,0E0,2.065136E0,0E0,0E0,0E0,0E0,0E0,0E0],"parents":[2147483647,0,0,1,1,2,2,3,3,5,5,6,6,8,8,9,9,13,13,15,15,16,16,19,19,20,20,22,22],"right_children":[2,4,6,8,-1,10,12,-1,14,16,-1,-1,-1,18,-1,20,22,-1,-1,24,26,-1,28,-1,-1,-1,-1,-1,-1],"split_conditions":[-7.1829E-1,-4.0051648E-1,-4.777083E-1,4.285274E-1,-1.4912996E-1,-1.23281E-3,-5.2780825E-1,-1.4815982E-1,1.6203839E0,-4.9403712E-1,1.4316931E-1,-1.4558204E-1,1.5193075E-1,-4.443107E-1,-1.1769952E-1,7.793952E-1,-1.0489916E0,-3.3204604E-2,1.4328812E-1,1.6695782E0,5.454893E-1,-1.4720316E-1,-4.9044585E-1,-1.4835085E-1,4.0782172E-2,2.0135604E-1,-1.1917705E-1,2.5944165E-3,1.463174E-1],"split_indices":[1,11,3,4,0,2,4,0,0,3,0,0,0,11,0,5,9,0,0,9,4,0,3,0,0,0,0,0,0],"split_type":[0,0,0,0,0,0,0,0,0,0,0,0,0,0,0,0,0,0,0,0,0,0,0,0,0,0,0,0,0],"sum_hessian":[7.6774493E2,2.3312401E2,5.346209E2,7.276545E1,1.6035857E2,1.715058E2,3.6311508E2,6.391113E1,8.854324E0,1.5864587E2,1.285993E1,2.97417E1,3.3337338E2,5.2647276E0,3.5895965E0,7.572089E1,8.292499E1,1.0199189E0,4.2448087E0,7.080455E1,4.916336E0,4.4953644E1,3.797134E1,6.9464554E1,1.3399979E0,1.1321162E0,3.7842197E0,1.4182366E1,2.3788973E1],"tree_param":{"num_deleted":"0","num_feature":"17","num_nodes":"29","size_leaf_vector":"1"}},{"base_weights":[-6.679362E-4,1.5198979E-1,-1.500964E-1],"categories":[],"categories_nodes":[],"categories_segments":[],"categories_sizes":[],"default_left":[0,0,0],"id":86,"left_children":[1,-1,-1],"loss_changes":[1.9040695E2,0E0,0E0],"parents":[2147483647,0,0],"right_children":[2,-1,-1],"split_conditions":[-5.2780825E-1,1.5198979E-1,-1.500964E-1],"split_indices":[4,0,0],"split_type":[0,0,0],"sum_hessian":[7.491879E2,3.7174222E2,3.774457E2],"tree_param":{"num_deleted":"0","num_feature":"17","num_nodes":"3","size_leaf_vector":"1"}},{"base_weights":[-1.6465671E-3,-1.5009587E-1,5.0460833E-1,2.677679E-1,1.5197563E-1,-3.264296E-2,1.1595038E-1],"categories":[],"categories_nodes":[],"categories_segments":[],"categories_sizes":[],"default_left":[0,0,0,0,0,0,0],"id":87,"left_children":[1,-1,3,5,-1,-1,-1],"loss_changes":[1.8941245E2,0E0,3.869629E-2,2.747159E-1,0E0,0E0,0E0],"parents":[2147483647,0,0,2,2,3,3],"right_children":[2,-1,4,6,-1,-1,-1],"split_conditions":[-1.5791629E-1,-1.5009587E-1,2.1507986E0,5.733347E-1,1.5197563E-1,-3.264296E-2,1.1595038E-1],"split_indices":[11,0,3,11,0,0,0],"split_type":[0,0,0,0,0,0,0],"sum_hessian":[7.482801E2,3.7696875E2,3.7131137E2,4.203504E0,3.6710785E2,1.0276763E0,3.175828E0],"tree_param":{"num_deleted":"0","num_feature":"17","num_nodes":"7","size_leaf_vector":"1"}},{"base_weights":[-5.6164554E-5,4.8217013E-1,-4.9140424E-1,-9.587644E-2,4.8663715E-1,-1.7112104E-2,-1.5008E-1,4.9644282E-1,3.4075505E-1,-1.11835405E-1,1.8530594E-1,4.9906984E-1,1.3542138E-1,3.566902E-2,4.303881E-1,2.8181472E-1,-1.8723367E-2,5.044567E-1,3.8329637E-1,1.02562055E-1,-7.1166664E-2,1.1887413E-1,-3.8738504E-1,-3.6861252E-2,1.4256418E-1,1.0014096E-1,2.1247463E-2,4.554461E-2,1.5154698E-1,1.0752503E-2,1.428715E-1,8.929001E-2,-2.603102E-1],"categories":[],"categories_nodes":[],"categories_segments":[],"categories_sizes":[],"default_left":[0,0,0,0,0,0,0,0,0,0,0,0,0,0,0,0,0,0,0,0,0,0,0,0,0,0,0,0,0,0,0,0,0],"id":88,"left_children":[1,3,5,-1,7,9,-1,11,13,-1,15,17,19,21,23,25,-1,27,29,-1,-1,-1,31,-1,-1,-1,-1,-1,-1,-1,-1,-1,-1],"loss_changes":[1.8206769E2,1.5444412E0,1.5912552E0,0E0,3.830719E-1,6.462422E-1,0E0,2.7340698E-1,7.367513E-1,0E0,1.557001E-1,2.9037476E-2,3.865069E-1,1.2725419E0,5.8335185E-1,2.3949623E-2,0E0,6.614685E-3,6.293514E-1,0E0,0E0,0E0,1.5352535E0,0E0,0E0,0E0,0E0,0E0,0E0,0E0,0E0,0E0,0E0],"parents":[2147483647,0,0,1,1,2,2,4,4,5,5,7,7,8,8,10,10,11,11,12,12,13,13,14,14,15,15,17,17,18,18,22,22],"right_children":[2,4,6,-1,8,10,-1,12,14,-1,16,18,20,22,24,26,-1,28,30,-1,-1,-1,32,-1,-1,-1,-1,-1,-1,-1,-1,-1,-1],"split_conditions":[-4.9228147E-1,-5.2780825E-1,-4.9044585E-1,-9.587644E-2,-4.9403712E-1,-6.480814E-1,-1.5008E-1,1.6695782E0,-4.4336155E-1,-1.11835405E-1,7.668856E-1,7.793952E-1,-3.9654458E-1,-8.3394796E-1,-9.1931546E-1,-3.4951192E-1,-1.8723367E-2,-2.1430292E0,5.454893E-1,1.02562055E-1,-7.1166664E-2,1.1887413E-1,5.9823686E-1,-3.6861252E-2,1.4256418E-1,1.0014096E-1,2.1247463E-2,4.554461E-2,1.5154698E-1,1.0752503E-2,1.428715E-1,8.929001E-2,-2.603102E-1],"split_indices":[3,4,3,0,3,14,0,9,14,0,14,5,12,14,10,7,0,14,4,0,0,0,4,0,0,0,0,0,0,0,0,0,0],"split_type":[0,0,0,0,0,0,0,0,0,0,0,0,0,0,0,0,0,0,0,0,0,0,0,0,0,0,0,0,0,0,0,0,0],"sum_hessian":[7.6640955E2,3.8680457E2,3.7960495E2,1.7522912E0,3.8505228E2,7.01676E0,3.725882E2,3.5854886E2,2.6503428E1,2.2396939E0,4.777066E0,3.5557907E2,2.9697747E0,6.3358607E0,2.0167566E1,3.3386896E0,1.4383764E0,3.365618E2,1.9017282E1,1.9641616E0,1.005613E0,3.4547057E0,2.8811548E0,1.3810465E0,1.878652E1,2.2116513E0,1.1270382E0,1.098271E0,3.3546353E2,4.3058615E0,1.4711421E1,1.3442893E0,1.5368656E0],"tree_param":{"num_deleted":"0","num_feature":"17","num_nodes":"33","size_leaf_vector":"1"}},{"base_weights":[-1.3405764E-3,-1.5009637E-1,1.5198183E-1],"categories":[],"categories_nodes":[],"categories_segments":[],"categories_sizes":[],"default_left":[0,0,0],"id":89,"left_children":[1,-1,-1],"loss_changes":[1.9014014E2,0E0,0E0],"parents":[2147483647,0,0],"right_children":[2,-1,-1],"split_conditions":[2.067558E0,-1.5009637E-1,1.5198183E-1],"split_indices":[6,0,0],"split_type":[0,0,0],"sum_hessian":[7.4819116E2,3.7743423E2,3.7075693E2],"tree_param":{"num_deleted":"0","num_feature":"17","num_nodes":"3","size_leaf_vector":"1"}},{"base_weights":[-1.9449487E-3,-1.4978291E-1,4.112696E-1,-1.4521256E-1,1.512239E-1],"categories":[],"categories_nodes":[],"categories_segments":[],"categories_sizes":[],"default_left":[0,0,0,0,0],"id":90,"left_children":[1,-1,3,-1,-1],"loss_changes":[1.1509412E2,0E0,2.5662418E1,0E0,0E0],"parents":[2147483647,0,0,2,2],"right_children":[2,-1,4,-1,-1],"split_conditions":[1.6203839E0,-1.4978291E-1,-4.5554298E-1,-1.4521256E-1,1.512239E-1],"split_indices":[0,0,3,0,0],"split_type":[0,0,0,0,0],"sum_hessian":[5.5805707E2,2.5315718E2,3.048999E2,2.8242016E1,2.7665787E2],"tree_param":{"num_deleted":"0","num_feature":"17","num_nodes":"5","size_leaf_vector":"1"}},{"base_weights":[6.169405E-3,-1.4241152E-1,2.1461588E-1,-2.1062775E-1,4.2174944E-1,-2.6912463E-1,1.3996835E-1,-1.4387316E-1,1.5115611E-1,-4.4149292E-1,-1.1145245E-1,-4.736544E-1,-2.9507145E-2,-1.4523329E-1,2.9939634E-1,-1.4751059E-1,3.9717473E-2,-1.1486192E-1,2.0937862E-1,1.1493533E-2,1.437331E-1],"categories":[],"categories_nodes":[],"categories_segments":[],"categories_sizes":[],"default_left":[0,0,0,0,0,0,0,0,0,0,0,0,0,0,0,0,0,0,0,0,0],"id":91,"left_children":[1,-1,3,5,7,9,-1,-1,-1,11,13,15,17,-1,19,-1,-1,-1,-1,-1,-1],"loss_changes":[5.7985466E1,0E0,3.5633102E1,5.3879642E0,2.0347523E1,3.2913427E0,0E0,0E0,0E0,7.5960636E-1,1.0178282E1,6.5670586E-1,1.628064E0,0E0,1.4730935E0,0E0,0E0,0E0,0E0,0E0,0E0],"parents":[2147483647,0,0,2,2,3,3,4,4,5,5,9,9,10,10,11,11,12,12,14,14],"right_children":[2,-1,4,6,8,10,-1,-1,-1,12,14,16,18,-1,20,-1,-1,-1,-1,-1,-1],"split_conditions":[-7.1829E-1,-1.4241152E-1,-4.777083E-1,-1.23281E-3,-5.2780825E-1,-4.9403712E-1,1.3996835E-1,-1.4387316E-1,1.5115611E-1,7.793952E-1,-1.0245198E0,1.6695782E0,-2.540947E-1,-1.4523329E-1,-4.9044585E-1,-1.4751059E-1,3.9717473E-2,-1.1486192E-1,2.0937862E-1,1.1493533E-2,1.437331E-1],"split_indices":[1,0,3,2,4,3,0,0,0,5,9,9,7,0,3,0,0,0,0,0,0],"split_type":[0,0,0,0,0,0,0,0,0,0,0,0,0,0,0,0,0,0,0,0,0],"sum_hessian":[5.764698E2,1.7393472E2,4.0253506E2,1.3184383E2,2.7069122E2,1.21915146E2,9.928681E0,2.2195175E1,2.4849605E2,5.7383286E1,6.453186E1,5.3089214E1,4.294069E0,3.3745155E1,3.0786705E1,5.1737198E1,1.3520179E0,3.2089345E0,1.0851341E0,1.3046384E1,1.7740322E1],"tree_param":{"num_deleted":"0","num_feature":"17","num_nodes":"21","size_leaf_vector":"1"}},{"base_weights":[-7.9601834E-4,1.5123121E-1,-1.4983879E-1],"categories":[],"categories_nodes":[],"categories_segments":[],"categories_sizes":[],"default_left":[0,0,0],"id":92,"left_children":[1,-1,-1],"loss_changes":[1.4112051E2,0E0,0E0],"parents":[2147483647,0,0],"right_children":[2,-1,-1],"split_conditions":[-5.2780825E-1,1.5123121E-1,-1.4983879E-1],"split_indices":[4,0,0],"split_type":[0,0,0],"sum_hessian":[5.584985E2,2.7750934E2,2.8098917E2],"tree_param":{"num_deleted":"0","num_feature":"17","num_nodes":"3","size_leaf_vector":"1"}},{"base_weights":[-2.025818E-3,-1.4983802E-1,5.0184816E-1,2.4629448E-1,1.5121445E-1,-1.5023946E-2,1.0594021E-1],"categories":[],"categories_nodes":[],"categories_segments":[],"categories_sizes":[],"default_left":[0,0,0,0,0,0,0],"id":93,"left_children":[1,-1,3,5,-1,-1,-1],"loss_changes":[1.4026575E2,0E0,3.215027E-2,1.547434E-1,0E0,0E0,0E0],"parents":[2147483647,0,0,2,2,3,3],"right_children":[2,-1,4,6,-1,-1,-1],"split_conditions":[-1.5791629E-1,-1.4983802E-1,2.1507986E0,7.3882234E-1,1.5121445E-1,-1.5023946E-2,1.0594021E-1],"split_indices":[11,0,3,11,0,0,0],"split_type":[0,0,0,0,0,0,0],"sum_hessian":[5.57621E2,2.8060803E2,2.7701294E2,3.3284626E0,2.7368448E2,1.0227107E0,2.305752E0],"tree_param":{"num_deleted":"0","num_feature":"17","num_nodes":"7","size_leaf_vector":"1"}},{"base_weights":[1.4722782E-4,4.628863E-1,-1.4981876E-1,-1.1014868E-1,4.7174907E-1,4.7569183E-1,-8.940078E-2,4.9314854E-1,2.8734028E-1,4.966545E-1,1.0845848E-1,-1.5670491E-2,3.879165E-1,1.5119378E-1,1.05705574E-1,-7.0345215E-2,9.7281985E-2,-9.3700305E-2,1.1566281E-1,-4.5461327E-2,1.355299E-1],"categories":[],"categories_nodes":[],"categories_segments":[],"categories_sizes":[],"default_left":[0,0,0,0,0,0,0,0,0,0,0,0,0,0,0,0,0,0,0,0,0],"id":94,"left_children":[1,3,-1,-1,5,7,-1,9,11,13,15,17,19,-1,-1,-1,-1,-1,-1,-1,-1],"loss_changes":[1.335999E2,2.3804092E0,0E0,0E0,1.0440445E0,8.3210754E-1,0E0,3.0981445E-1,8.4468865E-1,1.0457611E-1,3.5097337E-1,1.0510368E0,7.814064E-1,0E0,0E0,0E0,0E0,0E0,0E0,0E0,0E0],"parents":[2147483647,0,0,1,1,4,4,5,5,7,7,8,8,9,9,10,10,11,11,12,12],"right_children":[2,4,-1,-1,6,8,-1,10,12,14,16,18,20,-1,-1,-1,-1,-1,-1,-1,-1],"split_conditions":[-4.9044585E-1,-5.2780825E-1,-1.4981876E-1,-1.1014868E-1,-3.2182756E-1,-4.9403712E-1,-8.940078E-2,1.6695782E0,-4.4336155E-1,7.793952E-1,-3.0482566E-1,7.0250034E-1,6.577072E-1,1.5119378E-1,1.05705574E-1,-7.0345215E-2,9.7281985E-2,-9.3700305E-2,1.1566281E-1,-4.5461327E-2,1.355299E-1],"split_indices":[3,4,0,0,2,3,0,9,14,5,14,5,5,0,0,0,0,0,0,0,0],"split_type":[0,0,0,0,0,0,0,0,0,0,0,0,0,0,0,0,0,0,0,0,0],"sum_hessian":[5.75959E2,2.9903183E2,2.7692715E2,2.7320604E0,2.9629974E2,2.951699E2,1.1298728E0,2.6865256E2,2.651734E1,2.659378E2,2.7147524E0,6.8186517E0,1.9698687E1,2.5071886E2,1.521893E1,1.0151355E0,1.6996169E0,4.047435E0,2.7712169E0,1.9394363E0,1.775925E1],"tree_param":{"num_deleted":"0","num_feature":"17","num_nodes":"21","size_leaf_vector":"1"}},{"base_weights":[-1.7601813E-3,-1.4983876E-1,1.5122184E-1],"categories":[],"categories_nodes":[],"categories_segments":[],"categories_sizes":[],"default_left":[0,0,0],"id":95,"left_children":[1,-1,-1],"loss_changes":[1.4083919E2,0E0,0E0],"parents":[2147483647,0,0],"right_children":[2,-1,-1],"split_conditions":[2.067558E0,-1.4983876E-1,1.5122184E-1],"split_indices":[6,0,0],"split_type":[0,0,0],"sum_hessian":[5.574311E2,2.8098004E2,2.7645105E2],"tree_param":{"num_deleted":"0","num_feature":"17","num_nodes":"3","size_leaf_vector":"1"}},{"base_weights":[-2.4165623E-3,-1.4949667E-1,4.0942925E-1,-1.4345647E-1,1.5058306E-1],"categories":[],"categories_nodes":[],"categories_segments":[],"categories_sizes":[],"default_left":[0,0,0,0,0],"id":96,"left_children":[1,-1,3,-1,-1],"loss_changes":[8.539648E1,0E0,1.89977E1,0E0,0E0],"parents":[2147483647,0,0,2,2],"right_children":[2,-1,4,-1,-1],"split_conditions":[1.6203839E0,-1.4949667E-1,-4.5554298E-1,-1.4345647E-1,1.5058306E-1],"split_indices":[0,0,3,0,0],"split_type":[0,0,0,0,0],"sum_hessian":[4.161261E2,1.8870067E2,2.2742543E2,2.1073109E1,2.0635231E2],"tree_param":{"num_deleted":"0","num_feature":"17","num_nodes":"5","size_leaf_vector":"1"}},{"base_weights":[7.806592E-3,-4.6603245E-1,2.1332394E-1,-4.011982E-1,-1.4853598E-1,-1.9452284E-1,4.1958612E-1,-1.4667693E-1,3.6519969E-1,-2.5051203E-1,1.3542771E-1,-1.4171927E-1,1.5049244E-1,8.744828E-3,1.3206717E-1,-4.2290235E-1,-9.678757E-2,-4.64334E-1,2.6861645E-2,-1.4448349E-1,2.8080976E-1,-1.46396E-1,-1.7237306E-2,2.1682069E-1,-1.0991982E-1,-1.0472909E-1,1.0523516E-1],"categories":[],"categories_nodes":[],"categories_segments":[],"categories_sizes":[],"default_left":[0,0,0,0,0,0,0,0,0,0,0,0,0,0,0,0,0,0,0,0,0,0,0,0,0,0,0],"id":97,"left_children":[1,3,5,7,-1,9,11,-1,13,15,-1,-1,-1,-1,-1,17,19,21,23,-1,25,-1,-1,-1,-1,-1,-1],"loss_changes":[4.2531536E1,5.0533295E-2,2.570547E1,3.284141E0,0E0,3.837818E0,1.5066345E1,0E0,1.2121159E-1,2.4876957E0,0E0,0E0,0E0,0E0,0E0,8.450875E-1,7.6529765E0,3.662176E-1,1.5548778E0,0E0,1.3013036E0,0E0,0E0,0E0,0E0,0E0,0E0],"parents":[2147483647,0,0,1,1,2,2,3,3,5,5,6,6,8,8,9,9,15,15,16,16,17,17,18,18,20,20],"right_children":[2,4,6,8,-1,10,12,-1,14,16,-1,-1,-1,-1,-1,18,20,22,24,-1,26,-1,-1,-1,-1,-1,-1],"split_conditions":[-7.1829E-1,-4.434866E-1,-4.777083E-1,4.285274E-1,